tree
version=v4
num_class=1
num_tree_per_iteration=1
label_index=0
max_feature_idx=19
objective=binary sigmoid:1
feature_names=customer_state seller_state is_same_state distance_km purchase_day_of_week purchase_hour purchase_month total_items total_price total_freight total_weight_g avg_product_volume_cm3 freight_ratio product_category total_payment max_installments primary_payment_type lead_time_days_estimated seller_historical_delay_rate seller_avg_review_score
feature_infos=-1:25:18:10:22:17:23:4:6:7:8:15:5:13:12:9:11:14:16:19:1:24:26:20:2:0:3 -1:21:7:14:15:19:18:3:1:5:12:6:4:9:2:8:16:11:17:13:10:20 [0:1] [0:9.0686514105493163] -1:0:1:2:3:4:6:5 -1:16:11:14:13:15:21:20:10:17:12:19:22:18:9:23:8:0:7:1:2:6:3:4 -1:7:4:6:2:5:3:1:0:10:11:9:8 [1:21] [0.84999999999999998:1340.0899999999529] [0:136.04149999999922] [0:12.124868013083418] [0:12.598820565229309] [0:1.806878] -1:14:12:33:45:55:73:67:71:9:13:27:41:63:10:31:60:34:64:0:56:21:51:29:22:32:46:49:17:2:58:15:8:11:52:50:20:35:54:30:44:24:3:72:4:25:1:62:26:69:7:40:39:23:57:70:65:19:28:48:6:37:53:59:42:36:43:16:5:47:66:18:38:61 [0:1415.8060999999968] [0:24] -1:2:1:4:3 [3:156] [0:1] [0:5]
tree_sizes=10075 10059 7554 10210 9581 9651 10343 10124 10711 9869 9369 9339 10260 8095 10625 9323 11411 10935 9927 9213 11623 9826 10185 11208 9733 9595 8428 11115 9804 9571 10047 11463 10562 8597 9706 10411 10052 10841 10919 9995 8963 9775 8794 10456 10804 11217 10377 10251 10843 8216 11265 10546 9554 11523 11192 9435 9798 9911 8681 10554 9785 10113 10154 10381 10055 11090 9472 11233 11380 10315 11506 11122 11113 8967 10286 10002 10790 10423 12721 8693 11521 9820 11880 11980 10603 10821 11690 10716 10586 10091 8705 11269 10423 12289 11223 11499 9160 10266 10275 9516 10840 10892 10830 9086 11956 11534 8360 10351 11777 10586 9938 11922 10577 10293 12264 10442 10342 10603 10152 10891 10097 10135 11027 10150 10781 10863 12722 10240 11965 9719 12098 11787 9774 11237 12516 10401 12281 11654 10547 12336 10009 11073 11864 10380 12371 9624 10152 10995 9555 10305 11255 10112 11214 11358 9222 11664 10767 9588 8521 10627 10689 11353 10601 11036 11346 12020 10633 7692 11665 11350 9801 10664 10250 11770 9266 11430 12420 10320 11187 10525 8679 11726 9785 10499 7729 11289 11102 10236 11388 9246 10669 10660 11959 9402 8715 10632 12372 10375 11432 11909 8897 9701 10582 10418 7462 11184 10865 9587 11316 10741 10805 12415 11353 11793 11074 10626 9833 9924 10985 11036 10824 9913 12918 10663 11270 12777 11151 8864 12571 11438 11800 9979 12710 9725 7862 8365 8379 9789 10709 10849 11073 10595 12722 11758 11156 9194 11190 9014 7761 11004

Tree=0
num_leaves=96
num_cat=4
split_feature=0 17 18 17 18 17 19 17 17 17 17 10 18 13 18 18 14 19 17 11 14 14 8 17 7 0 7 12 11 10 11 11 7 11 8 19 17 14 19 14 19 19 18 7 12 12 18 8 11 13 19 18 18 19 14 14 19 14 11 12 18 17 17 18 10 17 12 18 18 19 19 11 14 11 17 18 11 17 18 10 10 12 10 10 19 18 19 19 18 8 12 19 18 8 11
split_gain=14223.3 7801.58 5195.77 4921.01 2805.01 1226.34 1207.53 1167.19 964.137 792.492 761.25 673.366 604.969 582.628 513.474 485.529 485.125 382.762 364.444 342.028 328.379 277.53 261.712 353.277 259.112 254.794 254.708 248.087 230.494 227.678 216.925 213.728 210.389 207.746 302.06 207.001 206.341 197.835 192.222 191.67 228.413 181.306 181.297 177.1 171.355 169.22 167.988 224.408 165.5 163.626 156.778 156.506 149.598 181.773 145.124 141.249 130.548 129.123 116.725 114.532 106.534 120.745 104.688 149.665 105.423 87.5496 78.3683 73.1369 70.3068 88.835 68.0928 123.08 77.0419 64.4663 64.4544 62.5193 62.3628 58.9415 58.7373 62.0142 48.9006 48.4896 47.0232 36.6462 34.8656 48.1192 30.7543 70.6379 95.6426 22.1555 20.0316 18.073 17.5142 21.3375 11.5451
threshold=0 9.5000000000000018 0.076950000000000005 32.500000000000007 0.050550000000000005 22.500000000000004 4.0488500000000007 40.500000000000007 27.500000000000004 31.500000000000004 7.5000000000000009 6.8585644830997969 0.20030000000000003 1 0.055050000000000009 0.070150000000000004 59.065000000000005 4.1800500000000005 23.500000000000004 9.5107041729460189 524.79500000000007 524.79500000000007 190.99500000000003 34.500000000000007 1.5000000000000002 2 1.5000000000000002 0.41500550000000008 9.0025163274150426 8.5778154702514069 6.7019535744877095 9.893563468469555 1.5000000000000002 11.136390319985852 198.12000000000003 4.7153500000000008 12.500000000000002 145.99500000000003 4.1042500000000013 67.510000000000005 4.7374500000000008 4.3898500000000009 0.053850000000000009 1.5000000000000002 1.2595265000000002 0.12941050000000001 0.093050000000000008 49.985000000000007 10.248317559388616 3 4.1957500000000012 0.20845000000000005 0.065450000000000022 4.2545500000000009 221.43500000000003 36.895000000000003 4.801800000000001 80.125000000000014 7.3142198319787717 0.35313550000000005 0.10995000000000001 42.500000000000007 28.500000000000004 0.028750000000000001 6.8029500104663247 17.500000000000004 0.096913500000000014 0.063250000000000015 0.23090000000000002 3.8513500000000005 4.2083500000000011 8.4539338461026947 100.23500000000001 9.5977769988039174 43.500000000000007 0.13165000000000002 9.5754867369914098 5.5000000000000009 0.075350000000000014 7.5768655866129206 9.0316311618518039 0.32014600000000004 9.3948240908294185 5.6222091859522445 3.4947500000000002 0.097750000000000017 4.5371500000000013 4.367350000000001 0.076750000000000013 36.915000000000006 0.58160750000000017 3.9688500000000002 0.074850000000000014 39.895000000000003 7.561900877563315
decision_type=9 2 2 2 2 2 2 2 2 2 2 2 2 9 2 2 2 2 2 2 2 2 2 2 2 9 2 2 2 2 2 2 2 2 2 2 2 2 2 2 2 2 2 2 2 2 2 2 2 9 2 2 2 2 2 2 2 2 2 2 2 2 2 2 2 2 2 2 2 2 2 2 2 2 2 2 2 2 2 2 2 2 2 2 2 2 2 2 2 2 2 2 2 2 2
left_child=1 10 5 4 26 11 9 15 17 12 77 35 19 80 21 24 27 51 45 -4 25 -15 23 -11 39 60 36 49 74 32 -16 62 58 42 -35 37 -2 -3 -29 44 -41 55 -13 -20 -5 -18 70 -48 -24 -8 -30 67 53 -19 66 -38 -43 -14 -17 -37 -9 -62 64 -64 -28 -54 -10 -6 69 -56 78 83 -73 90 -27 -34 -68 92 79 -12 -7 -33 -22 -72 -31 -86 87 88 -79 -53 -26 -49 93 -1 -95
right_child=3 2 6 7 8 13 16 20 54 22 46 33 57 14 30 29 18 52 43 -21 82 -23 48 -25 73 28 31 38 50 84 -32 81 75 34 -36 59 41 -39 -40 40 -42 56 -44 -45 -46 -47 47 91 -50 -51 -52 89 65 -55 68 -57 -58 -59 -60 -61 61 -63 63 -65 -66 -67 76 -69 -70 -71 71 72 -74 -75 -76 -77 -78 86 -80 -81 -82 -83 -84 -85 85 -87 -88 -89 -90 -91 -92 -93 -94 94 -96
leaf_value=-2.3244633607874405 -2.3120926132719379 -2.3889948570738828 -2.3625995489487375 -2.4022287840538263 -2.3259279177034982 -2.4406087923412372 -2.3970951544575927 -2.4405903916462806 -2.3805833767495681 -2.3714772973173033 -2.3679835898265083 -2.3780758088032212 -2.3508871612303239 -2.4003100178178198 -2.4292877655330458 -2.3852311488910836 -2.3710722175173879 -2.3193288278831221 -2.3771495677086532 -2.3442438400512446 -2.3798733478079077 -2.3713991505934424 -2.3975082698931547 -2.4278483171592788 -2.4399599274945434 -2.3945329409286038 -2.3801218172181522 -2.3547247681795809 -2.3430704528001902 -2.3040243336042332 -2.3787902781429144 -2.4395565527749383 -2.4392704447325748 -2.3287407170811449 -2.3807937547321907 -2.4247494352684389 -2.3690695336935867 -2.3722366446618626 -2.3943673586442564 -2.3697107225206291 -2.3322216025204336 -2.3590566399523101 -2.3631799937334499 -2.4123866546575119 -2.3501740923359473 -2.3539480745544394 -2.3744054104597696 -2.2978050474900695 -2.3334537845723671 -2.4340911970218908 -2.4175744945442208 -2.3203572122928651 -2.3482838588577675 -2.3533505118822662 -2.3679819381297214 -2.3424426865170966 -2.3411707769175316 -2.3283390062143057 -2.3483425232528683 -2.3886298533779633 -2.3692210841001744 -2.4294230278260311 -2.4394107801906668 -2.354678422568576 -2.3440143643042584 -2.3207774707468789 -2.3462477236914205 -2.3132575068469556 -2.2986758474029938 -2.3262554210343582 -2.346624942270795 -2.3945329409286038 -2.3489684079269462 -2.3860676750020717 -2.4399335462338425 -2.3772675142797217 -2.3332724732458887 -2.3429478196215237 -2.3941319925665914 -2.327281009808988 -2.4098529031239462 -2.3906887590787442 -2.3339772823269973 -2.3174737833277388 -2.3117952440719556 -2.3507368803538133 -2.3351360310919258 -2.2918660630213878 -2.3071721800231035 -2.2973399356302173 -2.4078823471582993 -2.320437845590499 -2.295374803646991 -2.3190307072533165 -2.2992693378869005
leaf_weight=13.932843513786791 25.257878728210926 655.77053356170654 382.17494776844978 42.097173146903515 89.806027233600616 49.399340070784092 27.02158285677433 44.034705854952335 8.8912832587957364 31.24362213909626 22.277830071747307 446.20320488512516 49.771048977971077 939.94637016952038 12.467781990766523 14.529065825045107 147.99740671366453 37.94895938038826 189.89586439728737 244.7570326551795 6.5566992312669745 50.789513178169727 9.2390163391828555 32.113220565021038 9.313601069152357 8.6429458707571047 17.782566517591476 28.312891721725464 17.981130138039592 13.833447821438311 289.16534545272589 6.1842311099171621 4.9920901730656606 37.501982450485229 29.306469038128853 33.479190081357956 32.088029995560646 122.76411118358374 49.597600005567074 192.95042186230421 27.443521060049534 260.87620179355145 166.20191143453121 23.668838314712048 11.896370641887186 207.97555509209633 10.108235158026217 17.980978295207024 17.633397057652473 31.020475320518017 5.5384627953171721 11.200904481112955 20.464731782674789 63.604648642241955 9.2141294553875905 621.54109273850918 81.734644554555416 192.00517580658197 143.9237017557025 20.688410051167011 7.4756158962845829 12.616799607872961 5.5136518329381925 6.2089661508798599 42.0222088098526 248.95319807529449 208.27328664064407 551.69978196918964 13.311886161565779 77.015626810491085 12.88979611545801 8.6429458707571047 17.658283941447735 7.3017873167991629 9.0155658349394781 4.1476063951849937 87.099051006138325 19.347099654376507 8.5684370622038823 8.2951368689537031 8.5436260998249036 5.2652385234832764 8.8166985288262349 21.954756110906601 10.45581639558077 11.970879450440405 14.05705016851425 20.911556869745255 32.460194431245327 107.88586977124214 3.8992690071463576 17.981054216623306 63.454947732388973 12.194329954683779 46.964145608246326
leaf_count=63 91 6218 2856 441 420 663 249 591 78 254 175 3860 327 9722 157 133 1201 158 1629 1487 57 413 93 400 125 85 156 194 107 41 2517 83 67 183 259 408 255 1007 490 1546 141 1879 1249 266 77 1417 84 45 92 406 64 47 130 430 72 3692 477 934 919 195 59 159 74 42 254 1068 1297 2052 34 362 80 85 113 67 121 35 456 115 84 39 94 50 46 88 37 78 75 43 105 270 42 76 149 50 124
internal_value=-2.36073 -2.37408 -2.37829 -2.3411 -2.3337 -2.38809 -2.36145 -2.37127 -2.32321 -2.35267 -2.32102 -2.38067 -2.34915 -2.39641 -2.39489 -2.36317 -2.37339 -2.3175 -2.36852 -2.35542 -2.40481 -2.39882 -2.38666 -2.40015 -2.37309 -2.41246 -2.3483 -2.39387 -2.39325 -2.34886 -2.3809 -2.36884 -2.35491 -2.37179 -2.35144 -2.38792 -2.34663 -2.38634 -2.37985 -2.37001 -2.365 -2.34752 -2.37402 -2.38102 -2.3906 -2.36104 -2.34246 -2.32304 -2.35517 -2.41281 -2.36028 -2.31256 -2.32766 -2.34055 -2.33921 -2.34374 -2.35476 -2.33294 -2.35167 -2.41081 -2.42974 -2.40734 -2.36113 -2.39509 -2.35461 -2.32283 -2.34348 -2.31502 -2.32624 -2.33061 -2.35147 -2.34318 -2.36363 -2.41464 -2.4181 -2.41186 -2.34239 -2.30701 -2.36464 -2.35664 -2.43473 -2.41768 -2.35299 -2.32799 -2.32116 -2.33217 -2.31566 -2.31202 -2.32035 -2.29942 -2.42993 -2.30885 -2.30158 -2.30711 -2.30318
internal_weight=8155.61 4896.34 4526.66 3259.28 2639.84 2862.23 1664.43 619.433 1535.37 958.937 369.68 1511.92 868.708 1350.31 1292.37 498.755 705.49 1131.56 569.538 626.932 120.679 990.736 90.2293 63.3568 294.902 105.305 1104.47 135.953 41.1781 203.853 301.633 82.9769 167.592 679.214 66.8085 832.702 1021.5 778.535 77.9105 274.387 220.394 996.24 612.405 213.565 53.9935 355.973 146.357 46.0703 26.8724 58.0421 23.5196 760.593 370.972 101.554 403.805 653.629 342.611 241.776 158.453 54.1676 64.1271 20.0924 71.5274 11.7226 59.8048 269.418 304.264 641.506 99.5416 86.2298 100.287 61.1458 26.3012 20.5147 17.6585 9.1397 295.372 223.322 39.1414 30.573 57.943 11.4495 15.3734 34.8446 36.2601 22.4267 86.7759 72.7189 51.8073 119.087 13.2129 35.962 136.546 73.0913 59.1585
internal_count=59798 40833 39240 18965 13927 26945 12295 5038 6874 6443 1593 13379 5604 13566 12809 3749 5852 4575 4513 4343 1289 10135 839 654 2439 1186 7053 1339 377 1310 2674 659 1154 5551 442 7828 6394 7225 684 2205 1687 6303 5109 1895 518 2618 869 205 185 655 171 2789 1786 588 2299 3947 2356 1261 1052 603 809 218 526 116 410 1198 1831 2472 468 434 664 366 198 234 206 102 1753 724 298 214 757 133 103 168 156 115 338 263 220 317 167 121 386 237 174
cat_boundaries=0 1 4 5 8
cat_threshold=106042445 84934914 1970304 289 25444528 2160082944 276832260 128
is_linear=0
shrinkage=1


Tree=1
num_leaves=95
num_cat=13
split_feature=6 17 0 0 18 6 17 18 17 2 17 6 18 6 3 0 17 18 3 17 0 18 17 3 3 17 17 3 17 3 13 3 17 0 13 17 17 17 17 3 17 3 18 17 17 18 18 13 2 8 10 3 3 8 18 1 15 3 17 10 18 3 10 3 8 3 10 8 17 10 17 18 10 18 10 10 18 3 18 17 17 3 3 10 10 18 3 17 3 10 3 10 18 15
split_gain=19848 8263.44 6196.89 5728.54 2326.69 2269.17 2102.01 1468.02 1374.75 1356.12 1128.37 1100.51 1022.25 1110.66 887.515 843.557 896.061 759.695 710.006 651.499 511.883 508.137 498.236 528.651 478.179 474.176 464.015 399.296 381.912 447.361 373.361 363.151 319.531 297.945 325.669 294.56 294.221 269.442 262.287 308.956 218.111 216.723 216.717 209.037 202.13 192.235 190.352 187.004 184.176 183.685 215.871 175.576 170.053 161.725 161.128 152.751 168.444 149.502 183.599 144.994 144.875 136.384 122.74 119.156 116.239 113.856 112.26 108.638 108.106 89.4899 79.1287 75.6241 74.6552 74.2173 66.5122 123.33 110.355 64.3633 55.4328 55.1677 52.205 51.8256 51.765 42.7789 42.4054 40.8779 51.3198 58.9088 35.9316 32.0289 18.3083 15.7175 4.9834 0.77751
threshold=0 8.5000000000000018 1 2 0.068250000000000019 3 23.500000000000004 0.059850000000000007 32.500000000000007 1.0000000180025095e-35 34.500000000000007 4 0.18210000000000001 5 6.9497866132850055 6 14.500000000000002 0.23090000000000002 4.4173925074671834 23.500000000000004 7 0.082650000000000015 26.500000000000004 4.9477337678119317 7.5970106990200099 10.500000000000002 28.500000000000004 7.3215193319406504 24.500000000000004 7.074060967026166 8 7.2782315377478577 7.5000000000000009 9 10 22.500000000000004 27.500000000000004 24.500000000000004 24.500000000000004 7.439302844238493 17.500000000000004 7.2071461022524081 0.20030000000000003 39.500000000000007 40.500000000000007 0.083350000000000021 0.11695000000000001 11 1.0000000180025095e-35 244.99500000000003 6.8855075790388556 5.8249205897279941 7.3215193319406504 52.925000000000004 0.10435000000000001 12 4.5000000000000009 3.4733047423979282 12.500000000000002 6.3126414277150058 0.06455000000000001 6.1499026094798657 8.4258414005381397 5.7190258914545069 120.05000000000001 5.0120555701504284 6.1495355321819636 179.90500000000003 20.500000000000004 6.8314139001060186 23.500000000000004 0.075350000000000014 7.4972066079714699 0.080850000000000019 8.1321187297540529 9.1439331985231238 0.027050000000000001 7.3978377806922113 0.035650000000000008 3.5000000000000004 35.500000000000007 5.8919996071945766 6.2442241558874843 5.2548844000372066 6.7458242390288694 0.085050000000000014 4.38195929776409 6.5000000000000009 6.2158429258170766 5.5274410133216048 3.0418220406714505 8.7892774627339474 0.027950000000000006 6.5000000000000009
decision_type=1 2 9 9 2 1 2 2 2 2 2 1 2 1 2 9 2 2 2 2 9 2 2 2 2 2 2 2 2 2 9 2 2 9 9 2 2 2 2 2 2 2 2 2 2 2 2 9 2 2 2 2 2 2 2 9 10 2 2 2 2 2 2 2 2 2 2 2 2 2 2 2 2 2 2 2 2 2 2 2 2 2 2 2 2 2 2 2 2 2 2 2 2 10
left_child=2 32 7 6 8 15 12 22 9 28 14 17 13 30 21 16 81 20 49 45 -8 -7 23 57 55 -15 65 40 68 -30 -3 74 79 47 -35 61 -18 -16 64 -40 -14 51 60 72 53 63 -46 -13 -37 50 59 -12 -19 77 71 89 -57 69 -59 -9 -21 -25 -43 -20 -17 -6 -47 78 -4 -1 93 83 -33 -52 76 -76 -10 -28 -11 -2 -55 -5 -72 -34 -45 86 87 -81 -44 -24 -85 -51 -88 -67
right_child=1 3 4 5 26 10 11 18 31 67 41 33 27 25 37 38 36 52 19 42 -22 -23 24 35 -26 -27 44 -29 29 -31 -32 43 54 34 -36 48 -38 -39 39 -41 -42 62 88 84 46 66 -48 -49 -50 91 73 -53 -54 80 -56 56 -58 58 -60 -61 -62 -63 -64 -65 -66 70 -68 -69 -70 -71 82 -73 -74 -75 75 -77 -78 -79 -80 85 -82 -83 -84 90 -86 -87 92 -89 -90 -91 -92 -93 -94 -95
leaf_value=0.01448061829666859 0.12043959021351035 0.0062725357593163954 0.11407967213238177 0.064184195737428562 0.082862851339229382 0.059386638222672601 0.052584064011281205 0.047383708531739566 0.028999754122337639 0.044312934086342105 0.060732267795839817 0.031068498183781657 0.07835723316773581 0.071583038020994541 0.11019770414878112 0.060762133404110207 0.027480221163945096 0.06655312697551384 0.059814646280865878 0.085638702103595934 0.020564142803283992 0.085649459180506218 0.011455953333316296 0.078558246853225502 0.083477267107061826 0.043851289839545469 0.073331167673004932 0.12454181640272285 0.078764381519928317 0.10292112173849624 0.029721304400235692 0.071978004179199792 0.047168785804170756 0.016116682719157182 -0.0023277156174714656 0.056525179944794064 0.00094162806795601843 0.087087844485140689 0.03396422804993228 0.065469791643024286 0.045231938318075655 0.048749086869087251 0.07368629154849822 0.049893318401702441 0.0054001950488945004 0.10467554900594184 0.089681637952665899 0.005359496459755783 0.016569477659818629 -0.011816811843340764 0.046495710804278625 0.016928937791340869 0.12012590911741416 0.10517977843531758 0.10793593068672218 0.03635562817401547 -0.012446217554409658 0.085982051448207197 0.040069366714750275 0 0.048092010877106156 0.048061461590983109 0.07961478431284838 0.088324668076003476 0.089336628739148313 0.11645886948489821 0.08782367410736984 -0.012193501762468474 0.098414052067902866 0.042039866422967087 0.10112177290940015 0.04372481195595096 0.10092048204035886 0.07762759652735729 -0.012297504628130658 0.050171772351176543 0.057347651372701196 0.10114997165236748 0.011361119687029565 0.099161906831799942 0.088481798305429057 0.098975487531419132 0.11218203010005463 0.06501085752742608 0.0073213387339390312 0.1126274520790744 0.12147366357480123 0.069069654478285877 0.10501087829139234 -0.012790535379717367 0.086944790002268069 0.019035294338443282 0.10520708816506683 0.12246125716028931
leaf_weight=49.002955295145512 56.845693171024323 150.63008669763803 88.541525512933731 12.183186918497087 19.711947083473206 303.28626604378223 122.12955445051193 71.721596173942089 41.77245956659317 28.24399671703577 18.284451872110367 155.75364921987057 69.671892538666725 97.713821053504944 104.52464473992586 43.984739899635315 140.2310416251421 22.048482850193977 44.587190307676792 17.790903747081757 284.25662894546986 166.22570407390594 10.773132264614103 140.68426066637039 18.189243480563164 1058.7066882252693 48.601670905947685 18.668504752218723 365.02567463368177 162.60068482160568 452.79099360853434 36.613053560256958 6.6223697513341895 259.32572536915541 280.69788840413094 68.178448885679245 105.85829517990351 269.58549623936415 92.12681332975626 89.755765683948994 51.049716502428055 74.52984245121479 12.413558132946493 8.496303476393221 6.9575132876634624 110.61283197999001 9.162386126816271 77.625839248299599 22.654247112572193 5.7415477335453016 15.812209516763685 49.521541453897953 15.211867175996302 224.9267181456089 27.961416408419609 63.038051843643188 11.852620810270308 14.987993635237215 89.271690741181374 10.541427329182623 110.8316809758544 26.517248146235943 26.265436887741089 45.437988698482513 43.643395431339741 375.05713529139757 142.52418056875467 8.1007904186844808 337.22338026762009 26.948850460350513 99.754411272704601 11.803440682590006 23.739662230014801 52.282276250422001 9.4684293046593684 8.4565257579088193 40.373009964823723 18.934417873620987 10.796700179576872 70.044516682624817 38.672979243099689 18.084931679069996 315.26613418012857 10.317509077489374 6.2935557365417472 90.60640300065279 18.085478760302067 13.108267642557619 14.863363929092882 26.666350103914738 40.624297618865967 3.9870457947254181 21.718976721167564 69.027442172169685
leaf_count=534 109 1708 257 79 101 2131 915 591 410 238 135 1450 386 612 312 296 1312 142 324 95 2942 793 121 836 100 9008 296 34 2090 615 4322 232 53 2777 3428 531 1243 1320 831 599 410 607 73 70 81 415 47 882 245 73 129 529 33 805 87 589 155 80 794 125 901 219 146 231 200 930 703 103 1406 233 367 98 97 298 123 68 306 74 117 258 187 68 898 67 71 231 37 79 51 350 201 40 69 137
internal_value=0.062968 0.0472365 0.0844557 0.043024 0.0962807 0.0619528 0.0332517 0.0607279 0.0846041 0.0900382 0.0733481 0.0210504 0.0412414 0.0387573 0.0797414 0.0398676 0.0228751 0.0359757 0.0734151 0.0804867 0.0320068 0.0687036 0.0470774 0.0532152 0.0264079 0.045806 0.108256 0.0725418 0.0931439 0.0862264 0.0240777 0.0535245 0.102042 0.0118602 0.00664872 0.0642553 0.0160946 0.0935699 0.0558214 0.0495572 0.0644198 0.0456595 0.0600151 0.0735419 0.0963615 0.0897616 0.0538067 0.0231195 0.0466454 0.0513169 0.0545822 0.0288626 0.0886753 0.0984077 0.0830579 0.0170884 0.0251742 0.0373617 0.0467552 0.0412858 0.053355 0.0737715 0.056879 0.0743022 0.0750945 0.112945 0.0952242 0.0270637 0.101694 0.0243629 0.113625 0.0728953 0.083514 0.0705212 0.0384089 0.0167991 0.0430313 0.0812671 0.0353955 0.108841 0.102765 0.0852655 0.109546 0.078733 0.0323002 0.105708 0.100531 0.094524 0.0910892 -0.00443535 0.0826733 0.000105119 0.112841 0.117414
internal_weight=8671.84 5042.11 3629.73 4674.37 2401.82 1558.09 3116.28 1227.91 1175.75 1000.53 1012.22 1217.05 1899.23 1759.84 843.622 545.868 276.357 443.647 659.148 499.062 406.386 469.512 568.765 438.246 130.519 1156.42 1226.07 139.39 953.391 527.626 603.421 175.213 367.738 773.403 540.024 258.034 246.089 374.11 269.511 181.883 120.722 168.601 155.9 75.1426 347.256 343.162 16.1199 233.379 90.8327 160.086 150.358 67.806 37.2604 331.136 97.329 112.33 74.8907 180.211 104.26 82.263 128.623 167.202 100.795 90.0252 87.6281 878.817 253.137 47.1415 425.765 75.9518 859.105 69.3676 60.3527 68.0945 100.07 17.925 82.1455 67.5361 39.0407 270.409 263.6 30.2681 415.021 57.5642 14.7899 213.564 122.957 83.1528 27.2769 37.4395 50.9418 9.72859 39.8045 444.085
internal_count=59901 40939 18962 39650 10126 10601 29049 8836 6203 4826 5973 12569 16480 15650 4556 4628 2702 4032 4049 2793 3857 2924 4787 3472 1315 9620 3923 830 4368 2705 6030 1377 1289 8537 6205 1831 2555 1632 1926 1430 796 1417 1120 470 1490 1673 128 2332 776 1256 1143 664 175 1362 506 1215 744 1641 874 716 996 1055 753 555 496 2433 1118 458 1663 767 2332 419 329 427 907 191 716 370 355 783 992 147 1265 321 141 674 443 337 124 471 268 113 106 1067
cat_boundaries=0 1 2 3 4 5 6 7 8 11 12 15 18 19
cat_threshold=3078 34750469 114431309 224 17 97 17047584 12582976 637585668 273571841 1 12583168 977282564 3380609546 8 3167232 2155897344 680 802824
is_linear=0
shrinkage=0.0119841


Tree=2
num_leaves=71
num_cat=0
split_feature=17 3 17 3 17 9 19 19 19 3 17 17 9 17 10 3 17 9 10 3 17 3 17 12 9 9 17 10 14 19 11 3 12 11 19 3 12 8 3 3 19 3 9 11 19 3 3 11 9 17 3 10 11 9 11 12 3 10 3 17 3 19 9 10 9 19 3 19 10 11
split_gain=3489.37 4684.61 3762.67 2972.8 2131.74 1183.38 1079.58 1020.49 948.378 827.726 772.411 676.933 454.569 420.806 441.743 414.201 371.19 340.016 324.05 314.291 303.573 369.798 280.606 251.241 236.601 200.72 195.739 191.493 182.453 175.052 169.052 165.666 164.136 160.832 154.15 140.771 135.033 134.001 133.196 142.303 133.085 129.094 119.545 182.067 117.774 110.81 99.0831 98.5833 137.632 97.8099 95.7843 95.687 93.7174 91.7607 83.4614 74.1156 65.6293 62.1373 44.1975 38.8327 33.3483 18.0663 17.27 31.7523 20.5183 15.3442 21.1018 8.44396 2.2252 1.27995
threshold=7.5000000000000009 5.4974525246598587 34.500000000000007 7.0482448325657661 24.500000000000004 14.085000000000003 3.9640500000000007 4.1987500000000013 4.2174500000000004 7.3532780327733862 10.500000000000002 28.500000000000004 11.855000000000002 16.500000000000004 6.909752783638579 6.1417337656098345 40.500000000000007 15.015000000000002 9.759241562366805 7.5140063608666638 27.500000000000004 1.0000000180025095e-35 14.500000000000002 0.19452900000000004 66.500000000000014 24.490000000000006 41.500000000000007 9.7759382057773738 79.250000000000014 4.0909500000000012 8.4721952784009442 7.6650150704255875 0.18278550000000002 8.4721952784009442 4.2614500000000008 4.5745228599224435 0.19308100000000003 749.92000000000019 3.3062413004414473 1.9950829676193556 3.9102500000000004 2.7116902628176116 10.955000000000002 7.4280356641054448 4.1071500000000007 7.6438487476134602 7.6782249881820563 10.714573303324377 13.715000000000002 12.500000000000002 3.98176293586888 10.23641138653006 10.714573303324377 9.4550000000000018 9.0692663088013123 0.094228500000000007 4.2464711600091869 8.8106086177680307 4.7770721638332878 5.5000000000000009 7.6782249881820563 3.8956000000000004 9.6850000000000005 5.9309171654189532 13.025 4.2858500000000008 2.932543395079088 4.1071500000000007 5.3683070215747577 7.3142198319787717
decision_type=2 2 2 2 2 2 2 2 2 2 2 2 2 2 2 2 2 2 2 2 2 2 2 2 2 2 2 2 2 2 2 2 2 2 2 2 2 2 2 2 2 2 2 2 2 2 2 2 2 2 2 2 2 2 2 2 2 2 2 2 2 2 2 2 2 2 2 2 2 2
left_child=59 6 3 4 7 40 13 15 -7 18 36 29 22 14 38 -3 25 -9 26 34 24 -22 35 41 -14 45 33 -20 -18 60 -24 -27 -28 -4 -13 -12 47 -30 39 -2 -6 55 61 -44 56 -11 -31 48 -8 -40 57 -29 -21 -43 -46 -15 -38 -16 -52 65 -5 -25 63 68 -64 69 -67 -66 -61 -1
right_child=1 2 9 11 5 8 10 17 -10 16 12 19 20 23 50 -17 28 -19 27 52 21 -23 30 42 -26 31 32 51 37 46 -32 -33 -34 -35 -36 -37 44 -39 49 -41 -42 53 43 -45 54 -47 -48 -49 -50 -51 58 -53 -54 -55 -56 -57 -58 -59 -60 62 -62 -63 64 -65 67 66 -68 -69 -70 -71
leaf_value=0.098278661428081837 0.069101182628820479 0.067955234097136885 0.014911968366291269 0.093685504544812767 0.030130346262093113 0.060726856455918951 0.069239761361559557 0.046998289603203472 0.04376125753782973 0.059804019916573428 0.030313220859085936 0.068575229538744856 0.040663103560478017 0.04523684995757913 0.079211564303196508 0.080102894139664524 -0.012490597647182645 0.062877232853581169 0.11415760201024559 0.077908598641979146 0.070651294409414228 -0.0015775649336514383 0.010413112177959427 -0.0122809839883325 0.085291855587826884 0.04861409812280814 0.025309502679394635 0.006250937052875878 0.03128261959879404 0.080550009074526488 0.028188671042793892 0.074320603140678954 -0.0057933280278150735 0.03396836454880571 0.047622124410168547 0.053625122049288584 -0.012114722900056352 0.083115412370497563 0.036285095260817316 0.018767693482608965 -0.0014704449726000604 0.032282881469654551 0.07458111118416054 0.029116116159095089 0.061079368717958112 0.0056571043541261091 0.095396126144317431 0.10138531095690907 0.029778046299124828 0.068856092957806717 0.099829756192895469 0.068820567295911017 0.10193824873859546 0.062267933700553606 0.022762338305419367 -0.011897711472662234 0.046036627082424758 0.049656092017111991 0.073056297469156914 0.08417073705156293 0.10328133281773993 0.017930165075134258 0.10854964505137132 0.06932915629230145 0.099559751888778122 0.086149982823055055 0.10306515177254347 0.082325535671146047 0.097534667427116667 0.10837149011228146
leaf_weight=24.257403895258904 11.447698846459387 803.11865072697401 101.47742042690516 214.51996739208698 28.047797299921513 1183.105321675539 90.515957355499268 245.92505986988544 796.7440322265029 9.188274063169958 209.26082517206669 152.68083181977272 643.40157591551542 6.8348919004201871 49.873027950525284 842.43236616253853 12.008210539817808 999.72814068943262 8.4526854977011698 268.15659748762846 12.858848527073858 47.703107133507729 190.07971730828285 8.6635904088616353 17.842791043221951 57.010556824505329 42.24460207670927 6.6241587325930587 60.994791388511658 277.95448844879866 131.29221315681934 110.09971412271261 56.917092427611351 178.60032281279564 80.271214321255684 46.654694348573685 7.0938021913170797 8.3681368380784971 19.058396063745022 29.535268016159534 58.943731755018234 17.752302683889866 15.377275124192236 80.136978909373283 40.12249531596899 14.05196277797222 94.917757071554661 11.768980287015436 15.617365337908266 54.527889803051949 50.381349913775921 8.1758449971675855 28.218621172010899 133.10590689629316 11.122483454644678 5.9148231446743011 4.4481261894106865 14.989184610545633 14.067055530846117 16.630191273987293 102.45534484833479 4.1269358918070784 25.559885136783123 14.689740896224974 17.968467652797699 25.852439478039742 43.095566056668758 18.371436558663845 26.876733057200909 92.552255235612392
leaf_count=63 66 4619 1068 712 250 7586 523 1890 6342 60 1929 871 5323 52 246 3905 153 6259 16 1298 75 564 2052 108 86 423 424 72 565 1272 1236 600 711 1598 599 340 87 39 159 290 698 154 85 731 260 153 312 36 135 321 167 48 81 858 104 73 33 105 74 64 255 41 51 73 47 91 95 73 76 166
internal_value=0.0591754 0.0577974 0.062506 0.0654415 0.0613125 0.0520022 0.0416271 0.0679652 0.0539036 0.0355987 0.0364084 0.0822256 0.0331658 0.0565833 0.0680794 0.0741795 0.0517837 0.059749 0.0246522 0.0719546 0.0395236 0.01366 0.0252027 0.0462414 0.041881 0.0609798 0.0219588 0.0682087 0.0301727 0.0900937 0.0176989 0.0656012 0.00738728 0.0270912 0.0613912 0.0345954 0.059675 0.0376637 0.0507653 0.0330319 0.00864078 0.0556752 0.0319156 0.0365264 0.0450961 0.0274097 0.0843539 0.067368 0.063508 0.0605313 0.0833529 0.0413511 0.0802281 0.0587922 0.0529162 0.0181939 0.00972003 0.0725113 0.0941243 0.0990061 0.0968167 -0.00195863 0.0929359 0.0869051 0.0984571 0.10288 0.0968563 0.0910996 0.0926365 0.106356
internal_weight=9152.86 8847.01 6851.43 6177.22 4958.05 2066.84 1995.58 2891.2 1979.85 674.214 1479.78 1219.17 1299.09 515.793 243.88 1645.55 271.722 1245.65 402.492 529.327 721.806 60.562 577.287 271.913 661.244 190.351 379.239 23.2527 81.3711 689.848 321.372 167.11 99.1617 280.078 232.952 255.916 180.689 69.3629 114.569 40.983 86.9915 163.608 108.305 95.5143 62.7869 23.2402 372.872 117.902 106.133 73.5863 129.311 14.8 296.375 150.858 51.245 12.7497 11.5419 64.8622 64.4484 305.854 316.975 12.7905 120.096 58.1967 61.8998 185.758 68.948 36.3399 43.5069 116.81
internal_count=59991 59192 42879 36949 31549 14876 16313 16673 13928 5930 12783 5400 11605 3530 1428 8524 1993 8149 3937 2849 6048 639 5557 2102 5409 1236 3801 136 757 2551 3288 1023 1135 2666 1470 2269 1178 604 836 356 948 1137 965 816 484 213 1584 694 658 480 592 120 1379 1012 364 125 120 351 241 799 967 149 384 213 171 415 186 120 140 229
is_linear=0
shrinkage=0.0119841


Tree=3
num_leaves=96
num_cat=4
split_feature=6 6 18 3 18 3 9 18 6 3 3 3 18 3 19 3 9 3 2 11 7 19 10 14 18 15 14 18 14 19 2 9 9 10 19 15 18 10 10 19 18 11 14 19 14 1 9 19 19 10 10 18 3 18 11 9 11 19 15 19 3 11 9 19 10 10 19 14 14 14 9 18 15 11 3 18 18 14 14 15 18 19 14 3 9 3 19 14 11 7 9 11 10 18 19
split_gain=17496.1 3694.93 2792.33 2225.62 1372.58 1273.66 1111.31 597.927 576.642 501.785 490.308 417.183 390.256 390.627 337.593 335.805 316.237 339.056 926.144 299.68 268.07 252.305 245.286 238.909 231.617 217.892 216.882 215.291 193.567 185.468 184.141 178.853 177.554 167.912 164.117 161.887 144.17 133.649 126.237 124.593 118.136 116.975 183.469 116.053 115.228 114.273 111.217 111.049 169.319 112.606 110.479 120.331 120.277 109.051 105.022 96.5719 92.8936 88.6673 85.7933 76.6265 75.925 75.5313 74.7212 115.255 118.659 74.4164 73.6132 62.5454 62.3605 146.08 67.9374 62.6158 56.708 56.6582 54.1796 50.8361 48.5048 45.5812 47.7427 45.3358 43.448 101.338 96.1883 38.6872 37.7789 37.2151 63.1755 34.1428 26.4686 25.2133 20.196 18.5152 14.5849 7.40125 0.0323782
threshold=0 1 0.067350000000000007 7.0482448325657661 0.052650000000000009 4.4173925074671834 12.625000000000002 0.32370000000000004 2 7.2071461022524081 4.9477337678119317 7.2893654708362261 0.038450000000000005 4.1401655633555006 4.4789500000000011 6.971778997921632 7.3950000000000005 4.7770721638332878 1.0000000180025095e-35 8.4397359036972919 1.5000000000000002 4.070850000000001 9.4187753972101138 26.325000000000003 0.048650000000000006 2.5000000000000004 84.695000000000007 0.16680000000000003 218.63500000000002 3.5696500000000007 1.0000000180025095e-35 63.655000000000008 11.475000000000003 5.7104215351291225 3.9882500000000003 5.5000000000000009 0.10155000000000002 4.9380581778699986 8.7100403451689932 4.5218000000000007 0.26940000000000003 8.0036972832413245 103.55500000000002 3.3239000000000005 381.87000000000006 3 16.325000000000003 4.500700000000001 4.1571500000000006 5.5274410133216048 8.7892774627339474 0.22250000000000003 7.4752413219390288 0.072350000000000012 9.6405956483628845 8.7250000000000032 11.526305102414733 4.289950000000001 7.5000000000000009 4.2465500000000009 3.7503235619472353 9.547122057376999 8.4950000000000028 4.272800000000001 7.2330942773995277 8.883708047978228 2.7793500000000004 139.80500000000004 43.275000000000013 76.725000000000009 13.715000000000002 0.10625000000000002 2.5000000000000004 8.6494482178780228 4.5141886747103612 0.11235000000000002 0.018250000000000006 561.85000000000002 381.87000000000006 1.5000000000000002 0.018250000000000006 4.2223000000000015 134.99500000000003 3.8785357576551038 32.445000000000007 7.7002566885908328 4.2614500000000008 100.23500000000001 9.6160054512016817 1.5000000000000002 21.425000000000004 8.3787353916733966 5.2548844000372066 0.15390000000000001 4.0811500000000009
decision_type=1 1 2 2 2 2 2 2 1 2 2 2 2 2 2 2 2 2 2 2 2 2 2 2 2 10 2 2 2 2 2 2 2 2 2 10 2 2 2 2 2 2 2 2 2 9 2 2 2 2 2 2 2 2 2 2 2 2 10 2 2 2 2 2 2 2 2 2 2 2 2 2 10 2 2 2 2 2 2 10 2 2 2 2 2 2 2 2 2 2 2 2 2 2 2
left_child=2 4 6 7 15 19 26 8 36 16 21 12 20 38 30 22 23 27 -19 68 33 -10 25 92 -12 32 47 -18 37 -24 72 50 -2 -8 -33 -22 45 -17 -14 -15 41 42 -11 -38 -27 -3 -16 48 54 -49 51 52 -5 -32 -1 -21 -31 -50 -55 83 -51 -39 -28 64 -64 -52 -9 -65 71 93 -71 94 89 -74 -25 -43 -36 78 -30 -48 81 82 -13 -57 -83 86 -82 -68 -79 -7 -42 -87 -6 -70 -4
right_child=1 3 5 31 9 14 11 66 10 40 24 80 13 39 46 28 17 18 -20 55 35 -23 29 74 -26 44 62 -29 77 56 53 34 -34 -35 76 -37 43 61 -40 -41 90 75 -44 -45 -46 -47 79 49 57 60 65 -53 -54 58 -56 59 -58 -59 -60 -61 -62 -63 63 67 -66 -67 87 -69 69 70 -72 -73 73 -75 -76 -77 -78 88 -80 -81 85 84 -84 -85 -86 91 -88 -89 -90 -91 -92 -93 -94 -95 -96
leaf_value=0.031094702979497089 0.051904880407559008 0.016163561939604696 0.024040276285410871 0.044117715577082661 0.045965478082694369 0.091455575855239862 0.05157710491486215 0.10059433917708273 0.055217610289406326 0.06484801240125436 0.017182477012263525 0.078659011425795608 -0.012403909565153089 0.077601934632612543 0.022013310326160922 0.00088942892009984576 0.05912053368627631 0.056607044798610062 0.033482303281432521 0.028509986044583852 0.046782483323020291 0.032357998469116273 0.09390646239872269 -0.012631574674069461 0.030397868042430311 0.028747071186486197 0.086414740661584569 0.079398723983780645 0.066098582482496782 0.03452708507948634 0.044907464220740205 0.05880945731349304 0.038437924690626207 0.066633336215077041 0.029117645191723496 -0.0011534777144465123 0.045427290508387855 0.052893451203405148 0.059362446526910306 0.044911617474726016 0.10308870873992762 0.066528307111509949 0.021470949690131073 -0.005716407054010577 0.049697680951257435 -0.0050837382807791152 0.085961822322297765 0.07678015489099764 -0.012755616820438945 0.051332406624828131 0.1032969980681462 0.080988746174640677 0.059733221931027924 0.085649226812534701 0.076467160495687067 0.080140055511939701 0.070452775664786166 0.02098655655391557 0.056717405107971616 0.041147097372519689 -0.011577130436240025 0.033705749115029604 0.011142481846837068 0.078988787942253419 0.067356566829983089 0.06224741775478522 0.078271653317547499 0.045668220126876491 0.052686331880182208 -0.012256587461970329 0.045703592406295436 -0.012294182619589011 0.099909928217810487 0.091864422334033219 0.017887276187532927 0.079515568938151218 -0.012574584586799881 0.065935543707245955 0.089836443929928678 0.052112511422514766 0.090087033022580199 0.075370060414215026 0.039398704443232159 0.056496274307564986 0.094576006665034185 0.083647484048230719 0.067567435353632799 0.042624681450426374 0.036360776156635279 0.081831419237574102 0.081425169812136378 0.10084737415845396 0.07149338931510027 0.074269741796536864 0.036147821920129095
leaf_weight=48.902488462626934 185.38114783912897 332.22934668511152 7.0898276120424288 125.29089268296957 9.0238386318087596 695.73534337431192 140.26797133684158 11.843490809202196 105.02631282061338 57.223735578358173 495.9371071383357 20.56910664588213 9.414979435503481 499.02880439162254 11.33150404691696 9.1092223525047284 451.87857878953218 1115.538296148181 322.56030628085136 9.5790317282080633 58.700985908508301 214.39732947200537 18.931145451962948 13.347927413880823 314.23488986492157 388.28256475180387 10.819974809885023 93.651373729109764 51.227186262607574 28.284140035510063 11.538433127105234 13.064997814595701 646.74700050801039 526.92637757956982 6.2214988470077541 11.872137703001497 6.8108639270067206 143.60400729626417 5.4968275800347319 18.535293377935886 15.072233080863951 122.37245606631041 19.307054050266743 91.967427469789982 43.036327444016933 40.879302389919758 12.218006849288942 13.492053724825384 18.512847669422626 6.1904287785291654 12.726498886942865 25.817615278065205 182.148680947721 279.92418353259563 8.9883315563201887 55.165192298591137 17.746921516954899 27.606701493263245 17.338092468678951 12.341222316026686 4.6649386286735535 40.337329044938087 16.443557403981689 20.532525256276131 8.3192859441041929 16.072782576084137 8.8048343509435671 16.012077778577805 10.181680969893938 7.9163777977228147 4.4706077352166176 8.2031262367963773 314.05182271450758 287.70627728849649 21.59542852640152 84.737090431153774 11.024248100817202 10.178480081260206 19.676875852048397 14.400905042886732 57.69379947334528 35.122288323938847 17.887737840414047 15.456384144723414 38.93186217546463 20.91139243543148 31.794172011315823 9.5775710567831975 10.784786306321619 59.830921702086926 24.261364713311195 45.115088500082493 9.5028866305947286 7.6582797765731803 5.3468796983361244
leaf_count=428 1236 3308 65 890 59 1996 949 31 681 294 4793 80 113 2222 99 97 2631 6856 2643 83 420 1804 69 161 2647 3393 50 380 277 233 83 74 5165 2898 50 132 51 943 34 130 23 624 165 1066 300 486 41 73 228 46 25 96 1047 1041 45 246 94 264 102 94 57 328 168 104 46 91 39 120 71 95 32 98 687 791 206 331 128 54 76 87 181 153 129 96 109 74 156 70 82 216 86 102 43 37 45
internal_value=0.0559044 0.0431155 0.0769549 0.0294406 0.0499882 0.0874416 0.0662499 0.0234155 0.0224118 0.0559469 0.0270571 0.0697152 0.0668163 0.0747017 0.0903347 0.0415761 0.0537297 0.0545081 0.0514258 0.0530058 0.0611133 0.0399 0.0390223 0.024709 0.0223178 0.0378386 0.0396208 0.0626179 0.0534538 0.0619132 0.0911467 0.0552259 0.041448 0.0634805 0.0267873 0.0386189 0.0104804 0.0465095 0.0136183 0.076447 0.0699045 0.067091 0.054008 -0.00210799 0.0308566 0.0141132 0.0544626 0.0301473 0.0246161 0.0534378 0.0575851 0.0555607 0.0533964 0.0825564 0.0382898 0.0659129 0.0485609 0.00728685 0.0839902 0.0701363 0.0236689 0.0487293 0.0563658 0.0509164 0.0303608 0.0807015 0.0763039 0.064622 0.0293644 0.0404384 0.00812709 0.0127734 0.0930944 0.0960787 0.00602345 0.0718845 0.00206815 0.0679539 0.0728132 0.0679769 0.0834205 0.0771309 0.0606171 0.0750862 0.0855891 0.0879132 0.0821848 0.0601622 0.0511167 0.0907054 0.0899618 0.0955383 0.0595159 0.0624337 0.0298767
internal_weight=9583.71 5997.48 3586.24 2024.08 3973.4 1847.48 1738.75 1631.71 1601.48 2360.07 1129.6 1538.27 1270.24 532.476 1704.08 1613.33 2037.1 1983.63 1438.1 143.409 737.767 319.424 1328.41 53.4701 810.172 1263.45 200.485 545.53 284.918 64.9622 1666.13 392.367 832.128 667.194 30.3107 70.5731 471.887 193.051 14.9118 517.564 322.974 283.64 76.5308 98.7783 431.319 373.109 37.9504 128.358 104.01 24.3474 362.056 333.257 307.44 308.801 57.8908 92.5418 46.0311 46.1195 297.262 82.9628 10.8554 183.941 72.1274 61.3074 24.7628 28.7993 30.2259 36.5446 50.8668 30.2269 12.387 20.6398 1357.32 601.758 34.9434 207.11 17.2457 91.8673 70.9041 26.6189 268.025 112.511 38.4568 70.6216 74.0542 155.514 89.488 18.3824 20.9633 755.566 39.3336 66.0265 18.5267 17.84 12.4367
internal_count=59842 44226 15616 17377 26849 6105 9511 14976 14836 14502 9925 7882 6898 2499 5143 12347 12979 12510 9499 962 4399 2485 10490 469 7440 10094 1629 3011 1857 396 4916 2401 6401 3847 252 552 4911 1368 147 2352 1523 1414 459 1117 3693 3794 227 1141 965 176 2149 2033 1937 1226 473 519 327 492 1143 436 103 1271 488 438 214 116 140 224 443 235 127 208 3690 1478 367 955 178 489 353 128 984 471 209 342 262 513 337 109 136 2212 109 176 102 108 110
cat_boundaries=0 1 2 3 4
cat_threshold=1030 2201 32 2117762
is_linear=0
shrinkage=0.0119841


Tree=4
num_leaves=90
num_cat=3
split_feature=6 17 6 9 2 17 6 3 17 17 3 17 2 3 17 19 19 19 11 9 11 19 8 17 19 17 19 9 17 3 17 3 17 17 8 9 9 19 9 17 3 3 19 11 11 17 11 3 11 11 11 10 11 3 19 3 11 19 17 11 17 8 10 3 8 11 17 19 8 11 11 3 19 11 10 3 8 10 8 8 3 11 17 19 11 10 15 11 11
split_gain=13039.2 5634.71 3534.11 2526.44 1992.78 1195.78 1134.39 2486.33 1046.27 1017.16 1127.83 834.373 808.571 585.877 578.656 537.057 513.758 492.822 410.646 391.37 369.768 359.652 340.263 329.523 310.686 271.702 323.726 260.827 260.316 293.613 252.012 228.073 223.469 221.786 209.479 208.08 202.453 198.116 193.793 181.073 164.599 202.961 162.08 151.274 148.749 137.982 133.964 125.629 121.992 137.203 116.982 115.784 113.262 112.411 111.999 107.727 102.681 96.9039 85.5766 85.4664 78.7367 78.4513 125.372 89.9176 264.519 75.84 67.2961 93.4486 65.6202 61.2482 60.1207 55.1936 52.1782 49.7505 47.4622 41.7849 52.7844 39.7099 36.4285 33.8168 27.4288 54.5485 23.3529 17.5949 12.1082 16.4143 12.1525 6.68539 6.16806
threshold=0 9.5000000000000018 1 11.835000000000003 1.0000000180025095e-35 21.500000000000004 2 6.9497866132850055 31.500000000000004 14.500000000000002 6.8485114961658375 21.500000000000004 1.0000000180025095e-35 6.2896376240330243 35.500000000000007 4.1042500000000013 4.272800000000001 4.4228500000000013 10.714573303324377 8.7150000000000016 10.539932085125313 4.1774500000000012 74.995000000000019 28.500000000000004 4.0047500000000005 36.500000000000007 4.3113500000000009 25.625000000000004 23.500000000000004 6.7346189387613808 6.5000000000000009 7.439302844238493 25.500000000000004 25.500000000000004 56.980000000000011 17.955000000000002 16.155000000000005 3.4947500000000002 7.7550000000000008 14.500000000000002 5.1265030092944537 4.5141886747103612 4.289950000000001 11.168910495471829 9.5345230736326787 12.500000000000002 8.1846532035994013 7.4752413219390288 8.0072004291621983 8.6999312968714353 9.2881341255243814 8.6447062637484624 8.0053661766465343 6.1417337656098345 4.054850000000001 6.6358235193582376 9.5107041729460189 4.1571500000000006 19.500000000000004 10.879743801537652 20.500000000000004 29.995000000000001 5.3683070215747577 4.8513447805416474 42.035000000000004 7.6534947971414828 11.500000000000002 4.2545500000000009 170.05000000000004 6.9186932623011463 8.6352428542415414 7.439302844238493 4.0136500000000011 7.2061280109426296 5.2548844000372066 2.5607760688626393 104.10000000000001 6.0366761762234473 34.895000000000003 160.16500000000005 3.3588238100803012 8.0072004291621983 14.500000000000002 4.3557500000000013 8.5674576334673382 5.5274410133216048 1.5000000000000002 7.0942293363473894 7.8104877068799086
decision_type=1 2 1 2 2 2 1 2 2 2 2 2 2 2 2 2 2 2 2 2 2 2 2 2 2 2 2 2 2 2 2 2 2 2 2 2 2 2 2 2 2 2 2 2 2 2 2 2 2 2 2 2 2 2 2 2 2 2 2 2 2 2 2 2 2 2 2 2 2 2 2 2 2 2 2 2 2 2 2 2 2 2 2 2 2 2 10 2 2
left_child=3 30 9 40 5 21 18 -8 12 13 20 15 17 44 42 22 32 28 -7 -17 23 58 -6 -11 -22 36 27 52 60 -30 75 33 39 -19 72 -23 46 -36 80 -14 41 48 -12 51 53 -46 73 -29 54 70 -51 -18 -27 -3 65 -48 -34 84 -4 -16 -5 62 -43 82 -65 -1 -15 -68 71 -59 -50 -38 -13 -10 -56 76 -2 -70 -71 -28 81 -32 -63 -42 85 -40 -86 -77 -82
right_child=1 2 4 8 11 6 7 -9 25 10 14 34 16 66 59 19 43 31 -20 -21 24 35 -24 -25 -26 26 79 47 29 -31 38 -33 56 -35 37 -37 68 -39 57 -41 83 61 -44 -45 45 -47 55 -49 49 50 -52 -53 -54 -55 74 -57 -58 69 -60 -61 -62 63 -64 64 -66 -67 67 -69 77 78 -72 -73 -74 -75 -76 87 -78 -79 -80 -81 88 -83 -84 -85 86 -87 -88 -89 -90
leaf_value=0.040961306879373646 0.06223197177046564 0.03162912270972533 0.087048230287478559 0.091117638519706418 0.036647983355890382 0.055928941375446205 0.025791402832350117 0.059893132742876609 0.032889170012003241 0.015289251141311078 0.048776664083846587 0.011899139616526364 0.048161297760334239 0.094064686493873201 -0.0010380546778112787 0.002824273746794928 0.043911536135780915 0.06806237340597393 0.080637127899226571 0.03446194415072118 0.052408763620195378 0.040892757471130109 0.06079479276019014 -0.0022520427940449731 0.016129097332195429 0.051147286669891233 -0.012709562424861598 0.038428217363350704 0.070951824007381648 0.083333691749435584 0.0045071923424318278 0.091154439965541956 0.056307785429471235 0.044960564934248062 0.049504596652929812 0.068032021977812274 0.064075131068058011 0.017398597450243036 0.086769450072683496 0.074357377737807984 -0.012563276128733139 0.061842201996503116 0.031577682756621268 0.082103662632018806 0.062018707027836219 0.034000887368601573 0.030430168620228008 0.07764750439615338 0.04445397549139176 0.00011313133301469014 0.037525781968101676 0.0063256066402850716 0.0085756532542124522 -0.012398077820526257 0.017239128834523054 0.088624059525346313 0.0087693633425077831 0.091368867108116439 0.07173672473367268 0.042900389195082253 0.083110100081324301 0.082267797585913571 -0.011991505652788195 0.085033965095950279 -0.012312174616573595 0.00058804033959860788 0.079750810537518632 0.041054217137627816 0.075961745471023148 0.078660842380668963 0.077947843684714579 0.079584644439456981 -0.0061545962977857579 -0.012418477529439651 -0.012762145647874215 0.078507126951196674 0.092343405964844152 0.048382694831484448 0.059169671804185843 0.017244720578363747 0.044353493526380884 0.054977328710616995 0.057555034484155221 0.015257582361724762 0.091718605978510212 0.065094740571902829 0.078060258746480038 0.09071939539419413 0.06408248708573884
leaf_weight=27.413336999714375 23.191816292703152 196.56184344738722 120.28519865870476 273.8662029877305 157.66646070033312 833.41321729123592 789.09551234543324 503.99401541799307 5.7048621699213973 842.36726832389832 244.72979119420052 37.553717263042927 44.02522024512291 21.403055794537067 56.357390806078911 67.28444068133831 128.08036608994007 201.68707794696093 111.18344421684742 355.67501581460238 63.98857818543911 72.550925865769386 184.98708770424128 187.31138870120049 73.779550530016422 14.626894652843474 14.228192336857321 18.216548800468445 601.9065056219697 534.42207223922014 7.2035931795835513 42.749082684516907 15.49265541136265 88.411725625395775 32.327119722962379 98.400646582245827 110.39232873171568 203.75608588755131 13.474912963807585 388.44655577838421 10.788326933979986 7.1164260953664762 120.87532012164593 14.139408402144907 50.393237002193928 54.426326096057892 12.234944000840189 38.707104653120041 44.60480023920536 19.843403622508049 31.935656152665615 13.470309905707834 24.549585200846195 8.4457231685519201 13.143619172275068 7.90574937313795 11.973485387861727 14.16903133690357 111.60616201162338 7.1080749705433837 714.1731303781271 21.211148291826248 5.883897140622139 8.1960107684135419 7.6012728810310355 9.3157617002725583 27.619390144944191 14.835839688777922 10.541951946914194 20.566951982676983 10.323005251586435 56.847008846700191 58.972311653196812 8.6128937974572164 17.806984484195709 17.613139972090721 16.592055961489677 46.046273298561573 80.376122951507568 8.6558771431446058 11.623236671090128 5.8408593684434891 11.389596588909624 4.5008571147918692 46.410911090672016 17.192600309848785 26.615623071789742 210.95168468356133 6.9087242260575286
leaf_count=206 95 1618 380 588 1214 4879 6709 2585 42 8007 1526 372 274 54 618 714 894 918 426 2835 418 523 1020 2142 706 94 167 131 2443 1506 69 94 94 589 218 487 551 1924 44 1575 125 39 946 54 286 429 94 154 333 215 245 131 243 96 128 27 114 35 482 50 1989 76 68 31 86 100 104 102 41 79 45 188 681 98 216 51 31 279 416 79 74 33 70 42 112 79 88 405 36
internal_value=0.0524118 0.041567 0.0381949 0.0703547 0.0450982 0.050866 0.0474331 0.0387893 0.0732177 0.0247365 0.0206869 0.0316337 0.0755366 0.0426784 0.0373122 0.0385251 0.0631885 0.0786268 0.0582302 0.0294464 0.0145699 0.069913 0.0497081 0.0120913 0.0330376 0.054308 0.039142 0.048788 0.0807665 0.0767829 0.0794634 0.0649442 0.0695869 0.0610505 0.0157475 0.056563 0.0612628 0.0218295 0.0706474 0.0717098 0.0337841 0.0362578 0.0431123 0.0442328 0.0358173 0.0475495 0.0337545 0.0652425 0.0295645 0.0376022 0.0233328 0.040387 0.0246731 0.0297792 0.0167778 0.0537007 0.0358689 0.0746987 0.0797175 0.00378305 0.0853389 0.0551342 0.02791 0.0622827 0.0377874 0.0309231 0.0758309 0.0664257 0.0654619 0.0667713 0.0509081 0.0693997 0.000795986 0.00515614 0 0.0876559 0.0750146 0.0536748 0.0632284 -0.00106019 0.0423148 0.0277101 0.0738987 -0.00389413 0.0834137 0.0749077 0.0868639 0.0898174 0.0521628
internal_weight=9928.87 6227.69 5708.95 3701.19 3738.75 2640.53 2237.69 1293.09 3450.11 1970.2 1596.52 1098.22 3072.84 373.685 429.071 765.613 615.628 2457.22 944.597 422.959 1167.45 402.843 342.654 1029.68 137.768 377.27 118.984 96.1001 2124.37 1136.33 518.731 332.848 459.938 290.099 332.609 170.952 258.286 236.083 250.383 432.472 251.074 235.785 365.605 155.69 309.827 104.82 34.4584 56.9237 174.387 106.707 51.7791 141.551 39.1765 205.008 67.6797 20.1407 27.4661 218.806 231.891 63.4655 988.039 61.3984 13.0003 48.398 15.7973 36.7291 63.8583 42.4552 223.828 115.112 54.9278 167.239 96.526 14.3178 30.9506 268.349 39.7839 56.5882 100.943 22.8841 31.5764 13.0445 32.6007 15.2892 103.694 30.6675 73.0265 228.565 18.532
internal_count=59674 44198 42551 15476 25449 16471 14599 9294 13451 17102 14413 8978 11263 2689 3140 5783 3136 8127 5305 3549 11273 1872 2234 10149 1124 2188 868 622 6526 3949 1647 1601 2057 1507 3195 1010 1320 2142 1065 1849 2025 1858 2472 1079 2429 715 261 285 1488 838 460 1025 337 1714 650 121 208 853 862 668 2577 370 107 263 117 306 260 206 1059 530 378 739 1053 140 344 582 126 320 495 246 212 102 146 167 323 123 200 456 110
cat_boundaries=0 1 2 3
cat_threshold=1030 224 2049
is_linear=0
shrinkage=0.0119841


Tree=5
num_leaves=91
num_cat=12
split_feature=6 17 0 0 6 17 6 6 9 17 17 13 17 9 14 17 9 17 11 9 17 13 17 17 1 0 13 11 17 10 17 9 15 8 9 14 14 17 9 8 17 17 9 9 17 14 9 10 9 13 17 17 10 15 9 10 15 8 8 11 11 15 17 9 9 14 8 8 8 8 10 11 14 10 11 10 17 15 15 9 8 9 15 11 17 14 11 14 11 9
split_gain=11544.9 4891.7 5135.4 2355.35 2329.2 1405.02 1051.68 876.62 709.809 770.511 670.791 587.725 530.37 468.965 443.995 400.366 368.516 355.652 346.604 337.035 332.573 305.097 274.486 246.583 244.008 242.217 344.299 231.161 221.235 216.008 201.813 182.033 207.562 176.625 165.486 164.087 161.136 157.164 149.816 134.678 131.191 130.885 152.623 136.885 127.668 125.814 125.228 105.371 102.004 99.7361 99.1796 97.5694 114.098 90.4399 90.2223 87.8769 104.079 84.4146 84.1142 83.6182 72.8242 65.1792 51.0251 49.2726 61.1686 48.9587 66.018 51.3801 48.1165 46.5986 46.2147 69.4281 54.3373 44.4849 42.666 32.0346 30.3807 26.4666 12.0014 24.0648 18.1276 14.5795 11.5629 10.4257 9.69258 4.89293 4.30613 9.43379 3.76424 3.71969
threshold=0 9.5000000000000018 1 2 3 21.500000000000004 4 5 11.835000000000003 27.500000000000004 32.500000000000007 6 14.500000000000002 23.755000000000006 133.84500000000003 31.500000000000004 12.765000000000002 24.500000000000004 8.4906435187318063 14.085000000000003 35.500000000000007 7 17.500000000000004 7.5000000000000009 8 9 10 11.583559548564205 35.500000000000007 7.2330942773995277 41.500000000000007 17.955000000000002 2.5000000000000004 32.930000000000007 16.255000000000006 88.240000000000023 46.205000000000005 35.500000000000007 13.655000000000003 110.13500000000001 36.500000000000007 13.500000000000002 13.375000000000002 17.745000000000001 26.500000000000004 30.755000000000006 7.4750000000000005 5.3057863027301417 33.965000000000011 11 13.500000000000002 10.500000000000002 6.8855075790388556 4.5000000000000009 19.955000000000002 7.8452197668196186 3.5000000000000004 17.995000000000001 199.04000000000005 8.6352428542415414 8.4129427758570099 4.5000000000000009 32.500000000000007 15.015000000000002 14.105000000000002 312.97500000000008 139.89500000000001 79.995000000000019 494.99500000000006 503.59000000000003 8.6527629543726707 11.002324794203908 63.940000000000005 7.4685131086035446 8.694418419215296 5.3057863027301417 22.500000000000004 2.5000000000000004 2.5000000000000004 9.0450000000000017 78.045000000000016 12.855000000000002 3.5000000000000004 8.2158176456613958 3.5000000000000004 66.535000000000011 9.3929535312216164 70.665000000000006 10.371316900581416 8.4950000000000028
decision_type=1 2 9 9 1 2 1 1 2 2 2 9 2 2 2 2 2 2 2 2 2 9 2 2 9 9 9 2 2 2 2 2 10 2 2 2 2 2 2 2 2 2 2 2 2 2 2 2 2 9 2 2 2 10 2 2 10 2 2 2 2 10 2 2 2 2 2 2 2 2 2 2 2 2 2 2 2 10 10 2 2 2 10 2 2 2 2 2 2 2
left_child=3 23 5 15 12 7 25 31 22 24 16 17 77 37 21 19 50 -8 33 59 36 -9 29 78 41 28 -27 -16 -7 51 65 32 -3 -12 -18 45 -14 38 -11 62 69 42 -10 -43 63 -26 57 -37 82 -13 -6 -5 -53 -22 -20 56 74 -25 -58 -1 -33 -42 75 64 -21 66 67 -17 -67 -15 72 -72 -46 -39 -48 -24 -65 85 79 84 -80 -82 -32 -68 -2 -4 87 -81 -57 -86
right_child=1 2 4 8 10 6 11 14 9 13 18 49 20 40 27 30 34 -19 54 44 53 -23 39 46 35 26 -28 -29 -30 -31 48 60 -34 -35 -36 47 -38 73 -40 -41 61 43 -44 -45 70 -47 55 -49 -50 -51 -52 52 -54 -55 -56 88 58 -59 -60 -61 -62 -63 -64 76 -66 68 83 -69 -70 -71 71 -73 -74 -75 -76 -77 -78 -79 80 86 81 -83 -84 -85 89 -87 -88 -89 -90 -91
leaf_value=0.00090427032293405871 0.084553021342135451 0.048691001038009364 0.08264428644532644 0.068339105390331209 0.060626501559325911 0.063297211237439907 0.027653640380610054 -0.0012150562763410865 0.075501458534215152 -0.012499424166841392 -0.0013543665891834588 0.0037382019388489977 0.0095182678236396846 0.056933955062855403 0.035689561518135765 0.067262441913457649 0.055399131744230147 0.012561286053988539 0.037884845671828107 0.080889708927445306 -0.0034275843215259604 0.024625802563453335 0.014164071487009777 0.058375394913393809 0.077123430992215511 0.044384469234322203 0.018874004379536555 0.075308991449149945 0.023287277680030589 0.077439737377322918 -0.011892584625969784 0.040973402745651429 0.029202896005098906 0.034945063382482919 0.066429811575957842 0.074688973005862941 0.0328879171798079 -0.01278026641655443 0.0354688728058788 0.052559076647233013 0.042683849974593922 0.063408792132829267 0.027162893175414662 0.072220430730372265 0.065049888581258278 0.02451932597076021 0.069925858607106789 0.047504585412341101 0.052939104390108502 -0.010357595781606334 0.0093655357029341878 0.037743560266581225 -0.012217289217523915 0.023656529121301628 0.05640332279948955 0.086075721078237868 0.010759859216238192 0.0020265192280463635 0.065510085132550272 0.051654838052978172 0.062532792567728784 0.0021921064369937624 0.040785521782014188 0.084668948258133009 0.05993920103248275 0.02654793168926995 0.08724706830658388 0.050237869334171147 0.063810758021033462 0.077524096340263332 0.044340432958282695 0.078034523348811557 0.077158969704499425 0.022741479587790644 0.053497017072872209 -0.0078855159770362549 0.080092661722401828 0.052998624137649657 0.060918534287581719 0.088146927372165965 0.084741892952951425 0.068890149493110384 0.013248599824043241 0.07336373666089345 0.07638301220168757 0.067786766163088166 0.089465456654706996 0.076071188366477777 0.072921162866845676 0.066549205355813962
leaf_weight=9.0296922475099581 34.467134527862072 308.71299295127392 14.040503166615961 14.85433619469404 7.2232337817549732 97.307317912578583 371.37920491397381 80.477766968309879 15.176304787397383 9.8473052531480771 23.314163222908974 277.42887879163027 47.249290376901627 132.89248939603567 360.03738797456026 100.86117400974035 260.32331192493439 573.64701049029827 50.224426917731762 54.517217352986336 56.453157916665077 630.88922432810068 14.606107436120508 7.4540342912077895 7.4019567966461173 133.39442270994186 314.795814268291 22.864429466426373 25.760750934481621 23.824806325137615 5.6811946406960505 29.833985306322575 108.41755896806717 101.03702381998301 934.72212975472212 24.529742792248726 504.96975520253181 16.060606606304649 127.65525032579899 10.186990544199942 21.66663017123938 634.05820213258266 26.603397160768509 460.84802129119635 75.930316373705864 67.788022309541702 76.46049752831459 175.82311055809259 10.120748966932295 86.184238262474537 23.559789627790451 146.24005191028118 6.6397609561681739 25.567809738218784 200.29583564400673 24.46136149764061 10.919791862368585 8.3724028170108777 6.7699067965149871 10.317848429083822 135.85895857959986 8.2721639573574048 4.8819843232631674 495.87600169330835 38.687038131058216 9.9908876121044177 20.130230136215687 40.380672298371792 12.183083534240721 20.791084684431553 20.98475681245327 17.690468892455101 320.26648753136396 7.3321853429079047 40.434550955891609 26.772039785981178 601.36054714769125 16.223277896642685 18.102777101099491 33.264128617942333 28.895560525357723 24.574372351169586 4.8436333537101746 48.393792942166328 96.456976920366287 21.624876387417316 57.853827215731144 40.7598537504673 18.752791814506054 21.909540437161922
leaf_count=89 57 1984 42 68 35 475 3062 850 57 114 240 2889 442 614 2642 427 1344 5609 358 126 647 5304 142 39 26 867 2775 87 214 88 68 195 855 722 3839 77 3719 187 876 64 143 2754 202 1586 294 511 305 981 60 1009 212 1100 73 230 1069 61 93 82 28 61 672 80 38 950 160 72 47 219 49 65 116 46 908 64 206 304 1417 84 67 52 53 74 46 179 244 88 81 97 63 71
internal_value=0.0492396 0.0390884 0.0359313 0.0656026 0.0500303 0.026649 0.0196007 0.034704 0.0553004 0.0582628 0.0583067 0.013318 0.0301503 0.0421236 0.0273968 0.0761371 0.0629762 0.0183067 0.0445707 0.0787141 0.0275549 0.0220214 0.0365137 0.0733334 0.0621943 0.0331659 0.027287 0.0380783 0.0508548 0.0433737 0.0623374 0.0471307 0.0436448 0.0280826 0.064034 0.0435766 0.0309018 0.027093 0.0319799 0.0130988 0.0552499 0.0657384 0.044924 0.0671256 0.0793086 0.0298144 0.0622538 0.0508765 0.0258175 0.000189764 0.0216617 0.0384826 0.0355253 0.0049317 0.052723 0.0651638 0.0601502 0.0290634 0.0321737 0.0283677 0.0587002 0.0317454 0.00423316 0.0814027 0.0722868 0.0655544 0.0674354 0.0624546 0.0473878 0.0597769 0.0735558 0.0599736 0.0748602 -0.0013288 0.0643156 0 0.082169 0.0675178 0.0793303 0.0807605 0.0735176 0.0776221 0 0.0775737 0.0769314 0.0738843 0.0851301 0.0816192 0.0805734 0.0746361
internal_weight=10295.7 6393.73 5843.82 3902 2286.83 3556.99 1879.9 1677.09 2004.75 1756.75 1600.7 1308.64 686.129 344.518 1094.27 1897.25 1225.83 945.026 374.871 1644.66 634.24 711.367 248.006 549.91 1412.23 571.258 448.19 382.902 123.068 191.559 252.585 582.823 417.131 124.351 1195.05 275.543 552.219 160.895 137.503 56.4471 183.622 1136.69 41.7797 1094.91 1625.31 75.19 193.625 200.353 20.6456 363.613 30.783 167.734 152.88 82.021 250.52 177.799 134.585 15.8264 17.6897 19.3475 165.693 29.9388 46.2601 1190.44 93.2043 231.94 209.766 141.242 22.174 153.684 434.872 38.6752 396.197 23.3928 116.895 41.3781 1097.24 51.8887 356.284 284.711 71.5727 53.4699 10.5248 68.524 152.834 35.6654 131.878 74.024 43.2142 118.367
internal_count=59781 44233 42560 15548 13071 29489 16900 12589 10214 8337 7819 12569 5252 2143 8883 5334 5430 8671 2389 4167 5038 6154 1877 1673 6194 4331 3642 2729 689 1329 1167 3706 2839 962 5183 1595 4161 1241 990 548 902 4599 259 4340 4017 537 877 1058 174 3898 247 1241 1173 877 1427 756 632 121 121 150 867 223 484 2653 286 993 872 646 121 679 1364 162 1202 251 511 446 2367 214 796 602 194 127 114 226 372 130 230 149 124 315
cat_boundaries=0 1 2 3 4 5 6 9 12 13 14 17 20
cat_threshold=1030 38933837 12921776 224 2049 784 4197470980 3313517347 139 39880712 6046208 41 2129920 4198656 1537 2147500034 128 140288 268967936 512
is_linear=0
shrinkage=0.0119841


Tree=6
num_leaves=97
num_cat=7
split_feature=0 17 18 17 18 17 17 3 0 13 17 3 17 3 17 13 17 3 3 17 10 17 3 13 17 17 11 17 3 11 3 17 10 13 3 18 18 15 11 12 10 3 10 3 10 18 8 18 3 18 3 13 8 14 3 17 17 17 11 11 12 12 12 11 17 18 3 10 15 8 11 7 10 12 8 10 10 18 11 12 11 3 17 10 8 11 18 18 18 3 8 18 18 8 11 11
split_gain=7444.59 3409.96 3080.54 1984.62 1080.26 888.939 793.517 625.885 510.653 453.997 413.286 437.15 366.346 355.613 340.099 371.32 299.149 295 289.528 352.013 286.14 374.492 313.197 245.274 238.685 235.302 230.633 229.208 198.492 188.254 183.861 181.257 176.346 167.599 159.352 194.005 153.43 152.895 148.599 135.708 133.312 192.004 132.918 132.258 132.226 128.233 119.952 114.349 107.088 104.803 103.547 101.365 98.5762 113.525 96.9838 209.26 95.4348 93.7771 92.7525 86.7063 85.3672 83.0528 64.2898 85.8454 62.5764 64.9075 61.5339 86.6913 68.2988 61.0837 59.3327 58.9929 54.0339 53.4235 52.1206 51.3859 44.8544 44.8046 43.5255 40.3575 40.0388 37.6297 45.6799 33.7272 31.9107 89.8184 28.585 19.4323 14.4731 13.931 12.4849 20.6031 23.9924 11.5543 4.40803 9.59844
threshold=0 9.5000000000000018 0.076950000000000005 34.500000000000007 0.049350000000000005 28.500000000000004 29.500000000000004 5.2107339212546 1 2 23.500000000000004 6.2220795167087735 40.500000000000007 6.5935153926937158 21.500000000000004 3 34.500000000000007 4.4173925074671834 7.439302844238493 29.500000000000004 9.7353646871483281 35.500000000000007 6.1711302495706262 4 21.500000000000004 27.500000000000004 10.907477676713482 7.5000000000000009 6.3666881796254478 7.7112505130341829 5.6002424563664688 10.500000000000002 9.3824853001709716 5 7.2782315377478577 0.02775 0.097750000000000017 7.5000000000000009 9.5754867369914098 0.14466350000000003 10.109525118545703 7.0482448325657661 7.8054738780246469 7.3215193319406504 9.2813574254158215 0.066350000000000006 148.11000000000004 0.072350000000000012 5.8364372414466059 0.082650000000000015 6.8121340337455925 6 662.86000000000013 291.58500000000004 5.4974525246598587 12.500000000000002 24.500000000000004 31.500000000000004 9.3314733436668291 10.457631226605747 0.18977100000000002 0.33155200000000001 0.47157350000000003 9.1701430467604563 42.500000000000007 0.10365000000000001 5.0871542837526453 9.3420261504651876 3.5000000000000004 199.04000000000005 7.0942293363473894 1.5000000000000002 9.8370002444237787 0.14203750000000001 16.995000000000001 5.9952067579627961 5.2548844000372066 0.22250000000000003 8.3854874250855183 0.11968500000000001 8.5531392437392082 7.7575293382798796 38.500000000000007 8.0407681645796032 109.81000000000002 8.0548400194108414 0.083350000000000021 0.033350000000000012 0.14985000000000001 5.6449013040258178 39.995000000000012 0.075950000000000004 0.03135000000000001 48.920000000000009 10.085350545815244 9.1463882304187027
decision_type=9 2 2 2 2 2 2 2 9 9 2 2 2 2 2 9 2 2 2 2 2 2 2 9 2 2 2 2 2 2 2 2 2 9 2 2 2 8 2 2 2 2 2 2 2 2 2 2 2 2 2 9 2 2 2 2 2 2 2 2 2 2 2 2 2 2 2 2 10 2 2 2 2 2 2 2 2 2 2 2 2 2 2 2 2 2 2 2 2 2 2 2 2 2 2 2
left_child=1 27 6 4 18 7 13 9 16 36 43 -12 34 14 17 -16 38 -3 19 54 21 22 -7 32 42 30 -11 90 44 -30 31 -6 -10 -18 35 37 -4 59 -8 -26 41 64 -15 -9 -21 -33 50 73 61 58 -37 -23 53 -43 55 -2 -56 84 70 -5 -60 79 63 -59 65 -14 67 68 76 -48 -36 74 -22 -32 -50 -25 -29 -49 -68 -27 -64 82 -51 -73 87 -86 -70 -20 -66 -80 91 92 -1 -92 95 -95
right_child=3 2 5 12 25 20 8 10 23 26 11 -13 40 24 15 -17 33 -19 57 28 72 51 -24 75 39 48 -28 66 29 -31 47 45 -34 -35 49 46 -38 -39 -40 -41 -42 52 -44 -45 -46 -47 69 77 71 81 -52 -53 -54 -55 56 -57 -58 62 60 -61 -62 -63 80 -65 88 -67 78 -69 86 -71 -72 83 -74 -75 -76 -77 -78 -79 89 -81 -82 -83 -84 -85 85 -87 -88 -89 -90 -91 93 -93 -94 94 -96 -97
leaf_value=0.070776464470365466 0.075523357336913025 0.026704898321468943 0.036185252151905364 -0.012950630354310233 0.081889570805728562 0.0098644349127512843 0.033973828045454409 0.058712691334848362 0.014370412420264723 0.02381806865942538 0.030542755463109042 0.054675827492531824 0 0.048043748841407753 -0.00131465957079961 0.026635387707941521 0.026657823984097745 0.037696862590557892 0.076285057026747038 0.0066520620328256409 0.081384962604598723 0.022726925251460219 0.040759573975448535 0.0057892040893811536 0.023066809736168439 0.044236445568468681 0.060477413631654181 0.035593444598361522 0.003995628011095223 0.049457233830251003 0.074669987620492609 0.0080910430456337962 0.060917614930467837 -0.0096434304219944825 0.0033036046771258401 0.036802508284436979 0.057206430366415754 0.057095773417125281 0.061879548402841773 0.039977298665929854 0.076778016359288812 0.030982602234929355 0.077224212935964293 0.08704193581834499 0.063528307622518085 0.051556071134216702 0.072379793966720465 0.072812063734595964 0.040912045507453858 0.046385013231902708 -0.012236204372901235 -0.0068896371385469366 0.070036024176685807 -0.012560056460187596 0.059481141807438805 0.031814165649742578 0.051252297354297767 0.071787652622341491 0.072637115424051601 0.043654061933969715 0.044317545844703023 0.061541404204193448 0.014768577197007427 0.041690399571344711 -0.01288659936787305 0.04915284763839272 0.081582564825988871 0.084264410875026244 0.012741891250843455 0.041813367309805935 0.039364716195220445 0.040499511215884632 0.046537759098864998 0.063454014817602808 0.06514998592641312 -0.0075032507711659683 0.056884031197931548 0.080020488841912082 0.071809639815547929 0.0095799157982090575 0.050287432116595927 0.076536846047809803 0.076239944554755634 0.062092666267763955 0.031169836801785956 0.067540346994527142 0.046144758329980246 0.064543417522788873 0.0061306468674791519 0.048261700680420364 0.086152982743715717 0.074856656224884993 0.051156611450146973 0.074487252880244922 0.079779209271352597 0.064074225468789492
leaf_weight=25.606180280447006 21.229752294719219 563.15316163003445 65.609111860394478 23.290386848151687 25.482447877526283 64.124138012528419 71.519754968583584 888.77725609391928 166.74403113126755 273.55790191143751 175.92316340655088 286.45284749567509 10.048643007874491 92.617961853742599 81.021675519645214 944.51809299737215 30.504589021205902 959.35270238667727 102.57157488167286 40.238129585981369 15.63123192638159 12.30372393876314 185.17250069230795 63.805393308401108 89.105125807225704 9.2655227482318896 27.431228652596474 19.224638402462006 15.169945843517779 114.26170760393143 90.64933930337429 12.295746482908724 12.68790791928768 28.564000323414803 7.6714338958263388 62.12086046487093 243.98720946162939 7.5928326174616805 46.78232453763485 328.01020712405443 5.9248400479555121 64.206767946481705 31.346484765410423 25.521887071430683 6.9448523893952361 56.192273482680321 22.047615326941013 900.68951001018286 14.809468463063238 27.062529571354389 6.621940702199935 54.670693628489971 8.028986953198908 9.6627599820494634 539.18251261115074 65.908360965549946 358.55740828812122 36.503373064100742 26.707429997622967 4.6201149597764006 42.168123617768288 17.978758484125137 9.3595545291900653 24.426220670342445 28.040255844593048 6.3840080797672263 24.17099467664957 12.391317076981066 10.076020762324335 19.513845801353455 74.421159841120243 27.477186374366283 13.454586185514925 294.05922368168831 605.21479884535074 118.9275114685297 96.289180375635624 175.08661834895611 7.8567202016711262 11.484672471880911 10.511842124164103 24.01455096155405 12.016604922711847 21.421698823571205 11.957578197121618 85.192019067704678 6.689418636262416 39.829360209405422 6.6491626128554335 15.246535897254942 23.016528695821762 55.030921131372452 20.798343062400818 149.11616029590368 49.246773608028889 27.793914452195168
leaf_count=64 57 4560 461 267 48 603 508 3850 1556 2156 1275 1321 112 522 843 7547 225 6471 250 362 35 82 1138 648 690 52 124 127 138 623 250 110 67 326 69 442 1213 42 225 2150 21 501 102 36 30 273 82 2219 82 144 72 615 31 107 2307 473 1856 121 95 29 247 76 76 133 348 38 59 23 82 120 470 153 80 1037 2172 1311 428 294 27 100 53 67 42 83 73 265 35 132 70 77 29 104 83 303 79 78
internal_value=0.0473537 0.0390435 0.0364828 0.0598577 0.0629935 0.047233 0.02957 0.0503224 0.0161323 0.040176 0.0548166 0.0455112 0.0375051 0.0319145 0.0300294 0.0246671 0.0322436 0.0336363 0.0550123 0.0521961 0.029433 0.0260837 0.0328431 0.00713334 0.0407769 0.0682179 0.026313 0.0678829 0.0364862 0.044186 0.0708634 0.0542678 0.0167742 0.0118643 0.0439052 0.0340798 0.0511265 0.00944427 0.0450792 0.0363835 0.0208729 0.0183166 0.0554928 0.0595134 0.0152015 0.0438627 0.0419406 0.0719254 0.0623947 0.0505599 0.0319718 0.000813538 0.0296897 0.0251876 0.0550052 0.0425619 0.0562039 0.0651962 0.0449612 -0.00329658 0.0554228 0.042405 0.053588 0.0598591 0 0.0193405 0.0571694 0.0530553 0.050064 0.0582307 0.0360841 0.0635399 0.0655593 0.0661196 0.0645841 -0.00267602 0.0534103 0.0739935 0.0695772 0.0254312 0.0339536 0.0638222 0.0557866 0.0501295 0.0690765 0.0631457 0.0265404 0.0730618 -0.00903296 0.0566409 0.0737236 0.0691365 0.062166 0.0755559 0.0744374 0.0729
internal_weight=10746.6 6503.83 5961.28 4242.77 3743.95 2332.62 3628.66 1987.26 539.536 610.585 1376.68 462.376 498.815 3089.13 2548.05 1025.54 177.371 1522.51 1481.84 1161.49 345.357 316.271 249.297 362.165 541.08 2262.11 300.989 542.554 176.615 129.432 1554.46 93.9705 179.432 59.0686 359.869 145.808 309.596 35.5033 118.302 417.115 138.945 133.021 123.964 914.299 47.183 68.488 110.304 1460.48 707.652 214.062 68.7428 66.9744 81.8985 73.8695 984.878 87.1381 897.74 320.352 150.968 27.9105 68.8756 38.729 80.801 60.9296 51.1221 16.4327 191.945 144.671 132.279 41.5615 82.0926 668.923 29.0858 384.709 620.024 182.733 115.514 1075.78 47.2743 20.7502 19.8714 63.0937 39.0791 48.8989 239.551 97.1496 16.7654 142.401 34.6894 23.1033 350.609 101.435 46.4045 249.173 226.157 176.91
internal_count=59652 42338 40740 17314 13898 12989 27751 10436 4866 3954 6482 2596 3416 22885 19421 8390 1284 11031 6949 5846 2553 2438 1741 3582 3464 6949 2280 1598 1153 761 4231 431 1623 551 2188 1054 1674 338 733 2840 1228 1207 624 3886 392 383 716 3800 2718 1134 514 697 639 608 4693 530 4163 1103 881 296 342 228 383 254 568 150 858 695 672 202 539 2490 115 1287 2254 1959 555 2513 163 152 129 253 186 236 720 338 117 382 418 104 740 251 147 489 460 381
cat_boundaries=0 1 2 5 8 11 13 16
cat_threshold=38935885 5246976 4339201 16785412 520 1081738 5767180 8 2688561664 3368567300 520 24576 3506446338 2105856 1 128
is_linear=0
shrinkage=0.0119841


Tree=7
num_leaves=95
num_cat=13
split_feature=6 17 0 0 6 17 18 6 18 6 0 18 17 17 18 17 13 2 17 17 2 9 17 1 9 17 13 17 17 14 13 6 18 9 12 17 17 18 8 2 18 14 14 9 17 17 12 9 17 17 9 7 9 18 17 9 2 17 12 18 17 8 17 13 17 8 9 8 8 8 18 18 9 9 18 12 9 14 17 9 8 18 18 17 9 7 12 9 8 14 8 18 14 8
split_gain=9989.21 3749.42 4179.38 2041.53 1902.98 1458.65 1153.9 832.372 721.134 696.04 627.509 580.9 552.745 543.338 514.446 414.208 404.968 369.268 353.441 312.564 303.886 289.643 285.603 276.334 338.482 273.044 232.022 214.689 207.99 188.118 185.74 164.823 150.37 149.449 149.159 146.98 137.9 174.249 130.063 126.591 120.593 111.248 108.197 107.901 149.604 105.258 101.22 100.921 95.0051 105.636 94.0854 89.1763 82.8818 79.6582 75.244 74.5045 70.4221 63.3356 60.6169 60.4949 55.5069 55.1763 52.8303 52.3509 51.3925 49.6262 45.2825 70.2535 65.7882 42.6506 39.5027 35.2415 34.9192 33.9468 33.6012 32.0485 31.9763 31.3409 52.3581 29.8657 28.4637 28.0511 27.8614 25.1251 21.956 18.7508 16.3464 11.9682 9.73408 9.48062 6.18366 6.15406 5.62863 0.915738
threshold=0 9.5000000000000018 1 2 3 21.500000000000004 0.072350000000000012 4 0.17400000000000002 5 6 0.041750000000000002 32.500000000000007 33.500000000000007 0.25035000000000002 12.500000000000002 7 1.0000000180025095e-35 30.500000000000004 14.500000000000002 1.0000000180025095e-35 13.375000000000002 28.500000000000004 8 11.835000000000003 17.500000000000004 9 23.500000000000004 7.5000000000000009 77.295000000000016 10 11 0.047650000000000005 66.500000000000014 0.18698950000000003 33.500000000000007 36.500000000000007 0.02775 195.06000000000003 1.0000000180025095e-35 0.058750000000000004 60.510000000000012 284.90500000000003 29.455000000000002 24.500000000000004 30.500000000000004 0.78969550000000011 17.635000000000002 34.500000000000007 41.500000000000007 26.065000000000001 2.5000000000000004 10.965000000000002 0.069050000000000014 44.500000000000007 14.885000000000003 1.0000000180025095e-35 15.500000000000002 0.39063250000000005 0.084350000000000022 8.5000000000000018 84.920000000000016 17.500000000000004 12 19.500000000000004 199.04000000000005 7.4750000000000005 21.995000000000001 28.995000000000001 149.90500000000003 0.14985000000000001 0.083350000000000021 19.845000000000002 28.125000000000004 0.052650000000000009 0.18977100000000002 14.595000000000001 561.85000000000002 23.500000000000004 31.115000000000006 40.925000000000004 0.080850000000000019 0.010250000000000002 3.5000000000000004 14.885000000000003 1.5000000000000002 0.23651850000000005 36.705000000000005 25.995000000000001 128.25500000000002 29.995000000000001 0.12495000000000002 51.095000000000006 109.99500000000002
decision_type=1 2 9 9 1 2 2 1 2 1 9 2 2 2 2 2 9 2 2 2 2 2 2 9 2 2 9 2 2 2 9 1 2 2 2 2 2 2 2 2 2 2 2 2 2 2 2 2 2 2 2 2 2 2 2 2 2 2 2 2 2 2 2 9 2 2 2 2 2 2 2 2 2 2 2 2 2 2 2 2 2 2 2 2 2 2 2 2 2 2 2 2 2 2
left_child=3 28 5 11 10 8 23 21 9 17 18 22 20 19 16 -11 -9 -3 26 55 32 38 56 24 25 61 -4 62 83 66 -23 40 -6 -29 -22 39 72 86 -7 46 -14 -27 -37 44 -26 -16 -25 -33 71 59 57 52 -21 60 -15 69 77 -10 -51 74 82 -5 -12 -20 -58 -45 68 -68 -30 -8 -57 81 75 -74 -50 -24 -69 78 -1 -52 -41 85 -31 -2 -73 -13 -38 -61 -85 -62 -90 93 -92 -55
right_child=1 2 4 6 12 7 13 14 50 15 27 48 31 54 45 -17 -18 -19 63 51 34 30 36 35 43 41 -28 33 29 53 -32 47 -34 -35 -36 42 37 -39 -40 80 -42 -43 -44 65 -46 -47 -48 -49 49 58 79 -53 -54 91 -56 70 64 -59 -60 87 89 -63 -64 -65 -66 -67 67 76 -70 -71 -72 84 73 -75 -76 -77 -78 -79 -80 -81 -82 -83 -84 88 -86 -87 -88 -89 90 -91 92 -93 -94 -95
leaf_value=0.068913791863724524 0.075687505884111578 0.06515669020684374 0.029165483254533952 0.035522664119545529 0.052979701455211858 0.0041544952474108525 0.048690197381602109 0.014763371524447446 0.061940739977455035 0.04044544693462275 0.0714103006095924 0.072261947364739523 0.0070435146397577189 -0.013028064057331831 0.054144326837668115 0.022950811401736465 -0.0010053772287785818 0.038634913372570794 0.0082950935941037435 0.043102133154267856 0.038037278919349993 0.041427146884753359 0.027212152267938258 0.032123760940691165 0.052094003439136449 -0.012908359397307974 0.0039789268607446741 0.037381628527025208 0.0001489467741582833 0.071678195999866967 0.02196164900688434 0.031554002286894735 0.061433670797532182 -0.0029476115390544718 -0.012728066481865211 -0.012903386271889498 -0.012353764334030551 0.074989901957864022 0.068121850595676978 -0.012267798195284821 0.033255779494776594 0.025165181460273144 0.040987725894279292 0.066673463854881668 0.038444391590379282 0.015825535491583442 0.062445498537368485 0.050526041415956471 0.063856579968932972 0.0039204863684303756 0.083126821420885358 0.036551450451185047 0.064655266769578834 0.06840697640689157 0.040542383481446141 0.0005108324545869716 0.017699196832425549 0.043616392812987466 0.057012602797392675 0.065701459295258155 0.042043868190570675 0.055897985688082741 0.050482995515155053 -0.011179640193976969 0.056973255527233022 0.050108089364560647 0.070328314497651229 0.031941199981715539 0.051135594941798007 0.018623071159072954 0.038104433382993796 0.064896417829468589 0.063605079701625961 0.047312094805297258 0.033127520818734303 0.048152566392440907 0.054456893808670859 0.079278951136665221 0.059618549993985276 0.060914373845101372 0.014731328293568305 0.056895556065559634 0.048982138899152115 0.06011452861947722 0.075631706328142076 0.061826488513718338 0.010298315051436703 0.082167677016372398 0.07587770609461246 0.021136508038068855 0.058460309630877012 0.063802591820286275 0.068468425411602252 0.078746581092778267
leaf_weight=196.98880168795586 95.316360078752041 120.69186203181744 196.83384975045919 83.208229832351208 544.54223069548607 69.656815774738789 89.414691403508186 991.40715930610895 50.242814466357231 239.44462931901217 27.050615973770618 547.31808757781982 46.087543748319149 16.131692200899128 49.990221746265888 1069.0500258207321 310.90937484055758 208.52050277590752 21.040247365832329 28.708687260746956 36.74305422604084 277.05568413436413 16.452233947813511 208.14416794478893 401.09310114383698 22.948838382959366 90.829998373985291 237.49680130928755 9.4656387418508512 18.995287403464317 227.88245515525341 51.145716637372971 746.26484268158674 13.621960192918776 10.481955617666243 19.430283404886726 7.6469527781009736 6.0398572757840148 4.8974718302488318 7.0297238081693676 57.915242552757263 20.979170367121696 7.3420300856232634 79.376534201204777 169.77811916172504 13.714471779763697 17.756290055811405 243.73702975362539 12.170536473393442 7.4660099819302541 22.342629618942738 18.742563456296921 853.83751206845045 19.747070081532001 4.8850460201501837 9.1532156094908732 8.477245397865774 71.114674061536789 5.6659524142742157 20.435478188097477 9.614406883716585 27.317771136760712 67.668819881975651 57.441375352442265 13.377622120082377 46.758995652198792 12.841451741755007 38.608569979667664 6.1834841445088378 8.2377932369708997 7.7296025305986396 39.533185161650181 42.064812794327736 44.3956009298563 11.462639994919298 43.886270329356194 13.831554435193537 26.181346662342548 198.03159592300653 21.741925336420536 23.84539733082056 24.835198625922203 19.386758960783482 38.424642935395241 855.24374340474606 37.605957984924316 11.167077727615832 22.554364658892155 33.178418554365635 7.5990452095866194 20.536104425787926 22.636973425745964 215.82518315315247 33.713995084166527
leaf_count=502 126 463 1351 600 2464 696 483 9032 197 1552 81 1165 413 164 222 8543 3235 1345 207 184 227 1720 107 1363 1882 269 816 1504 88 53 1798 359 2509 131 109 221 85 20 24 78 377 173 47 265 1040 121 70 1248 47 74 37 96 2548 58 31 80 67 385 29 69 50 146 311 669 65 219 40 238 34 66 44 96 141 204 70 224 56 48 690 79 197 79 89 108 1322 115 101 34 51 52 61 63 446 79
internal_value=0.0454504 0.0361701 0.033418 0.0596956 0.0456852 0.0252129 0.0503786 0.0180748 0.0330501 0.030631 0.0279062 0.068624 0.0527671 0.0597677 0.0126408 0.0259599 0.011099 0.0469573 0.015804 0.0610155 0.0567764 0.0301328 0.0589792 0.0422382 0.0462158 0.0305805 0.0223908 0.0398929 0.0644364 0.0546701 0.0339131 0.0406204 0.0578738 0.0351653 0.0266168 0.0276607 0.0456958 0.0190974 0.00847165 0.0314237 0.0198089 0.00511492 0.00162917 0.0503322 0.0480488 0.046016 0.0345448 0.0457123 0.0727939 0.0595123 0.0569462 0.0634022 0.0639634 0.063605 -0.00020566 0.0421633 0.0641069 0.0512718 0.0274307 0.0657169 0.0521703 0.0406337 0.0565505 -0.00623373 0.0421007 0.0605993 0.0400289 0.0445206 0.0207972 0.0462321 0.0181746 0.0734923 0.0501466 0.0553362 0.0493005 0.0425738 0.0380371 0.0652294 0.0642757 0.0723706 0.00834731 0.0710204 0.060436 0.0695645 0.075167 0.0716057 0.00070645 0.0745449 0.0676409 0.0332695 0.0686822 0.071847 0.0676348 0.0750914
internal_weight=11184.3 6813.47 6197.56 4370.85 2448.9 3748.66 2171.85 1945.51 1803.15 1637.71 711.984 2199 1736.92 1036.84 1366.02 1308.49 1302.32 329.212 366.145 1015.82 1338.03 579.492 614.709 1135.01 851.461 154.454 287.664 345.838 615.905 212.624 504.938 398.886 1290.81 251.119 47.225 283.548 171.653 24.8539 74.5543 256.776 104.003 43.928 26.7723 697.007 570.871 63.7047 225.9 294.883 1584.29 79.755 165.442 901.289 882.546 131.694 21.0167 114.535 443.057 121.357 13.132 66.623 55.5955 110.526 94.7194 78.4816 21.8549 126.136 80.9307 65.2816 15.6491 97.6525 16.8828 1504.54 146.799 86.4604 23.6332 60.3385 52.4401 421.202 395.02 44.0846 30.8751 609.759 38.382 403.281 894.777 584.924 18.814 42.9898 307.964 17.2135 269.54 76.098 236.361 53.4611
internal_count=59537 43917 42225 15620 12776 29449 10266 16848 12601 11903 5070 5354 7706 3696 12610 10095 12267 1808 3043 3501 5309 4238 2254 6570 4594 1188 2167 2027 1692 900 3518 2397 4973 1635 336 1976 882 206 720 1708 790 442 268 3406 2922 343 1433 1607 3100 323 698 2828 2732 444 195 673 1372 582 103 220 244 746 392 876 132 484 456 334 122 549 124 2777 676 345 117 331 294 1240 1192 116 275 1359 142 792 1418 1280 186 103 666 102 558 200 507 137
cat_boundaries=0 1 2 3 4 5 6 7 10 11 14 17 18 21
cat_threshold=1030 106042701 12919730 224 2049 16 25428000 2858444293 2575655170 523 2129920 3374339088 2156404738 512 2147497473 2147500550 9 528 16384 268435458 513
is_linear=0
shrinkage=0.0119841


Tree=8
num_leaves=101
num_cat=10
split_feature=6 6 18 18 3 3 3 2 13 1 13 3 6 19 2 10 3 8 6 3 10 6 18 19 3 8 19 6 19 18 18 19 13 3 18 18 8 19 7 10 7 10 11 3 3 18 3 10 11 19 14 19 14 8 18 10 19 19 10 7 3 3 8 14 14 19 8 3 18 14 19 18 18 3 11 14 19 11 10 8 19 2 3 19 18 11 18 10 10 11 19 18 14 3 8 19 19 14 11 10
split_gain=9312.38 2295.71 1536.35 1255.44 742.494 714.541 614.28 512.374 331.079 317.969 294.978 276.977 772.757 447.309 338.282 256.604 287.652 224.275 220.386 298.79 212.931 197.612 257.708 183.445 182.212 166.74 235.463 152.404 149.156 144.342 137.834 130.579 127.124 132.635 153.674 120.999 120.978 117.46 99.677 97.3619 95.2906 103.272 103.902 91.6775 104.557 100.907 85.2122 91.9067 130.611 84.5914 82.8241 78.1942 72.2655 73.8183 69.4156 89.78 68.4787 82.5716 65.9282 62.961 62.7729 96.8834 96.3875 61.2847 127.709 60.343 58.1042 57.6359 57.6166 60.8203 54.2953 110.22 49.4674 49.223 48.7589 42.2456 39.9396 38.6612 38.2339 36.9399 36.369 35.9828 96.2576 58.4349 30.661 29.6133 28.8682 27.7668 26.6127 26.8758 24.9078 16.8902 16.4824 16.339 14.2998 14.1998 14.0168 10.522 7.92215 0.155476
threshold=0 1 0.049350000000000005 0.073450000000000015 7.0482448325657661 4.9785936870898242 7.2071461022524081 1.0000000180025095e-35 2 3 4 7.0482448325657661 5 3.4706500000000005 1.0000000180025095e-35 7.4094391990005262 4.8513447805416474 1340.0449999999767 6 4.7309676529828861 6.0991966170931535 7 0.052650000000000009 4.0770000000000008 7.2893654708362261 78.045000000000016 4.0003000000000011 8 4.801800000000001 0.19970000000000002 0.086550000000000002 4.0420500000000006 9 5.2107339212546 0.060250000000000005 0.033350000000000012 55.030000000000008 4.3751500000000005 1.5000000000000002 7.6263264821815211 1.5000000000000002 8.4258414005381397 7.2541715945293621 3.2006553224560208 2.1500202373731052 0.0083500000000000015 5.6725423114193321 5.5778394645662699 9.5754867369914098 4.5218000000000007 176.88500000000002 4.344450000000001 166.46500000000003 229.93000000000004 0.031150000000000001 4.7749040587885982 2.9923000000000006 4.8360000000000012 5.8006055149187956 1.5000000000000002 7.3007497846879561 7.439302844238493 56.980000000000011 36.895000000000003 45.695000000000007 4.9827500000000002 23.910000000000004 2.5607760688626393 0.05945000000000001 123.27500000000002 3.9927500000000005 0.11695000000000001 0.26940000000000003 7.6782249881820563 10.566613552746434 148.15500000000003 3.9744500000000005 9.6571712116154682 5.1149908003866509 209.93000000000004 4.2986500000000012 1.0000000180025095e-35 6.0295393471292291 4.2200500000000014 0.14295000000000002 7.9021172725365991 0.13975000000000001 5.9952067579627961 8.6447062637484624 6.7074717175591516 4.0735500000000009 0.036950000000000004 102.855 4.2990129817292893 105.05000000000001 4.2131500000000006 4.6012000000000013 92.445000000000007 8.3787353916733966 8.6527629543726707
decision_type=1 1 2 2 2 2 2 2 9 9 9 2 1 2 2 2 2 2 1 2 2 1 2 2 2 2 2 1 2 2 2 2 9 2 2 2 2 2 2 2 2 2 2 2 2 2 2 2 2 2 2 2 2 2 2 2 2 2 2 2 2 2 2 2 2 2 2 2 2 2 2 2 2 2 2 2 2 2 2 2 2 2 2 2 2 2 2 2 2 2 2 2 2 2 2 2 2 2 2 2
left_child=2 4 7 6 8 25 9 24 17 18 27 12 13 78 -15 16 -14 21 19 -3 54 22 -2 -20 35 26 70 -11 -23 40 46 -12 33 37 -35 56 67 -10 43 -40 41 42 -6 44 -22 -45 47 -7 -49 59 -41 -17 80 -54 55 -9 75 -58 73 -48 77 62 -62 -56 -65 -57 -34 -28 93 90 71 -4 74 85 -60 -1 -63 91 -5 -43 -37 84 83 -83 86 -13 -32 -71 89 -26 -70 -8 -84 -27 -91 -86 -51 -74 -31 -79
right_child=1 3 5 11 29 30 60 20 32 10 31 58 15 14 -16 51 -18 -19 23 -21 38 28 -24 -25 88 68 36 -29 -30 98 81 -33 66 34 -36 52 -38 -39 39 50 -42 79 -44 45 -46 -47 49 48 -50 96 -52 -53 53 -55 63 65 57 -59 72 -61 61 76 -64 64 -66 -67 -68 -69 69 87 -72 -73 97 -75 -76 -77 -78 99 -80 -81 -82 82 92 -85 95 -87 -88 -89 -90 94 -92 -93 -94 -95 -96 -97 -98 -99 -100 -101
leaf_value=0.062846096770951196 0.017450895072131024 0.050010449881844471 0.016255371494728426 0.078717193393176468 0.052164218005331581 0.067247153249834518 0.051870637049098403 0.04131784377270508 0.029073415425586897 0.041188523007225059 0.028286689349186423 0.05456948054201783 0.05300408073470645 0.029042668223201427 0.0017886474628430863 0.056159305758485739 0.039333767968088504 0.076674289077773614 0.036475004355069389 0.03485921372832021 0.051539329528695069 0.010772475106643607 0.034867534605472428 0.027195182668539635 0.03770147016750508 0.017979956772251296 0.049027578027650794 0.018755677689647261 0.041413836896288095 0.067692969136137898 0.065857271121235239 0.010274858875325116 0.021999212464875729 0.014717016268135192 -0.006059511793774279 0.062814987253414625 -0.01288572637053377 -0.012643209871771694 -0.012689555021449977 0.059368743216879863 0 0.041379286621481937 0.028906093215274223 0.054903370739217423 0.0067166305846701772 0.036956002371112323 0.062992968039247976 0.015935923427027834 0.058146939623701939 0.025727545535626249 0.0041375141308444613 0.039174763719273475 0.027751647065109294 0.055954853400396846 0.0022187060115415559 -0.00056286214772772569 0.042862298699725687 0.056170071466648916 0.05224125559818682 0.049780997861999451 -0.0010479258783126025 0.034082564208679361 0.037090942795640292 0.073765145251887404 0.022774243936034815 0.034472068476350148 -0.01318553679804753 0.021864597160385583 0.073783932085628459 0.033106366137260375 0.076491628332700137 0.056496607990248658 0.075891728941502729 0.02010132657919363 0.067505978157869143 0.044514784765776381 0.048086495453494069 0.034924205573052258 0.050998859653590911 0.067194039339341094 0.051404236427394535 0.066198286982448534 0.027916791755793174 0.044040291478999447 0.069995668384431831 0.03389497131760489 0.051214140011717875 0.052632869021898621 0.070974823579998056 0.062804548149404241 0.054405725690674409 0.066973992010862626 0.049395319168994894 0.043150000906566545 0.054865838168420229 0.060988050688125801 0.046930425082800931 0.062221718641388708 0.0528733171678233 0.046263940705950385
leaf_weight=56.661156572401524 246.21258636564016 317.25543749332428 13.435125730931757 10.190926335752009 35.000303663313389 21.704798698425293 24.76541093736887 12.265416964888571 70.09723399579525 166.19257429987192 74.662515342235565 37.633389286696911 339.49239153414965 171.89105286449194 106.52379102259874 450.89656067639589 664.20007492601871 10.432357564568518 464.74952023476362 471.47159340232611 12.409604527056215 338.0379880592227 246.96088045090437 942.01360120624304 10.395440332591532 8.3949351906776446 15.082079216837881 149.85005319863558 24.676319167017937 19.898127771914005 799.31138722598553 268.82568427920341 7.4779400974512091 111.16758628934622 94.049131013453007 141.73547852784395 12.010132044553755 10.976965472102163 9.2271435782313365 9.197924733161928 10.32155968993902 17.148546651005745 153.4090640693903 101.08803268522024 19.885476648807526 88.555449716746807 810.73346103727818 22.704478114843369 20.687007747590542 10.128732763230802 7.2777474075555793 46.139600247144699 25.997618280351162 31.042310751974583 8.2491418421268445 42.954358197748661 537.85846355557442 81.548141174018383 213.78584767878056 61.74482686072588 11.411909051239489 36.823903776705265 48.051400050520897 10.801858283579348 22.269219577312469 8.3423043638467771 57.653763838112354 53.608757548034191 32.510252512991428 14.37898252904415 11.969682089984415 42.482412993907928 22.577895276248455 11.809551224112509 39.99012566357851 32.498621322214603 307.71089009940624 11.017871968448164 44.012061059474945 20.061763443052769 70.775787197053432 213.68450749665499 12.834480762481691 21.021373555064201 560.83955159783363 16.931714303791523 24.887789495289326 94.110704481601715 36.715358026325703 118.55431830883026 19.832676619291306 36.906764253973961 12.763485342264174 9.4334454834461194 79.007666505873203 41.570643074810505 13.294624343514441 35.557201743125916 18.21548156440258 8.9195049181580526
leaf_count=190 2044 1369 104 21 167 66 115 80 511 967 540 139 1341 1122 983 1770 3695 29 2990 3007 66 3169 1610 6845 51 65 83 1160 176 54 1680 2324 64 1004 977 431 121 122 93 39 99 94 1028 477 180 524 2158 163 79 61 62 253 152 111 79 423 2673 325 820 228 101 213 273 41 166 57 647 408 85 89 36 174 33 76 107 150 1415 62 205 68 292 537 71 98 952 90 84 403 77 323 83 104 50 50 288 108 58 91 71 40
internal_value=0.0434448 0.0346182 0.0569052 0.0382475 0.0209407 0.0621056 0.0336708 0.0474396 0.0170591 0.0315429 0.0226316 0.0453299 0.0433829 0.024091 0.0186418 0.0471787 0.0439659 0.0210005 0.0339586 0.0404511 0.0346426 0.0205569 0.0256677 0.0300529 0.0511223 0.0453179 0.0357782 0.0314775 0.0125337 0.0389232 0.0641773 0.0138104 0.00653827 0.0099851 0.00516068 0.048767 0.0217793 0.0233348 0.0407332 0.0178897 0.0353482 0.036977 0.0332704 0.0433443 0.0241856 0.0465658 0.06046 0.0467113 0.0362448 0.0614498 0.035445 0.0545989 0.0557386 0.0432419 0.0201881 0.0121388 0.0461031 0.0446279 0.0547438 0.0620675 0.0461645 0.0441361 0.0296531 0.0323834 0.0396841 0.00500721 -0.00782811 0.0279469 0.0532062 0.0555368 0.0523012 0.0469665 0.0571313 0.0434009 0.0546806 0.0562575 0.0466129 0.056103 0.0563725 0.0555215 0.0590542 0.0662898 0.0617909 0.0642486 0.0671047 0.0483019 0.0654252 0.0501183 0.0605035 0.0586129 0.0666046 0.0610461 0.0389398 0.0317371 0.0596726 0.0693882 0.0381009 0.0676809 0.0608332 0.0404025
internal_weight=11594.5 7044.06 4550.47 5552.26 1491.8 2975.16 3340.63 1575.31 1217.74 2855.02 659.531 2211.63 1833.35 332.618 278.415 1500.73 1003.69 866.32 2195.49 788.727 352.524 855.888 493.173 1406.76 1222.79 327.249 148.588 316.043 362.714 274.055 2647.91 343.488 351.423 286.291 205.217 978.118 80.701 81.0742 247.641 25.7028 235.941 225.62 188.409 221.939 32.2951 189.643 960.998 65.0963 43.3915 895.902 16.4757 497.036 269.551 57.0399 104.882 63.5621 708.566 619.407 378.286 872.478 485.608 403.998 59.4633 41.3202 33.0711 51.2967 65.1317 68.6908 178.661 160.833 67.8872 55.9175 311.911 66.3747 253.776 89.1598 344.535 81.6096 54.203 37.2103 212.511 1686.91 260.304 234.706 1426.61 54.5651 824.199 108.49 244.673 207.957 52.3429 61.6722 25.598 17.8284 197.562 602.41 23.4234 58.1351 38.1136 19.9374
internal_count=59649 44205 15444 32271 11934 8094 21525 7350 10353 19202 4991 10746 9390 2331 2105 7059 5036 7028 14211 4376 2287 6999 3654 9835 5063 1701 926 2127 3345 1581 6393 2864 3325 2614 1981 4324 612 633 1441 194 1456 1357 1195 1247 246 1001 2813 308 242 2505 101 2023 986 263 846 560 3338 2998 1356 2386 2323 2002 374 286 207 480 711 491 775 660 314 278 1051 305 927 340 1628 321 226 162 723 3580 756 635 2824 229 1764 492 739 662 168 219 121 115 611 1060 119 124 125 102
cat_boundaries=0 1 2 5 6 9 10 11 12 13 16
cat_threshold=1030 96 958543524 3582484482 645 2392064 134243328 2155897344 8 8 2176 64 2065 2160085008 1180161 8
is_linear=0
shrinkage=0.0119841


Tree=9
num_leaves=94
num_cat=15
split_feature=6 0 6 0 3 6 6 9 0 1 10 3 3 3 3 3 2 1 5 3 14 3 3 8 15 15 3 14 10 9 10 5 16 3 3 10 15 8 9 3 9 8 8 9 10 3 6 14 10 10 10 3 10 8 3 5 3 9 10 8 10 9 3 15 3 9 8 14 9 3 10 3 9 8 5 14 10 8 3 9 8 9 10 9 9 3 9 10 9 8 10 3 9
split_gain=8132.55 2281.15 1905.46 1518.95 1027.16 985.919 558.255 453.609 423.472 396.912 388.615 346.815 292.92 347.011 266.753 201.429 198.068 165.641 162.978 156.941 146.734 149.221 145.015 140.851 129.082 127.768 135.938 123.793 112.103 111.734 103.338 206.95 121.044 97.0577 92.1847 91.9466 91.8097 107.243 89.089 86.5299 85.798 97.4731 82.8353 82.5787 80.3911 79.9237 78.9527 78.4161 72.8071 71.5496 98.8072 69.584 66.744 68.2257 78.9818 63.9439 63.0019 212.699 59.448 59.0324 78.0692 58.3515 55.5324 111.453 54.7941 50.2229 50.1875 90.2607 68.9226 49.9229 46.9537 38.8 36.9958 35.4405 28.8997 28.2236 26.3392 34.0239 25.8626 25.3248 20.9517 20.7691 29.2305 17.3943 18.6946 16.8985 16.5421 15.1247 14.9304 12.8787 10.8011 9.48276 5.53967
threshold=0 1 2 3 4.8513447805416474 4 5 11.835000000000003 6 7 9.360996936247675 5.4713448629052523 7.0482448325657661 3.7503235619472353 7.7575293382798796 6.0098925958087568 1.0000000180025095e-35 8 9 7.6557896049396925 342.17500000000007 5.9223649701768073 6.5042905765216377 98.100000000000009 7.5000000000000009 4.5000000000000009 4.5141886747103612 34.655000000000008 8.5575666243411455 16.605000000000004 7.1674175814275269 10 11 5.6249412421251632 5.6449013040258178 6.6227354397820148 2.5000000000000004 42.035000000000004 9.3450000000000006 7.5702474653387819 9.9450000000000021 37.905000000000008 94.925000000000026 20.605000000000004 5.705446369702539 6.6467882316016871 12 267.27500000000003 5.3683070215747577 6.8314139001060186 5.2548844000372066 6.2522321467208384 5.8622086995319824 109.81000000000002 4.9477337678119317 13 5.7757874964238898 14.695000000000002 6.7178039639531191 24.375000000000004 5.0205801788306017 9.0450000000000017 4.9477337678119317 1.5000000000000002 3.5437068191455983 14.105000000000002 98.100000000000009 84.065000000000012 45.865000000000002 2.385124784823212 4.6249247525354482 4.8169769635914657 27.595000000000002 119.90500000000002 14 68.635000000000005 5.4701654074033046 119.82000000000001 6.7838524472384956 33.965000000000011 180.08000000000001 25.445000000000004 7.3142198319787717 29.945000000000004 22.535000000000004 5.738631517995036 12.435 6.0556116797489983 16.865000000000006 84.920000000000016 8.2178422131461257 7.7575293382798796 9.2750000000000004
decision_type=1 9 1 9 2 1 1 2 9 9 2 2 2 2 2 2 2 9 9 2 2 2 2 2 10 10 2 2 2 2 2 9 9 2 2 2 10 2 2 2 2 2 2 2 2 2 1 2 2 2 2 2 2 2 2 9 2 2 2 2 2 2 2 10 2 2 2 2 2 2 2 2 2 2 9 2 2 2 2 2 2 2 2 2 2 2 2 2 2 2 2 2 2
left_child=3 5 4 7 36 11 17 25 18 52 14 47 13 58 -10 23 39 30 43 29 21 71 -17 -15 -12 26 49 55 -22 -14 32 -32 -4 -20 48 -36 59 -38 -27 45 75 -42 -23 -8 73 81 -31 88 -29 50 -1 87 56 54 -54 -6 70 -58 92 60 -3 -39 63 -18 -55 -19 67 -21 -68 -61 -9 -11 -53 79 -67 -28 78 -78 -47 -13 -40 82 -5 84 -41 -83 -57 -46 -2 -51 -60 -86 -7
right_child=1 2 6 16 27 12 8 9 10 20 24 44 19 15 -16 22 62 65 33 66 28 42 -24 -25 -26 38 40 34 -30 46 31 -33 -34 -35 35 -37 37 61 80 83 41 -43 -44 -45 51 76 -48 -49 -50 89 -52 72 53 64 -56 86 57 -59 90 69 -62 -63 -64 -65 -66 74 68 -69 -70 -71 -72 -73 -74 -75 -76 -77 77 -79 -80 -81 -82 85 -84 -85 91 -87 -88 -89 -90 -91 -92 -93 -94
leaf_value=0.033550214540890688 -0.01285770459916088 0.020441685313990567 0.020553920512495615 0.061834106175635027 0.022128773174891338 0.059321430652448819 0.007083966800725143 0.07598137781804376 0.024949965427225284 0.025073923215932555 0.053894163510607107 0.046752476582321817 0.071086273079213835 0.011107611100512758 0.065461419908977428 0.040813103349395287 -0.012639687386362555 0.023364720911647974 0.033841284364893233 0.026338453101081787 0.019567208958197413 0.020266240760983798 0.026619981736117796 0.028771263274495602 0.023100670659556687 0.070500714305610127 0.042469711259952178 0.013149125487971904 0.064905867932434663 0.01575447922669641 0.031771637993963292 0.0014070516684248325 0.0018272691564212148 0.014321780462606374 0.033947434578278847 0.025985051167523612 0.0073033505354946782 0.055687443574371338 0.016920679554205075 0.068668562125871774 -0.012358285122874155 0.037607644444339207 0.037742402553089513 -0.013240041385690638 0.068765208302618536 0.042842181299486422 0.046983467305441756 0.041831295916235668 0.041424168397804023 0.03082229422010754 0.011574555074095501 0.056785835040183419 0.033993435925479966 0.037550207295345854 0.047309868108663583 0.010278777460937426 0.035087355613318785 0.05744803255353341 0.032982781581081914 0.041916276852768976 0.048649599298200834 0.03955548180140072 0.055169873719191659 0.039993656268927459 0.052369904437692287 0.0075482569603707757 0.033243842877813803 0.049135756160244008 0.010355637710466777 0.054918725071786641 0.057418563529303975 -0.0073935452527880913 0.049602135558167823 0.026904864780711649 -0.011398152494857705 0.061906637737847742 0.060696872740497822 0.05493106548223007 0.05552513678611385 0.063666440258237353 0.047327164619759055 0.067525501719067182 0.066911155703585537 0.070207666825463463 0.062623689491665246 0.057166372298425437 -0.013043898631219289 0.060206739837664121 0.011073046859002325 0.049638046724698369 0.052083668106784199 0.051127137747127668 0.0724610147580598
leaf_weight=43.179097302258015 11.676115676760679 19.708444140851498 65.901117250323296 767.20076011121273 12.622444041073321 22.1567372828722 85.656383737921715 27.141726449131966 2063.6838094219565 6.8294403254985836 96.50648283213377 127.79407580941916 25.472215063869953 131.86368314176798 23.825063712894917 201.91240492463112 8.3325502648949641 7.2080127671360961 45.786755912005901 47.261476993560791 12.027789659798144 79.863310031592846 222.6110132932663 131.2176914960146 25.718570441007614 19.285271011292934 36.187921248376369 14.972288511693476 25.772944204509258 49.845924034714699 83.045220546424389 63.05988997220993 168.86917958408594 200.25065815448761 425.63956026732922 435.94735952466726 12.629622891545294 48.674080245196819 8.6782245188951475 70.368912868201733 7.7695540413260487 18.465166740119457 81.645873323082924 43.141787931323051 54.174586333334446 38.103241585195065 340.79409944266081 7.2148559987545005 177.51951567083597 15.132055066525938 97.571683615446091 313.34757305681705 79.647418417036533 42.280534163117409 459.44429939240217 5.3876674771308926 88.760111048817635 213.06896357983351 14.39075253903866 53.368744701147079 60.735590606927872 122.00088534504175 11.713945232331751 17.560491383075714 586.37561652809381 9.0727506056427956 66.299456834793091 58.153451591730118 27.903877101838589 416.29484873265028 125.70632128417492 23.117971539497375 192.48900929838419 13.158453315496443 65.287503905594349 19.654609367251396 448.90233743190765 285.45082986354828 107.23724882304668 17.419649787247181 6.5585709512233725 36.548809058964252 273.19078262895346 178.71706397086382 47.664699926972389 211.51209619641304 18.184746131300926 207.32983162254095 5.2066829726099959 12.737244099378584 10.168917186558245 26.965082012116909 20.375538893043995
leaf_count=293 118 138 553 1622 75 71 757 57 15081 46 448 557 52 1055 52 1089 83 63 311 287 81 546 1464 844 180 66 193 117 72 349 592 625 1704 1657 2623 2976 101 160 67 92 87 120 424 456 135 149 1421 41 966 99 850 1039 458 231 1816 43 460 649 84 230 249 594 48 91 2102 84 360 239 205 1409 419 214 728 75 756 69 1103 817 293 50 34 73 477 266 94 542 188 677 40 56 37 84 50
internal_value=0.0412325 0.0330536 0.028193 0.0536487 0.038076 0.0430889 0.0221702 0.0451778 0.0244113 0.047564 0.0265205 0.053401 0.0356009 0.0308182 0.0254165 0.0282573 0.0605956 0.00937745 0.0115916 0.0420282 0.0277232 0.0245939 0.0333892 0.0199467 0.0474787 0.0312424 0.0281998 0.0308892 0.0506892 0.0462649 0.0127109 0.020988 0.00806918 0.0172838 0.0316403 0.0299277 0.0492677 0.0417026 0.0530972 0.0612508 0.0409515 0.0225385 0.0291492 0.000203652 0.055133 0.0603516 0.0446241 0.00871543 0.039264 0.0219458 0.0183714 0.056787 0.0498844 0.0486099 0.0453572 0.00881389 0.0542368 0.0508992 0.0569389 0.0517737 0.0418355 0.0442047 0.0330878 0.0227824 0.051386 -0.0057972 0.0331565 0.0389906 0.0265444 0.0534586 0.0607723 0 0.0540687 0.047067 -0.00950597 0.0494611 0.0574505 0.0584671 0.0522565 0.0488402 0.0305289 0.0623258 0.0631755 0.0672462 0.0635364 0.0587275 -0.00520029 0.0620128 -0.0050478 0.0397116 0.0412232 0.0585823 0.065819
