tree
version=v4
num_class=1
num_tree_per_iteration=1
label_index=0
max_feature_idx=19
objective=binary sigmoid:1
feature_names=customer_state seller_state is_same_state distance_km purchase_day_of_week purchase_hour purchase_month total_items total_price total_freight total_weight_g avg_product_volume_cm3 freight_ratio product_category total_payment max_installments primary_payment_type lead_time_days_estimated seller_historical_delay_rate seller_avg_review_score
feature_infos=-1:25:18:10:22:17:23:4:6:7:8:15:5:13:12:9:11:14:16:19:1:24:26:20:2:0:3 -1:21:7:14:15:19:18:3:1:5:12:6:4:9:2:8:16:11:17:13:10:20 [0:1] [0:9.0686514105493163] [0:6] [0:23] [1:12] [1:21] [0.84999999999999998:1340.0899999999529] [0:136.04149999999922] [0:12.124868013083418] [0:12.598820565229309] [0:1.806878] -1:14:12:33:45:55:73:67:71:9:13:27:41:63:10:31:60:34:64:0:56:21:51:29:22:32:46:49:17:2:58:15:8:11:52:50:20:35:54:30:44:24:3:72:4:25:1:62:26:69:7:40:39:23:57:70:65:19:28:48:6:37:53:59:42:36:43:16:5:47:66:18:38:61 [0:1415.8060999999968] [0:24] -1:2:1:4:3 [3:156] [0:1] [0:5]
tree_sizes=3502 3490 3499 3508 3503 3508 3494 3543 3466 3545 3527 3533 3499 3521 3478 3519 3550 3526 3561 3554 3540 3536 3587 3574 3566 3558 3562 3573 3568 3572 3563 3571 3596 3552 3597 3505 3566 3555 3523 3601 3551 3551 3584 3574 3558 3570 3590 3616 3590 3592 3581 3548 3557 3532 3517 3617 3608 3626 3570 3546 3598 3586 3562 3626 3608 3589 3611 3574 3564 3619 3566 3594 3608 3605 3595 3566 3579 3629 3540 3537 3544 3585 3614 3596 3601 3618 3550 3586 3551 3537 3585 3530 3533 3529 3559 3583 3502 3568 3513 3495 3568 3531 3547 3504 3517 3524 3518 3548 3626 3556 3539 3542 3557 3570 3509 3545 3533 3489 3508 3512 3584 3562 3501 3473 3546 3464 3525 3545 3542 3453 3526 3492 3533 3526 3490 3472 3550 3523 3470 3496 3499 3503 3484 3517 3437 3544 3482 3514 3459 3479 3502 3443 3521 3484 3480 3469 3459 3486 3464 3582 3507 3518 3497 3483 3457 3454 3490 3479 3483 3453 3477 3504 3466 3458 3439 3553 3474 3447 3440 3507 3490 3453 3511 3453 3473 3475 3436 3501 3455 3471 3480 3441 3490 3438 3452 3479 3424 3496 3435 3517 3505 3515 3488 3447 3540 3445 3470 3496 3525 3502 3462 3517 3460 3425 3489 3455 3465 3457 3466 3512 3417 3433 3459 3514 3498 3502 3527 3444 3480 3462 3554 3449 3469 3473 3428 3479 3505 3432 3469 3418 3491 3440 3509 3527 3467 3443 3447 3467 3496 3463 3520 3442 3490 3478 3467 3495 3522 3473 3441 3497 3434 3488 3472 3459 3452 3499 3449 3468 3506 3442 3429 3424 3482 3494 3436 3553 3459 3453 3505 3460 3468 3442 3525 3441 3473 3447 3475 3454 3457 3498 3464 3491 3426 3439 3507 3446 3407 3445 3463 3443 3485 3499 3480 3488 3410 3499 3430 3440 3476 3481 3471 3501 3414 3442 3451 3472 3451 3454 3448 3445 3463 3494 3429 3471 3456 3514 3472 3464 3445 3427 3521 3506 3454 3483 3483 3409 3417 3458 3470 3390 3446 3464 3477 3498 3459 3487 3511 3475 3496 3459 3449 3434 3475 3488 3452 3435 3459 3438 3447 3458 3471 3497 3479 3448 3417 3458 3467 3474 3428 3475 3456 3460 3439 3467 3486 3460 3464 3422 3442 3461 3451 3452 3492 3492 3513 3420 3418 3483 3443 3464 3445 3454 3454 3432 3477 3446 3444 3477 3426 3450 3459 3485 3505 3472 3463 3438 3480 3454 3456 3472 3493 3468 3475 3479 3398 3509 3442 3464 3466 3467 3448 3478 3505 3447 3473 3436 3500 3433 3485 3403 3414 3424 3462 3477 3471 3445 3444 3447 3396 3467 3474 3434 3467 3434 3455 3436 3436 3473 3461 3475 3498 3473 3436 3462 3435 3456 3397 3480 3454 3467 3495 3445 3422 3492 3511 3420 3446 3470 3484 3438 3507 3439 3490 3432 3454 3450 3510 3436 3409 3454 3468 3468 3430 3442 3428 3470 3467 3455 3443 3468 3477 3412 3456 3454 3442 3437 3396 3481 3439 3470

Tree=0
num_leaves=31
num_cat=4
split_feature=0 17 6 6 6 18 6 17 0 17 17 6 6 18 3 18 6 2 6 17 2 17 18 9 1 6 17 6 13 17
split_gain=4138.4 2084.04 1711.17 1456.59 1520.29 1101.05 1020.47 818.032 497.569 624.611 496.452 343.794 310.413 301.727 288.561 283.841 273.112 261.163 252.13 238.201 210.024 200.548 188.236 181.28 258.165 173.417 170.336 169.052 166.632 164.86
threshold=0 9.5000000000000018 3.5000000000000004 3.5000000000000004 10.500000000000002 0.076750000000000013 10.500000000000002 21.500000000000004 1 24.500000000000004 28.500000000000004 1.5000000000000002 11.500000000000002 0.049350000000000005 4.4173925074671834 0.20030000000000003 5.5000000000000009 1.0000000180025095e-35 1.5000000000000002 29.500000000000004 1.0000000180025095e-35 7.5000000000000009 0.25035000000000002 11.835000000000003 2 4.5000000000000009 11.500000000000002 5.5000000000000009 3 32.500000000000007
decision_type=9 2 2 2 2 2 2 2 9 2 2 2 2 2 2 2 2 2 2 2 2 2 2 2 9 2 2 2 9 2
left_child=1 21 5 10 8 18 7 15 9 26 20 -7 13 -8 -13 16 17 -4 -3 -10 -2 -1 -9 -20 -25 -21 -5 -28 -18 -6
right_child=3 2 6 4 29 11 12 22 19 -11 -12 14 -14 -15 -16 -17 28 -19 23 25 -22 -23 -24 24 -26 -27 27 -29 -30 -31
leaf_value=0.066643519359497652 0.068903857414103889 -0.044910544505127242 0.024681312653461726 0.060755622281847305 0.05688184993505558 -0.015513442175592234 -0.012788035888581554 -0.063549704328205031 0.029352872535244122 -0.049994451505861376 0.026901127754270237 -0.013385433580409089 -0.029317721620972285 0.033953221087956398 0.045612915755019905 0.027802566996646242 0.00607151432021894 -0.026214317565636056 -0.048331174884806614 0.033749298907936383 -0.028883043114465483 0.023133211330622985 -0.0039120421458608114 0.011070549605223709 -0.033984972018741712 -0.019429160569053847 0.024645675879286299 -0.016876883998697433 -0.044804351618529116 0.013210196577125579
leaf_weight=675.32549303770065 2132.1216560155153 710.79486456513405 353.62538675963879 115.07839450240135 1472.0339786559343 361.29042026400566 699.99990448355675 3222.7989511191845 1055.9331022202969 1029.6920661479235 1251.2684881985188 238.50238540768623 772.09663066267967 681.3139770925045 1581.7193805277348 221.95095033943653 179.64708343148232 877.51815663278103 256.59544478356838 202.86162826418877 56.361055299639702 435.69523356854916 137.97751568257809 1026.1006067693233 448.84841059148312 627.58830694854259 366.09454903006554 741.85162763297558 2063.7808622270823 253.28308665752411
leaf_count=1193 3605 3913 1122 226 3082 1633 3100 19755 3185 5844 3877 1061 3847 1950 3909 681 680 4281 1442 582 280 1405 570 3720 2318 2919 1162 3387 11369 901
internal_value=6.59484e-08 -0.0162938 -0.0215958 0.0261628 0.0110396 0.00322286 -0.034055 -0.0432482 -0.00539662 -0.0212067 0.0520224 0.0290393 -0.0039263 0.0102664 0.0378824 -0.0270167 -0.0305185 -0.0115954 -0.0198365 0.0135245 0.0663855 0.0495806 -0.0611013 -0.00954368 -0.00279586 -0.00643877 0.00285699 -0.00315674 -0.040903 0.0504707
internal_weight=24249.7 14945.6 13834.6 9304.17 5864.42 4623.85 9210.71 7057.3 4139.1 2252.72 3439.75 2181.51 2153.41 1381.31 1820.22 3696.52 3474.57 1231.14 2442.34 1886.38 2188.48 1111.02 3360.78 1731.54 1474.95 830.45 1223.02 1107.95 2243.43 1725.32
internal_count=96999 67949 65351 29050 21288 17996 47355 38458 17305 10619 7762 6603 8897 5050 4970 18133 17452 5403 11393 6686 3885 2598 20325 7480 6038 3501 4775 4549 12049 3983
cat_boundaries=0 1 2 3 5
cat_threshold=38933837 8652832 2129920 1451360433 1326647441
is_linear=0
shrinkage=1


Tree=1
num_leaves=31
num_cat=5
split_feature=0 17 6 6 6 18 6 17 0 17 17 6 6 18 3 18 6 2 6 6 9 17 18 6 9 1 8 1 13 17
split_gain=3737.38 1882.14 1545.32 1316.15 1373.11 994.268 922.145 739.733 450.427 591.836 449.478 310.452 280.208 272.385 260.617 256.312 246.861 235.74 227.638 219.069 193.906 181.502 170.932 170.618 163.666 233.512 163.362 153.96 150.135 149.665
threshold=0 9.5000000000000018 3.5000000000000004 3.5000000000000004 10.500000000000002 0.076750000000000013 10.500000000000002 21.500000000000004 1 24.500000000000004 28.500000000000004 1.5000000000000002 11.500000000000002 0.049350000000000005 4.4173925074671834 0.20030000000000003 5.5000000000000009 1.0000000180025095e-35 1.5000000000000002 5.5000000000000009 14.085000000000003 7.5000000000000009 0.28620000000000007 4.5000000000000009 11.835000000000003 2 279.24500000000006 3 4 11.500000000000002
decision_type=9 2 2 2 2 2 2 2 9 2 2 2 2 2 2 2 2 2 2 2 2 2 2 2 2 9 2 9 9 2
left_child=1 21 5 10 8 18 7 15 9 29 20 -7 13 -8 -13 16 17 -4 -3 -10 -2 -1 -9 -11 -20 -26 -14 -6 -18 -5
right_child=3 2 6 4 27 11 12 22 19 23 -12 14 26 -15 -16 -17 28 -19 24 -21 -22 -23 -24 -25 25 -27 -28 -29 -30 -31
leaf_value=0.06338283900206465 -0.049524528503281359 -0.042686977761477347 0.023450817491765183 0.057771990601596684 0.054262692688038773 -0.014738734347744441 -0.012149201243770185 -0.06014821156264745 0.034132593725701897 -0.013737001056967804 0.025560714640865373 -0.012716803174457584 -0.036687707216499284 0.032264956163761044 0.043355143323890774 0.026417569572846491 0.004723106970161494 -0.024908016645474932 -0.045941966325387551 -0.00094859263833313901 0.06510913680256071 0.021979475897526784 0.0041431697195290322 -0.059529376773047239 0.01052262577657131 -0.032332109285825021 0.032061163394030832 0.011308211909974794 -0.042682003211870087 -0.0021168931295270552
leaf_weight=674.57621836662292 37.534371867775917 710.43654415011406 353.57154370844364 114.97226077318192 1456.7207660675049 361.2686892747879 699.97128856182098 3250.7428681850433 749.84704042971134 275.55896075069904 1251.0421791672707 238.49170291423798 672.78833091259003 681.11768129467964 1580.8969461321831 221.90806092321873 187.62174567580223 877.36743722856045 256.44565641880035 1094.666200697422 2148.4079420566559 435.63695198297501 106.78127834200859 776.92774739861488 1026.0691629350185 448.71884968876839 99.142442107200623 267.39518965780735 2054.769135966897 1125.9254012703896
leaf_count=1193 214 3913 1122 226 3039 1633 3100 19912 2114 1252 3877 1061 3552 1950 3909 681 718 4281 1442 4401 3671 1405 413 4723 3720 2318 295 944 11331 4589
internal_value=-1.2454e-06 -0.015489 -0.0205282 0.0248688 0.010492 0.00306022 -0.0323722 -0.0411156 -0.00512841 -0.0198737 0.0494619 0.0275983 -0.00373071 0.00975472 0.036005 -0.0256803 -0.0290088 -0.0110176 -0.0188548 0.0132411 0.0631408 0.0471366 -0.0581035 -0.0475402 -0.00907491 -0.00266423 -0.027858 0.0479811 -0.0388849 0.00343196
internal_weight=24237.3 14938.3 13828.1 9299 5862.01 4622.33 9205.78 7052.76 4137.9 2293.38 3436.98 2180.66 2153.02 1381.09 1819.39 3695.24 3473.33 1230.94 2441.67 1844.51 2185.94 1110.21 3357.52 1052.49 1731.23 1474.79 771.931 1724.12 2242.39 1240.9
internal_count=96999 67949 65351 29050 21288 17996 47355 38458 17305 10790 7762 6603 8897 5050 4970 18133 17452 5403 11393 6515 3885 2598 20325 5975 7480 6038 3847 3983 12049 4815
cat_boundaries=0 1 2 3 4 6
cat_threshold=38933837 75761696 2129920 2113536 1451362481 1326647441
is_linear=0
shrinkage=0.05


Tree=2
num_leaves=31
num_cat=5
split_feature=0 17 6 6 6 18 6 17 17 0 17 6 18 6 6 18 3 6 0 6 17 2 6 2 17 13 0 17 9 8
split_gain=3379.14 1701.76 1397.28 1191.64 1242.72 898.463 834.958 686.892 419.535 607.981 409.285 280.637 279.694 264.132 253.076 246.024 239.373 232.106 229.956 205.82 183.238 176.06 168.276 167.524 164.638 151.381 150.744 149.932 186.697 148.791
threshold=0 9.5000000000000018 3.5000000000000004 3.5000000000000004 10.500000000000002 0.076750000000000013 10.500000000000002 23.500000000000004 24.500000000000004 1 28.500000000000004 1.5000000000000002 0.20030000000000003 5.5000000000000009 11.500000000000002 0.049350000000000005 4.9785936870898242 4.5000000000000009 2 1.5000000000000002 34.500000000000007 1.0000000180025095e-35 7.5000000000000009 1.0000000180025095e-35 14.500000000000002 3 4 26.500000000000004 11.835000000000003 224.05000000000004
decision_type=9 2 2 2 2 2 2 2 2 9 2 2 2 2 2 2 2 2 9 2 2 2 2 2 2 9 9 2 2 2
left_child=1 22 5 10 8 19 7 12 18 -10 21 -7 13 23 15 -8 -13 -11 -5 -3 -19 -2 -1 -4 -15 -25 -6 28 -21 -16
right_child=3 2 6 4 26 11 14 -9 9 17 -12 16 -14 24 29 -17 -18 20 -20 27 -22 -23 -24 25 -26 -27 -28 -29 -30 -31
leaf_value=0.011160827443049233 0.062497441535559632 -0.040611335103079002 0.0070126206084409311 -0.00023922101498939573 0.056918189761642347 -0.014004211306627549 -0.011543092899940148 -0.060437999277913761 -0.04687480422863903 0.040226281792585347 0.024295281055691249 -0.0022534883121436977 0.02112159902589128 -0.023413360613035464 -0.036798131740847805 0.030677062939603941 0.04327213840451203 0.0057842680091836525 0.037066854056479623 -0.040174145699975107 -0.041763122957996758 -0.02708703406818961 0.056136547534458639 0.0027681082712059171 -0.049201287460763965 -0.039549803047283769 0.024732408867181584 -0.030833779325274608 0.010526383040252803 0.02027475128122247
leaf_weight=277.45070610940456 2122.5850311517715 709.43305405974388 574.34576442837715 1132.8385813385248 1095.0662498623133 361.20778247714043 699.89109951257706 2461.1298910826445 1046.7994917631149 332.6757293343544 1250.4079473912716 360.10133212804794 275.85668711364269 949.24967040121555 631.98003460466862 680.56765112280846 1456.9539338350296 693.32360006868839 643.23810476064682 222.90868598222733 286.30351541936398 56.299375221133232 830.50203107297421 308.75001382827759 1778.5737808197737 692.1865112632513 625.88425636291504 528.27893015742302 979.17483313381672 139.3839852809906
leaf_count=978 3605 3913 2184 4529 2099 1633 3100 15359 5997 857 3877 1461 893 4676 3380 1950 3509 2640 1724 1229 1558 280 1620 1239 10336 3771 1884 2677 3574 467
internal_value=-1.02139e-06 -0.0147374 -0.0195306 0.0236648 0.00998337 0.00290766 -0.0308037 -0.039135 -0.00487559 -0.0186942 0.0470972 0.0262483 -0.0276849 -0.0308137 -0.0035462 0.00927149 0.0342499 0.00411082 0.0134792 -0.017931 -0.00811182 0.0601827 0.0448738 -0.0145125 -0.0402274 -0.0268638 0.0456871 -0.0086322 0.00112472 -0.0264852
internal_weight=24203.3 14917.9 13810 9285.42 5856.13 4618.06 9191.92 7040.09 4135.18 2359.1 3429.29 2178.26 4578.96 4303.11 2151.82 1380.46 1817.06 1312.3 1776.08 2439.8 979.627 2178.88 1107.95 1575.28 2727.82 1000.94 1720.95 1730.36 1202.08 771.364
internal_count=96999 67949 65351 29050 21288 17996 47355 38458 17305 11052 7762 6603 23099 22206 8897 5050 4970 5055 6253 11393 4198 3885 2598 7194 15012 5010 3983 7480 4803 3847
cat_boundaries=0 1 2 3 6 7
cat_threshold=38933837 75761792 9183232 688046098 2265726977 256 328224
is_linear=0
shrinkage=0.05


Tree=3
num_leaves=31
num_cat=6
split_feature=0 17 18 6 6 6 17 0 3 17 6 17 17 6 1 3 6 6 6 2 9 17 13 17 3 17 13 17 1 19
split_gain=3057.58 1546.03 1275.1 1081.04 1126.27 850.844 390.347 400.96 386.052 374.537 341.047 356.282 314.242 261.069 245.346 238.649 215.386 215.301 380.15 177.379 163.227 161.507 158.051 156.1 177.944 148.206 145.682 145.557 139.157 134.786
threshold=0 8.5000000000000018 0.073450000000000015 3.5000000000000004 10.500000000000002 3.5000000000000004 29.500000000000004 1 7.074060967026166 28.500000000000004 10.500000000000002 23.500000000000004 21.500000000000004 1.5000000000000002 2 4.9785936870898242 11.500000000000002 10.500000000000002 5.5000000000000009 1.0000000180025095e-35 14.085000000000003 18.500000000000004 3 27.500000000000004 4.2990129817292893 40.500000000000007 4 32.500000000000007 5 3.5002500000000007
decision_type=9 2 2 2 2 2 2 9 2 2 2 2 2 2 9 2 2 2 2 2 2 2 9 2 2 2 9 2 9 2
left_child=1 -1 14 9 6 13 8 -8 12 20 11 19 -5 29 17 -15 -12 18 23 -7 -2 22 -20 24 -3 -11 -21 28 -6 -4
right_child=3 2 5 4 27 10 7 -9 -10 25 16 -13 -14 15 -16 -17 -18 -19 21 26 -22 -23 -24 -25 -26 -27 -28 -29 -30 -31
leaf_value=0.048538050563505075 -0.046022255882941114 -0.035344773134519128 0.049505421771486674 0.018471764241893448 0.055706325605618362 0.0099460994430686511 -0.054111278519267475 0.000144935044866008 0.035172172586354994 0.028872061753724244 0.036690526674753976 -0.051271590850661498 -0.022343523332941779 -0.0039601102192773716 -0.045126049410485647 0.040891097370452843 -0.017764995339588887 -0.0053133436346327464 0.0045698015269068455 0.0144743036458806 0.05928819353787506 -0.055644477522025927 -0.040565080353156757 -0.040359578440963224 -0.0026552955295356538 -0.028269215605129044 -0.031700272909070605 0.0085083988726131383 0.0094724817646243409 -0.027758711729658159
leaf_weight=925.62887097895145 37.441616743803024 558.43769025802612 69.06628891825676 790.91927322745323 1256.1473840177059 622.25701612234116 660.30068574845791 701.90974435210228 810.14912988245487 1123.1977601051331 437.11575198173523 829.35394994914532 1167.9961692839861 370.46288225054741 2155.6278579384089 1487.2860652208328 310.61403459310532 1103.9769922792912 263.52830450236797 207.08597128093243 2130.5034269094467 1352.479862049222 766.35374963283539 569.25112557411194 1635.5932920575142 126.22952234745026 915.47635851800442 252.68604026734829 207.29052178561687 308.89080733060837
leaf_count=1982 214 2980 167 2637 2359 2335 3996 2799 2223 3268 1144 5007 5650 1527 12351 3613 1472 4665 1054 740 3671 8350 4269 3146 6833 609 4765 901 723 1549
internal_value=-1.43464e-07 -0.0140306 -0.0181885 0.0225376 0.00950512 0.000393232 -0.00463789 -0.0265507 0.00614187 0.0449033 -0.0156564 -0.0242909 -0.0058642 0.0242404 -0.0304748 0.0319471 0.0140692 -0.0253086 -0.0296477 -0.0114663 0.0574694 -0.0442842 -0.0293654 -0.0170289 -0.0109756 0.0230991 -0.0233356 0.043552 0.0496029 -0.0136398
internal_weight=24153.3 14888.5 13962.9 9264.77 5847.4 5557.61 4131.28 1362.21 2769.06 3417.37 3321.9 2574.17 1958.92 2235.71 8405.25 1857.75 747.73 6249.62 5145.64 1744.82 2167.95 2382.36 1029.88 2763.28 2194.03 1249.43 1122.56 1716.12 1463.44 377.957
internal_count=96999 67949 65967 29050 21288 22319 17305 6795 10510 7762 15463 12847 8287 6856 43648 5140 2616 31297 26632 7840 3885 13673 5323 12959 9813 3877 5505 3983 3082 1716
cat_boundaries=0 1 2 3 6 9 10
cat_threshold=38933837 75827872 2130198 3775008165 487260164 128 738361362 1125403025 512 2113536
is_linear=0
shrinkage=0.05


Tree=4
num_leaves=31
num_cat=6
split_feature=0 17 6 6 6 18 6 17 17 17 0 6 13 6 18 3 6 9 0 6 17 18 2 6 17 13 3 0 6 9
split_gain=2772.66 1442.47 1129.02 1026.52 1078.59 657.882 639.062 636.866 396.818 377.871 535.728 214.442 213.715 212.691 204.068 190.847 182.017 188.527 180.893 176.108 174.455 155.364 152.811 149.321 144.053 139.915 138.309 137.52 136.305 134.027
threshold=0 9.5000000000000018 3.5000000000000004 3.5000000000000004 10.500000000000002 0.076750000000000013 10.500000000000002 21.500000000000004 28.500000000000004 23.500000000000004 1 4.5000000000000009 2 1.5000000000000002 0.18210000000000001 4.4173925074671834 5.5000000000000009 9.6850000000000005 3 1.5000000000000002 34.500000000000007 0.025650000000000003 1.0000000180025095e-35 7.5000000000000009 32.500000000000007 4 5.4713448629052523 5 1.5000000000000002 11.835000000000003
decision_type=9 2 2 2 2 2 2 2 2 2 9 2 9 2 2 2 2 2 9 2 2 2 2 2 2 9 2 9 2 2
left_child=1 23 5 8 9 19 7 14 22 18 -11 -12 -8 -7 16 -15 17 -4 -5 -3 -13 -10 -2 -1 26 -18 -6 -14 -23 -21
right_child=3 2 6 4 24 13 12 -9 21 10 11 20 27 15 -16 -17 25 -19 -20 29 -22 28 -24 -25 -26 -27 -28 -29 -30 -31
leaf_value=0.0093272019501071512 0.056541884059370967 -0.037377323002713944 -0.044784471377651937 0.0026977817349535037 -0.036920079879925696 -0.012887861516747834 0.016966812361704883 -0.052798275444939896 -0.0079513087229030888 -0.038488292031731736 0.039263123806840994 0.0067641135255845815 0.01103175577408627 -0.011723475385620876 0.019661740240431019 0.036477604822867292 0.018140105782143364 0.0017455293048134408 0.038913730716534284 -0.040682514984778151 -0.039129944539158641 0.001615312948671777 -0.026406839237379312 0.051781961140770966 0.0063819922501916725 -0.036934662207692891 0.049329097801973178 -0.025848132438509103 0.043347166661169501 -0.0013020074199536717
leaf_weight=276.88500948250294 2225.1338407248259 684.23105067014694 287.87969242036343 1111.8432045429945 47.976955905556679 350.98905667662621 737.5182419270277 3136.1399914175272 363.23398517072201 1366.5095356702805 352.44623696804047 751.60847888886929 336.04429751634598 238.30413058400154 271.43663249909878 1485.3882633447647 120.61558502912521 892.92366489768028 494.05472259223461 254.72810378670692 285.80540087819099 281.28792437911034 56.944376051425934 821.91352361440659 259.67870262265205 2059.0771850496531 1491.3797387629747 985.01517471671104 642.80977860093117 1423.2394688129425
leaf_count=978 3896 3790 1637 4339 241 1591 2522 19371 1499 7627 894 2814 1236 1060 893 3753 412 3590 1244 1440 1558 1071 286 1615 943 11389 3077 4861 1535 5837
internal_value=-1.55099e-06 -0.0139596 -0.0185301 0.0205934 0.00825387 0.00204544 -0.0288728 -0.0362926 0.0419508 -0.00518075 -0.0164132 0.00552809 -0.00447824 0.0225896 -0.0220401 0.0298137 -0.0254085 -0.00959848 0.0140987 -0.0159981 -0.00587961 0.0197542 0.0544721 0.0410838 0.0408299 -0.0339733 0.046641 -0.0164544 0.0306443 -0.00728026
internal_weight=24093 14362.3 13263.5 9730.71 6161.3 4436.88 8826.65 6768.07 3569.41 4362.27 2756.37 1389.86 2058.58 2074.68 3631.93 1723.69 3360.5 1180.8 1605.9 2362.2 1037.41 1287.33 2282.08 1098.8 1799.04 2179.69 1539.36 1321.06 924.098 1677.97
internal_count=96999 65975 63382 31024 22737 17471 45911 37292 8287 18476 12893 5266 8619 6404 17921 4813 17028 5227 5583 11067 4372 4105 4182 2593 4261 11801 3318 6097 2606 7277
cat_boundaries=0 1 2 4 5 7 8
cat_threshold=38933581 75762048 1632683905 1099055104 25960736 1384251568 184748177 4329536
is_linear=0
shrinkage=0.05


Tree=5
num_leaves=31
num_cat=5
split_feature=0 17 6 6 6 18 6 17 6 17 0 3 18 17 18 6 6 18 6 3 6 2 17 17 0 17 13 8 1 9
split_gain=2512.47 1278.24 1057.48 897.241 929.874 655.959 631.736 551.766 338.565 337.361 345.13 326.661 264.338 262.697 229.924 214.862 209.158 199.894 189.837 183.042 167.283 148.974 146.994 143.413 135.731 135.219 134.426 134.127 134.119 178.145
threshold=0 9.5000000000000018 3.5000000000000004 3.5000000000000004 10.500000000000002 0.076750000000000013 10.500000000000002 23.500000000000004 1.5000000000000002 29.500000000000004 1 7.074060967026166 0.039750000000000008 21.500000000000004 0.22250000000000003 11.500000000000002 1.5000000000000002 0.049350000000000005 5.5000000000000009 4.4173925074671834 1.5000000000000002 1.0000000180025095e-35 12.500000000000002 7.5000000000000009 2 36.500000000000007 3 279.24500000000006 4 11.835000000000003
decision_type=9 2 2 2 2 2 2 2 2 2 9 2 2 2 2 2 2 2 2 2 2 2 2 2 9 2 9 2 9 2
left_child=1 23 5 8 9 20 7 14 -2 11 -11 13 25 -5 18 17 -7 -8 21 -18 -3 -4 -20 -1 -6 -10 -23 -17 29 -22
right_child=3 2 6 4 24 16 15 -9 12 10 -12 -13 -14 -15 -16 27 19 -19 22 -21 28 26 -24 -25 -26 -27 -28 -29 -30 -31
leaf_value=0.05384363933086786 0.0093859999232495696 -0.035710320029992977 0.007671413664523662 0.017009628106646153 0.050411321347917593 -0.012081225231470948 -0.00999145973967943 -0.053342032792195439 0.028842833196828316 -0.050335637170073368 0.00010611668081832293 0.032546174671183169 0.057895146088239369 -0.020334973770701273 0.024668629041003982 -0.032241839289931781 -0.011191252797505227 0.028099513696509655 -0.0094628172099826945 0.035840171463720573 -0.037070755024154432 0.0034558480807141178 -0.039789397538360742 0.016853559021443195 0.019964822365822556 -0.048962225721680429 -0.036124593506937995 0.030066634075394196 -0.029536007610097104 0.010798852611889363
leaf_weight=662.28976093232632 677.42259719967842 704.25221347808838 574.94272875785828 790.21332722902298 1080.7683715373278 360.76906533539295 699.30630078911781 2422.3369842916727 610.770358979702 655.61479493975639 701.14700827002525 808.09244166314602 2033.8974509835243 1165.4209626019001 232.16860990226269 670.33924259245396 238.38682672381401 678.70252780616283 486.00257383286953 1565.1938251554966 239.78744378685951 312.95657862722874 2246.7029322236776 433.58122828602791 620.85629713535309 61.461344704031944 698.63566519320011 99.144008189439774 461.50867418944836 1025.7515581399202
leaf_count=1193 2320 3913 2196 2637 2099 1633 3100 15359 1659 3996 2799 2223 3444 5650 718 3552 1061 1950 2245 3909 1346 1263 12846 1405 1884 339 3831 295 2414 3720
internal_value=-1.45635e-06 -0.0127472 -0.0169074 0.0204992 0.00862162 0.00265092 -0.0267617 -0.0340637 0.0409978 -0.00421939 -0.0246386 0.00580475 0.0489111 -0.00524514 -0.0238034 -0.0030491 0.0226721 0.00876926 -0.0264089 0.0296238 -0.015172 -0.0126518 -0.0343959 0.0392085 0.0397162 0.0217292 -0.0242025 -0.0242137 -0.00679694 0.00171523
internal_weight=24018.4 14812.8 13716.9 9205.66 5822.11 4595.65 9121.24 6973.75 3383.55 4120.49 1356.76 2763.73 2706.13 1955.63 4551.41 2147.49 2164.35 1378.01 4319.24 1803.58 2431.3 1586.53 2732.71 1095.87 1701.62 672.232 1011.59 769.483 1727.05 1265.54
internal_count=96999 67949 65351 29050 21288 17996 47355 38458 7762 17305 6795 10510 5442 8287 23099 8897 6603 5050 22381 4970 11393 7290 15091 2598 3983 1998 5094 3847 7480 5066
cat_boundaries=0 1 2 3 6 7
cat_threshold=38933837 75827872 328224 688046098 2265726977 256 2129920
is_linear=0
shrinkage=0.05


Tree=6
num_leaves=31
num_cat=8
split_feature=0 17 6 17 6 6 18 6 17 3 17 6 6 13 18 6 3 6 0 6 9 6 18 1 6 13 0 0 18 13
split_gain=2287.11 1186.51 929.766 884.489 689.659 693.974 537.603 528.923 551.669 336.42 281.136 234.856 213.138 189.006 170.754 170.024 172.016 165.278 160.025 153.908 165.495 148.34 145.797 132.009 131.658 130.562 129.59 123.074 118.881 116.708
threshold=0 9.5000000000000018 3.5000000000000004 32.500000000000007 3.5000000000000004 10.500000000000002 0.074850000000000014 10.500000000000002 21.500000000000004 7.0482448325657661 21.500000000000004 4.5000000000000009 1.5000000000000002 1 0.18210000000000001 1.5000000000000002 4.9785936870898242 10.500000000000002 2 5.5000000000000009 9.6850000000000005 1.5000000000000002 0.039750000000000008 3 7.5000000000000009 4 5 6 0.26940000000000003 7
decision_type=9 2 2 2 2 2 2 2 2 2 2 2 2 9 2 2 2 2 9 2 2 2 2 9 2 9 9 9 2 9
left_child=1 24 6 4 12 9 21 8 14 10 -6 18 -2 -9 19 29 -17 26 -5 20 -4 -3 -14 -7 -1 -21 -13 -15 -10 -8
right_child=3 2 7 11 5 23 15 13 28 -11 -12 17 22 27 -16 16 -18 -19 -20 25 -22 -23 -24 -25 -26 -27 -28 -29 -30 -31
leaf_value=0.0076439845937198315 0.015919168632050892 -0.034580763824542886 -0.04144684405012216 0.035444846384756194 0.014495690661969114 0.048665036994422803 0.024886924692387666 0.011764163544959847 -0.050462165942314667 0.024868651847421007 -0.021914541925521856 -0.012029306934982029 0.028979400183994249 0.017134486644974418 0.018344222364055592 -0.0038327867550520174 0.034782802118621108 0.0045490403037387883 -0.0087891181552316178 0.015538798732725659 0.0022402083224501209 -0.0066880253415337806 0.058532374996646958 0.005060875150134426 0.047607570458137155 -0.033975460168464665 -0.058358406012641466 -0.026388546232713406 0.0025130687548004954 -0.032376881141772007
leaf_weight=276.22095301747322 499.7981688529253 670.19550138711929 286.37391796708107 296.83929412066936 832.39966547489166 1307.7905582487583 135.10709318518639 978.69921714067459 2985.5603957474232 1107.2115244716406 1460.1426796764135 256.61486947536469 539.64208436012268 193.9777794033289 271.0497083812952 365.14194230735302 1372.0359497964382 259.04384809732437 606.11446666717529 141.29057270288467 892.0361014008522 1650.7305268347263 1841.3880190551281 215.61724470555782 811.73045887053013 2024.4829505831003 437.73657505214214 882.43317657709122 109.79724822938442 224.83867183327675
leaf_count=978 1584 3752 1637 768 2839 2554 437 3526 18908 3356 7312 1167 1438 666 893 1503 3407 943 2546 503 3590 7180 2928 764 1615 11298 2825 4427 463 1192
internal_value=-2.13468e-06 -0.0127159 -0.0168662 0.0187742 0.0261726 0.0148025 0.00183693 -0.0262929 -0.0330898 0.00223625 -0.00869434 -0.0122268 0.0456034 -0.00409892 -0.0198246 0.0201856 0.0266661 -0.0295344 0.00604767 -0.0229182 -0.0083765 -0.0147424 0.0518344 0.0428461 0.0374612 -0.0308304 -0.0422501 -0.0184598 -0.0485831 -0.0110908
internal_weight=23932 14271.7 13183.8 9660.34 7803.99 4923.16 4418.05 8765.7 6710.59 3399.75 2292.54 1856.35 2880.83 2055.11 3615.23 2097.12 1737.18 953.395 902.954 3344.18 1178.41 2320.93 2381.03 1523.41 1087.95 2165.77 694.351 1076.41 3095.36 359.946
internal_count=96999 65975 63382 31024 22775 16825 17471 45911 37292 13507 10151 8249 5950 8619 17921 6539 4910 4935 3314 17028 5227 10932 4366 3318 2593 11801 3992 5093 19371 1629
cat_boundaries=0 1 3 4 5 7 8 9 11
cat_threshold=38933581 1632692097 1099055872 16785954 2113536 1384251568 252905617 647170 4198464 134353937 67633159
is_linear=0
shrinkage=0.05


Tree=7
num_leaves=31
num_cat=9
split_feature=0 17 18 17 18 6 6 6 6 6 17 6 6 19 6 6 1 6 13 6 1 9 6 17 13 13 13 0 2 13
split_gain=2073.31 1082.76 835.621 804.002 655.688 423.184 341.835 373.418 264.225 299.97 389.378 198.018 291.235 188.351 179.495 173.171 160.695 154.405 154.396 150.594 146.653 191.835 141.437 138.51 133.953 132.252 130.411 130.094 126.675 116.235
threshold=0 8.5000000000000018 0.089450000000000016 34.500000000000007 0.049850000000000005 3.5000000000000004 3.5000000000000004 10.500000000000002 3.5000000000000004 10.500000000000002 21.500000000000004 4.5000000000000009 10.500000000000002 3.6297000000000001 4.5000000000000009 1.5000000000000002 1 1.5000000000000002 2 5.5000000000000009 3 11.835000000000003 7.5000000000000009 23.500000000000004 4 5 6 7 1.0000000180025095e-35 8
decision_type=9 2 2 2 2 2 2 2 2 2 2 2 2 2 2 2 9 2 9 2 9 2 2 2 9 9 9 9 2 9
left_child=1 -1 8 4 11 18 17 19 15 10 24 -2 -13 -7 27 29 -15 -6 -4 -8 21 -17 23 28 -10 -24 -21 -5 -18 -3
right_child=3 2 5 14 6 13 7 -9 9 -11 -12 12 -14 16 -16 20 22 -19 -20 26 -22 -23 25 -25 -26 -27 -28 -29 -30 -31
leaf_value=0.040840190119919413 0.022981415044225267 0.0062369910118056596 0.030623829605127773 0.032438940483586386 0.018400896528844909 0.017144277158206038 0.025889687046331596 0.049678237406054863 -0.0050193825220604636 -0.010275659605245811 -0.051271826197582276 -0.014488249559674583 0.024594324086106685 0.035962256716601797 -0.03846224634286112 -0.032488572602857646 0.011072440097794423 0.055970674931648715 -0.0029569449708953884 0.014501908360561908 -0.026364787477881631 0.013990359856414858 0.02001160259886587 -0.056284719653202656 -0.029980743985453712 -0.022297408109466274 -0.021137994654532376 -0.016346047096511395 -0.03323471596174446 -0.041454133636241529
leaf_weight=903.27029101550579 1195.8832387924194 166.43559581041336 1260.0032747387886 194.21187937259674 322.57685984671116 492.5988512635231 912.60751523077488 934.97858266532421 768.31715759634972 1507.4604150354862 2219.6858659982681 1523.6899724155664 693.67949342727661 124.6783698797226 630.56761106848717 274.7733787894249 233.0871140062809 1796.7463933825493 474.05516320466995 541.84181833267212 491.86041693389416 1155.9109003841877 318.26690064370632 389.54875023663044 1915.5684830993414 413.21123284101486 470.11635895073414 403.08433568477631 523.91398583352566 587.30052736401558
leaf_count=1977 3514 704 3413 509 987 1778 2859 1780 3429 6703 14408 6991 1925 372 3537 1509 879 2919 1847 1925 2527 4006 1081 2611 10364 2048 2263 1815 2850 3469
internal_value=-2.04848e-06 -0.012127 -0.0157288 0.0179146 0.0234623 0.0026305 0.0350341 0.0237553 -0.0242735 -0.0297821 -0.0357788 0.0065826 -0.0022617 -0.0105541 -0.0198564 -0.0110777 -0.017367 0.0502523 0.0216031 0.0111616 -0.00311401 0.00502859 -0.0209871 -0.0320587 -0.0229655 -0.00391996 -0.00212058 -0.000214096 -0.0195922 -0.0313905
internal_weight=23839.9 14219.9 13316.7 9619.98 8392.12 4229.36 4978.87 2859.54 9087.31 6411.03 4903.57 3413.25 2217.37 2495.31 1227.86 2676.28 2002.71 2119.32 1734.06 1924.57 1922.54 1430.68 1878.03 1146.55 2683.89 731.478 1011.96 597.296 757.001 753.736
internal_count=96999 65975 63998 31024 25163 16879 12733 8827 47119 34904 28201 12430 8916 11619 5861 12215 9841 3906 5260 7047 8042 5515 9469 6340 13793 3129 4188 2324 3729 4173
cat_boundaries=0 1 2 5 6 9 11 14 15 18
cat_threshold=38933581 524352 134379265 2415927302 521 2129920 1866598321 1292832897 384 1211147281 2425511940 153105944 2499829760 161 16785442 2160200712 2214608904 160
is_linear=0
shrinkage=0.05


Tree=8
num_leaves=31
num_cat=6
split_feature=0 17 6 17 18 6 17 18 6 6 6 18 17 0 18 6 3 6 6 17 1 6 6 6 17 0 13 8 6 0
split_gain=1897.68 936.612 914.165 701.722 496.315 486.26 476.447 457.436 224.773 253.591 220.2 196.004 176.94 186.27 174.996 173.722 173.334 167.416 146.165 186.47 145.904 146.269 144.946 307.3 131.687 151.456 129.07 126.717 126.165 125.776
threshold=0 8.5000000000000018 3.5000000000000004 34.500000000000007 0.052650000000000009 10.500000000000002 23.500000000000004 0.074850000000000014 3.5000000000000004 10.500000000000002 11.500000000000002 0.060250000000000005 32.500000000000007 1 0.12965000000000002 1.5000000000000002 4.9785936870898242 4.5000000000000009 5.5000000000000009 12.500000000000002 2 1.5000000000000002 4.5000000000000009 10.500000000000002 21.500000000000004 3 4 279.24500000000006 5.5000000000000009 5
decision_type=9 2 2 2 2 2 2 2 2 2 2 2 2 9 2 2 2 2 2 2 9 2 2 2 2 9 9 2 2 9
left_child=1 -1 7 4 22 6 14 12 -6 28 11 -7 13 -3 18 -9 -17 -5 -4 -20 -15 -22 -2 24 -24 -26 -21 -12 -10 -8
right_child=3 2 5 17 8 10 29 15 9 -11 27 -13 -14 20 -16 16 -18 -19 19 26 21 -23 23 -25 25 -27 -28 -29 -30 -31
leaf_value=0.039161431087329349 0.025160521400778565 0.0251558433371326 -0.010133118144005963 0.002744014940497184 0.050793305726912541 -0.0060034777192578452 -0.053928978837774401 -0.0095935596994844632 0.03021516596031841 0.050770488750588184 -0.030579438452711299 0.030893048496296177 -0.044265198432579443 0.0383182613350957 0.003862210034489152 -0.004293897885138653 0.033873190377902866 -0.035583432646270917 -0.0045008166831401542 0.026946258024060893 -0.03991430023663925 -0.0070807982488966612 0.013651242069209969 0.030088323409795493 0.0034230879753009884 -0.037652362756263331 -0.038772956000036156 0.028208560387210244 0.001684208992127205 -0.029472089518852197
leaf_weight=904.68933749198914 1044.9803477227688 407.3972397595644 1439.8375370502472 558.62377254664898 1702.4571761488914 855.34431684017181 1678.7574033141136 400.492307305336 741.8480920791626 746.73434916138649 704.01562695205212 621.46462264657021 330.7127138376236 126.40061065554619 708.08173766732216 367.54785044491291 1560.2482246607542 581.49837669730186 574.10398280620575 74.097216889262199 458.83465442061424 1300.9511653035879 363.00406232476234 653.18430306017399 371.2789316624403 569.29015496373177 2080.9929846525192 105.38455474376678 811.1510706692934 908.40830534696579
leaf_count=1993 2939 1222 6631 2113 3006 3655 11314 1778 2142 1339 3728 1685 1938 346 2832 1512 3796 3243 2556 240 2710 5703 1240 1659 1414 3183 12306 312 3212 5252
internal_value=-2.36e-06 -0.0102101 -0.0132549 0.0195488 0.0254944 -0.0221404 -0.0283199 0.00423858 0.0370214 0.0268263 -0.00196472 0.00952317 -0.0100744 -0.00514445 -0.0191193 0.0203713 0.0265964 -0.0168042 -0.0230226 -0.0298227 -0.01176 -0.0155532 0.0101256 0.00209642 -0.0119295 -0.0218022 -0.0365682 -0.0229252 0.0153131 -0.045664
internal_weight=23751.8 15607.8 14703.1 8144.05 7003.93 9750.49 7464.28 4952.58 4002.19 2299.73 2286.21 1476.81 2624.3 2293.58 4877.11 2328.29 1927.8 1140.12 4169.03 2729.19 1886.19 1759.79 3001.74 1956.76 1303.57 940.569 2155.09 809.4 1553 2587.17
internal_count=96999 71509 69516 25490 20134 50511 41131 19005 9699 6693 9380 5340 11919 9981 24565 7086 5308 5356 21733 15102 8759 8413 10435 7496 5837 4597 12546 4040 5354 16566
cat_boundaries=0 1 2 3 4 6 7
cat_threshold=47322445 12587008 32768 16835090 1073872928 184549432 34735168
is_linear=0
shrinkage=0.05


Tree=9
num_leaves=31
num_cat=8
split_feature=0 17 18 17 18 6 6 6 17 6 6 17 3 6 17 2 13 6 1 0 0 13 11 13 6 19 6 13 17 6
split_gain=1721 861.36 791.898 636.874 453.738 356.286 303.864 259.178 339.658 209.218 233.999 189.966 200.727 177.562 188.576 204.584 177.251 151.847 138.437 135.404 126.565 139.477 126.149 120.799 118.599 118.183 114.13 107.296 103.831 102.286
threshold=0 7.5000000000000009 0.089450000000000016 34.500000000000007 0.052650000000000009 3.5000000000000004 3.5000000000000004 10.500000000000002 18.500000000000004 3.5000000000000004 10.500000000000002 33.500000000000007 4.5141886747103612 6.5000000000000009 26.500000000000004 1.0000000180025095e-35 1 4.5000000000000009 2 3 4 5 9.7960414649141399 6 1.5000000000000002 3.5456500000000006 5.5000000000000009 7 11.500000000000002 5.5000000000000009
decision_type=9 2 2 2 2 2 2 2 2 2 2 2 2 2 2 2 9 2 9 9 9 9 2 9 2 2 2 9 2 2
left_child=1 -1 6 4 19 23 11 8 27 24 26 12 -3 14 15 29 -15 -5 -14 -2 21 -10 -9 -4 -6 -17 -11 -8 -29 -7
right_child=3 2 5 17 9 13 7 22 20 10 -12 -13 18 16 -16 25 -18 -19 -20 -21 -22 -23 -24 -25 -26 -27 -28 28 -30 -31
leaf_value=0.046762063682368279 0.035122580544747227 -0.031751828981963895 0.029233515578762154 0.0026071595956999923 0.016511099735895665 0.02694784492218058 0.00055799142735833533 -0.017654443338192004 -0.0042937365893650223 0.028746239285293785 0.048739558360485956 -0.045227451103386163 0.010496049512020761 0.018076370710193287 -0.051034112514426744 0.017833786430344348 -0.018830773722132248 -0.033927652028732019 -0.018513003258344204 0.0051567027267559289 -0.046884751764102429 -0.042945168750440216 0.012103189610065467 0.0013732643704330641 0.054253374648051356 -0.037341149491845381 0.0016000091894982867 -0.0028928790499914998 -0.032594308662022287 -0.060191059017252628
leaf_weight=646.28847855329514 434.66869407892227 488.4942169636488 1361.7466535270214 558.55168870091438 243.29718522727489 368.76877507567406 724.41692177951336 1144.6065185368061 461.58472615480423 740.79480841755867 739.15137168765068 290.52480773627758 1716.4315553158522 953.75191520154476 351.84339900314808 120.36946475505829 482.14922523498535 579.43607699871063 530.40918050706387 2558.0622509419918 2428.1006015092134 484.25967036187649 517.01352767646313 555.9733119904995 1440.5714976638556 501.04168501496315 811.14610534906387 425.38876858353615 954.46660901606083 37.061252668499947
leaf_count=1200 1099 2664 3645 2113 734 1221 3117 5401 2259 2142 1339 1732 6316 3368 2343 417 2357 3243 2601 9336 15658 3010 1873 2053 2272 2857 3212 1787 5378 252
internal_value=-3.56997e-06 -0.00974203 -0.0121997 0.0186614 0.0243484 0.00469493 -0.0200651 -0.0256927 -0.0309392 0.0354197 0.0255855 -0.00678623 -0.00270331 -0.00662827 -0.0194419 -0.00862121 0.00567838 -0.0159955 0.00361223 0.00964358 -0.0407715 -0.024325 -0.00839535 0.021316 0.0488001 -0.0266536 0.0145578 -0.0151744 -0.0232692 0.0189901
internal_weight=23650.4 15544.7 14898.4 8105.68 6967.69 4732.71 10165.7 7139.84 5478.22 3974.96 2291.09 3025.86 2735.33 2814.99 1379.08 1027.24 1435.9 1137.99 2246.84 2992.73 3373.94 945.844 1661.62 1917.72 1683.87 621.411 1551.94 2104.27 1379.86 405.83
internal_count=96999 71509 70309 25490 20134 18513 51796 38483 31209 9699 6693 13313 11581 12815 7090 4747 5725 5356 8917 10435 20927 5269 7274 5698 3006 3274 5354 10282 7165 1473
cat_boundaries=0 1 4 5 6 7 10 13 16
cat_threshold=47322445 1478521873 2475843844 512 2654224 16843298 12583241 2954903809 1367499273 40 134248193 2415927302 521 3976340661 227233793 132
is_linear=0
shrinkage=0.05


Tree=10
num_leaves=31
num_cat=10
split_feature=0 17 17 6 6 17 6 3 0 17 18 18 13 19 0 13 9 6 6 13 17 6 13 6 13 6 6 1 13 6
split_gain=1577.49 878.309 719.072 615.036 661.112 599.229 533.518 335.863 288.037 276.73 209.553 190.646 146.206 141.597 134.414 129.119 116.723 114.545 194.101 125.54 112.731 154.111 109.627 107.001 106.102 106.001 102.062 108.182 101.295 100.033
threshold=0 9.5000000000000018 34.500000000000007 3.5000000000000004 10.500000000000002 24.500000000000004 3.5000000000000004 5.1647593344635547 1 23.500000000000004 0.22250000000000003 0.068250000000000019 2 3.653 3 4 14.085000000000003 10.500000000000002 3.5000000000000004 5 11.500000000000002 5.5000000000000009 6 1.5000000000000002 7 7.5000000000000009 1.5000000000000002 8 9 4.5000000000000009
decision_type=9 2 2 2 2 2 2 2 9 2 2 2 9 2 9 9 2 2 2 9 2 2 9 2 9 2 2 9 9 2
left_child=1 25 3 11 8 6 7 15 -5 20 12 -2 -8 24 22 -3 -6 18 -15 -19 -10 -22 -4 -13 -7 -1 -9 -28 -23 -16
right_child=2 5 14 4 16 13 10 26 9 -11 -12 23 -14 17 29 -17 -18 19 -20 -21 21 28 -24 -25 -26 -27 27 -29 -30 -31
leaf_value=0.0051235952231803161 0.023287524296318862 0.010274376177720271 0.009067289283435356 0.019300392328418028 -0.073402062639810653 0.010294451634143853 -0.0027657041455873615 -0.0086587542816537015 0.049261271858334878 -0.024598634119346041 0.024294804224702093 0.01699998731361586 -0.023461851039377965 -0.026839119481733127 0.019452311891809914 -0.026681874443044928 0.036353403605304965 0.0065246889481837813 -0.056263825524590194 -0.038515810760331518 0.025048482211380591 0.0042175582756781007 -0.041155912134287216 0.051901401009255881 -0.032343970522427705 0.04132458826448461 0.034692804916411732 -0.0022468497794843174 -0.030140812617032386 -0.021639486366262551
leaf_weight=273.12386268377304 1567.6787173449993 374.88978731632233 132.01862373948097 1181.8031798005104 24.561115860939026 296.94888979196548 1080.7639589607716 210.11039797961712 135.71138659119606 1533.9300114661455 289.6804828196764 255.1385402828455 4307.7624401450157 1021.1898283213377 294.81726659834385 618.719437032938 1764.8186867237091 278.94481092691422 1242.227379783988 338.87505866587162 451.51101471483707 486.32526731491089 659.74746909737587 1576.7484095096588 272.36239182949066 778.84743431210518 1195.0430053025484 244.41610036790371 374.09537369012833 297.61880376935005
leaf_count=971 4427 1434 525 3711 152 1189 4823 989 285 8309 885 787 22956 5228 915 3183 4081 1093 8812 1895 1377 1936 3862 2589 1543 1598 2985 1010 1932 1517
internal_value=-3.97561e-06 -0.011838 0.0141286 0.0191199 0.00943014 -0.0157589 -0.00849465 0.0100616 -0.00149374 -0.00976786 -0.0171325 0.036087 -0.0193595 -0.0332773 -0.0194927 -0.0129034 0.0348469 -0.0377797 -0.0429882 -0.0186979 0.00587943 0.00139184 -0.0327731 0.0470405 -0.0104914 0.0319257 0.0238944 0.028646 -0.0110221 -0.00117098
internal_weight=23560.4 12823.9 10736.5 9352.32 5952.76 11771.9 8321.39 2643.18 4163.38 2981.57 5678.21 3399.57 5388.53 3450.55 1384.2 993.609 1789.38 2881.24 2263.42 617.82 1447.64 1311.93 791.766 1831.89 569.311 1051.97 1649.57 1439.46 860.421 592.436
internal_count=96999 60594 36405 29586 21783 58025 38265 9601 17550 13839 28664 7803 27779 19760 6819 4617 4233 17028 14040 2988 5530 5245 4387 3376 2732 2569 4984 3995 3868 2432
cat_boundaries=0 1 2 5 6 9 11 14 17 18 21
cat_threshold=34739277 17424914 1972078001 261425593 256 80021904 6428673 85983234 865 1616930313 3238150656 1082130832 1359101952 1 2149597193 2160091137 9 2129984 3242218776 277356546 32
is_linear=0
shrinkage=0.05


Tree=11
num_leaves=31
num_cat=8
split_feature=0 17 17 17 6 6 18 0 17 2 6 6 6 9 19 18 19 3 6 9 17 17 6 9 0 13 13 13 13 1
split_gain=1433.13 871.413 694.459 589.271 588.643 624.682 456.406 268.176 250.887 230.054 188.248 185.968 168.42 154.916 153.802 152.976 144.302 138.126 125.571 105.625 103.755 103.38 139.06 102.974 101.828 99.4152 92.4798 91.1389 90.5877 88.2631
threshold=0 24.500000000000004 34.500000000000007 7.5000000000000009 3.5000000000000004 10.500000000000002 0.087950000000000014 1 23.500000000000004 1.0000000180025095e-35 5.5000000000000009 1.5000000000000002 7.5000000000000009 11.735000000000001 3.5456500000000006 0.039350000000000003 3.6939500000000005 7.5702474653387819 5.5000000000000009 14.085000000000003 29.500000000000004 11.500000000000002 5.5000000000000009 7.8750000000000009 2 3 4 5 6 7
decision_type=9 2 2 2 2 2 2 9 2 2 2 2 2 2 2 2 2 2 2 2 2 2 2 2 9 9 9 9 9 9
left_child=1 3 4 -1 11 7 10 -6 21 18 13 -2 -12 -5 -11 -13 28 -4 -8 -7 -18 -9 -23 -16 -21 -20 -14 -24 -3 -15
right_child=2 16 17 6 5 19 9 8 -10 14 12 15 26 29 23 -17 20 -19 25 24 -22 22 27 -25 -26 -27 -28 -29 -30 -31
leaf_value=0.043237561098640881 0.010311456092667454 0.0056788975846735817 -0.031426870642033269 -0.026062082201925508 0.018370879148593915 -0.069325526441526328 0.039808340368251496 0.047030162486643594 -0.023384490894055362 0.030778727299521726 -0.039996244701420568 0.019335421765331449 0.0080313882982000432 0.040715869520377306 -0.042605999343359187 0.046782087438022285 -0.03148775878292781 0.00080495945417217237 0.027218019699634541 0.043064759298044819 -0.052158014116883061 0.023580598646592482 0.0034997260457916637 -0.0029678344863099211 0.016574087197457201 -0.027222549180802809 -0.019973877545875433 -0.029084884687191753 -0.033887497535039578 -0.0010433072314504942
leaf_weight=622.81079132854939 636.93224504590034 339.4681349620223 886.48551428318024 667.00387911498547 1180.0695926696062 24.701119422912598 706.14222419261932 135.05846697092056 1587.8692377209663 312.8549131155014 1035.4658260196447 666.35558158159256 351.2673649340868 126.07742337882519 185.23887647688389 2131.8787285387516 1726.5968352258205 531.78120970726013 169.76835818588734 1202.8158896714449 936.32205080240965 451.92940826714039 498.10841044783592 1418.8315971940756 579.88133701682091 147.26317006349564 1787.1959880590439 367.77573762834072 241.43083123862743 1803.0029227882624
leaf_count=1184 2140 1420 4891 3597 3711 152 1678 285 8667 894 6342 1968 1433 319 1065 3858 9937 2168 547 2451 6182 1384 1992 5931 1717 784 9278 1910 1397 7717
internal_value=-5.46194e-06 -0.0114968 0.0132743 -0.0037467 0.0181764 0.00876286 -0.00710627 -0.00176971 -0.00961479 0.0089277 -0.0152764 0.0346958 -0.0234442 -0.00529047 -0.00129054 0.0402461 -0.0338302 -0.0193415 0.0280717 0.0333595 -0.0387557 0.00536817 0.00109837 -0.00754527 0.0347823 0.00192988 -0.0154295 -0.0106357 -0.0112511 0.00189157
internal_weight=23458.4 12576.7 10881.6 9332.92 9463.38 6028.21 8710.11 4220.81 3040.74 2940.1 5770.01 3435.17 3173.93 2596.08 1916.93 2798.23 3243.82 1418.27 1023.17 1807.4 2662.92 1452.87 1317.81 1604.07 1782.7 317.032 2138.46 865.884 580.899 1929.08
internal_count=96999 59705 37294 40769 30235 22269 39585 17949 14238 10899 28686 7966 17053 11633 7890 5826 18936 7059 3009 4320 16119 5571 5286 6996 4168 1331 10711 3902 2817 8036
cat_boundaries=0 1 2 3 6 9 12 15 16
cat_threshold=34735181 17424914 4534816 1208013824 24580 8 1729268101 520241161 128 3242218776 1418207234 32 2149597705 2160091139 1 32768
is_linear=0
shrinkage=0.05


Tree=12
num_leaves=31
num_cat=7
split_feature=0 18 17 17 18 17 6 6 1 0 17 6 9 17 19 6 6 1 6 6 17 6 6 13 6 13 13 17 6 6
split_gain=1312.6 687.605 509.423 386.02 362.491 268.743 381.858 234.885 218.456 198.04 247.018 169.544 162.419 155.69 155.1 151.812 181.042 148.897 143.817 302.848 136.133 137.71 179.966 128.02 114.828 113.223 111.38 117.825 110.931 123.74
threshold=0 0.067350000000000007 32.500000000000007 10.500000000000002 0.073450000000000015 7.5000000000000009 3.5000000000000004 7.5000000000000009 1 2 26.500000000000004 1.5000000000000002 10.965000000000002 41.500000000000007 3.5456500000000006 5.5000000000000009 9.5000000000000018 3 10.500000000000002 4.5000000000000009 24.500000000000004 4.5000000000000009 5.5000000000000009 4 3.5000000000000004 5 6 35.500000000000007 8.5000000000000018 5.5000000000000009
decision_type=9 2 2 2 2 2 2 2 9 9 2 2 2 2 2 2 2 9 2 2 2 2 2 9 2 9 9 2 2 2
left_child=1 3 4 -1 17 -3 11 8 -8 10 15 -7 -13 -4 -10 -5 -17 18 19 -2 21 -16 -23 -9 -6 -24 -11 -28 29 -26
right_child=2 5 13 9 24 6 7 23 14 26 -12 12 -14 -15 20 16 -18 -19 -20 -21 -22 22 25 -25 28 -27 27 -29 -30 -31
leaf_value=0.018733630956002896 0.030765031201197141 0.048255877226825283 -0.0010512873294340969 -0.010108955530123753 0.04906475586772828 -0.010838106034623861 0.057470698454280537 0.022215853582778066 0.011066633233898004 0.012034769188793319 -0.044762779885482919 -0.020238589310304825 0.027249734633275902 -0.041604011611791759 -0.048958531234784219 -0.038694124942510469 -0.012254780362125905 -0.0082727169468631862 0.037656026992411926 -0.0055376544348059694 -0.04852467176916285 0.0093992418947871446 -0.0016658022479261203 -0.0064621052927315492 0.03338665732215456 -0.050379665395020451 -0.010332245902710353 -0.066219798810225355 0.045658872688191236 -0.003823742230383577
leaf_weight=666.92170261591673 1093.4286537319422 319.59834837913513 1417.495593175292 2124.0767283961177 1151.5112880170345 464.54347833991051 81.574773758649826 689.8057866320014 306.3322220146656 553.97121877223253 1286.6760244071484 199.49956302344799 1847.2587109059095 284.11899615824223 296.36300045996904 1599.9477669522166 1087.5953222289681 676.86984440684319 693.94725833833218 1210.5060223340988 539.40322018414736 550.93772111088037 204.4011652097106 871.51240605860949 514.32825672626495 304.57484221458435 1274.1427814885974 101.84638899564743 550.65910447388887 395.00619551539421
leaf_count=2054 2692 543 5821 10124 1906 2125 167 2263 1213 2227 8295 951 4875 1645 1814 10070 5280 2739 1468 5171 3776 2162 948 3892 1364 1953 6053 724 1064 1620
internal_value=-3.2285e-06 -0.00854641 0.0164265 -0.0178182 0.0230165 0.00351717 0.00126765 -0.00863675 -0.0188554 -0.0208546 -0.0252614 0.0164317 0.022621 -0.00782239 -0.0218447 -0.0200991 -0.0279946 0.0128948 0.0176427 0.0116913 -0.0272782 -0.0188283 -0.0104036 0.006309 0.0372591 -0.0318391 -0.00676392 -0.0143645 0.0279479 0.0172228
internal_weight=23358.9 15371 7987.87 8695.18 6286.26 6675.81 6356.21 3844.91 2283.59 8028.26 6098.3 2511.3 2046.76 1701.61 2202.01 4811.62 2687.54 3674.75 2997.88 2303.93 1895.68 1356.28 1059.91 1561.32 2611.5 508.976 1929.96 1375.99 1459.99 909.334
internal_count=96999 71509 25490 44827 18024 26682 26139 18188 12033 42773 33769 7951 5826 7466 11866 25474 15350 12070 9331 7863 10653 6877 5063 6155 5954 2901 9004 6777 4048 2984
cat_boundaries=0 1 2 3 4 6 9 11
cat_threshold=47322445 64 34735108 2900492 1208140817 26370052 1210069008 2232049672 513 3816833289 1367359489
is_linear=0
shrinkage=0.05


Tree=13
num_leaves=31
num_cat=8
split_feature=0 17 6 6 17 17 0 17 3 6 6 6 19 6 17 0 9 17 13 2 13 0 17 13 18 17 17 18 0 6
split_gain=1192.23 743.009 599.93 683.54 442.956 318.89 371.549 303.619 255.309 311.525 220.81 229.485 199.672 173.166 169.262 157.343 148.718 147.292 144.838 138.201 128.663 124.549 116.634 116.433 112.12 111.008 108.718 105.24 102.211 101.194
threshold=0 21.500000000000004 3.5000000000000004 10.500000000000002 7.5000000000000009 24.500000000000004 1 28.500000000000004 4.5141886747103612 5.5000000000000009 3.5000000000000004 10.500000000000002 3.9688500000000002 10.500000000000002 24.500000000000004 2 14.085000000000003 12.500000000000002 3 1.0000000180025095e-35 4 5 10.500000000000002 6 0.018950000000000005 33.500000000000007 8.5000000000000018 0.068250000000000019 7 4.5000000000000009
decision_type=9 2 2 2 2 2 9 2 2 2 2 2 2 2 2 9 2 2 9 2 9 9 2 9 2 2 2 2 9 2
left_child=1 4 7 5 -1 15 29 16 12 19 14 23 -6 17 -3 26 -2 -11 -13 -10 -19 -9 -14 -12 -23 -8 -4 -18 -5 -7
right_child=2 10 3 28 8 6 25 21 9 13 11 18 22 -15 -16 -17 27 20 -20 -21 -22 24 -24 -25 -26 -27 -28 -29 -30 -31
leaf_value=0.040318833761627634 -0.052588371301678261 0.0071026869188201436 0.058927873401915354 0.035966953092158069 0.0075153386820456282 0.032997490403529783 -0.023310491385035784 -0.014821526326966769 0.034152964435254431 0.008357084221834352 -0.0083421183942342953 0.010619048081182058 0.001640647081381826 0.015367895580846459 -0.023991730124454477 0.02863750802979205 0.027545116819922329 -0.0015081245039922373 -0.029767074239243005 0.0071399438478108208 -0.04012896043376623 -0.0099545993300286795 -0.030770360418211452 -0.046204782909271928 0.026529123678184982 -0.050562524791042777 -0.0036628077345049539 0.048580045817814277 0.012218998895348809 -0.0024912256874851982
leaf_weight=607.61205649375916 44.491182252764702 711.87860864400864 72.760028339922428 1299.373885422945 633.38860321044922 266.54179035127163 1386.8346602171659 381.74076613783836 759.56989862024784 350.26228646934032 246.83774778991938 389.39217430353165 338.4498820155859 467.67629393935204 1136.1614414155483 633.56014800071716 1032.6251698806882 314.31554305553436 499.10139670968056 1257.1164020299911 743.80577008426189 275.2179241925478 1543.228148534894 2003.46469976753 896.67623166739941 511.5008901655674 1492.7155907079577 1401.8400874137878 747.08716660737991 815.26490756869316
leaf_count=1180 257 2644 116 2957 2531 669 7723 1618 2019 1370 1373 1475 1338 1655 5874 1724 2651 1485 2696 4767 4667 1172 8659 13873 2497 3457 6448 2338 2404 3362
internal_value=-2.25181e-06 -0.0109612 0.0116803 0.00306806 -0.000481645 -0.0065988 -0.0172563 0.0271408 -0.00435049 0.00367173 -0.0257257 -0.0337988 -0.0167671 -0.0109933 -0.0120139 0.00784436 0.0380021 -0.019747 -0.0122829 0.0173142 -0.0290501 0.00981064 -0.0249407 -0.042294 0.017809 -0.0304928 -0.00074894 0.0396577 0.0275329 0.00619542
internal_weight=23260.5 12002.3 11258.2 7225.64 7015.42 5179.18 2980.14 4032.59 6407.81 3892.75 4986.84 3138.8 2515.07 1876.06 1848.04 2199.04 2478.96 1408.38 888.494 2016.69 1058.12 1553.63 1881.68 2250.3 1171.89 1898.34 1565.48 2434.47 2046.46 1081.81
internal_count=96999 57606 39393 28860 29671 23499 15211 10533 28491 15963 27935 19417 12528 9177 8518 8288 5246 7522 4171 6786 6152 5287 9997 15246 3669 11180 6564 4989 5361 4031
cat_boundaries=0 1 2 3 6 9 10 13 14
cat_threshold=34735117 17424402 13381952 1616930305 3242344704 1 1681921408 1259481233 128 17353168 304611718 3473228072 98 21303840
is_linear=0
shrinkage=0.05


Tree=14
num_leaves=31
num_cat=7
split_feature=0 18 17 17 18 17 6 6 0 17 6 1 17 6 1 6 6 6 9 6 6 6 0 13 3 0 3 6 17 6
split_gain=1095.77 598.932 434.422 323.208 320.82 221.037 338.869 211.708 187.602 219.518 162.604 160.199 143.884 138.233 135.073 133.521 217.715 123.415 125.137 122.753 260.763 109.782 107.053 106.902 104.903 104.169 102.812 98.9695 98.3165 97.6607
threshold=0 0.073450000000000015 32.500000000000007 11.500000000000002 0.073450000000000015 9.5000000000000018 3.5000000000000004 10.500000000000002 1 27.500000000000004 11.500000000000002 2 24.500000000000004 4.5000000000000009 3 5.5000000000000009 9.5000000000000018 1.5000000000000002 10.965000000000002 10.500000000000002 4.5000000000000009 8.5000000000000018 4 5 6.0098925958087568 6 4.2990129817292893 3.5000000000000004 19.500000000000004 8.5000000000000018
decision_type=9 2 2 2 2 2 2 2 9 2 2 9 2 2 9 2 2 2 2 2 2 2 9 9 2 9 2 2 2 2
left_child=1 3 4 -1 14 -3 17 11 -5 15 -9 -8 -13 25 19 26 -17 23 -19 20 -2 22 -15 -7 -22 -4 -10 -6 -26 -29
right_child=2 5 13 8 27 6 7 10 9 -11 -12 12 -14 21 -16 16 -18 18 -20 -21 24 -23 -24 -25 28 -27 -28 29 -30 -31
leaf_value=0.013135520970262625 0.028621904656882521 0.036510235913515411 0.031067192869022743 -0.0044172550079132717 0.045959262899261548 0.016231544477879983 0.047428391676166727 0.032391573744246588 -0.030399740595428194 -0.042325433900099727 -0.013566219682655686 -0.010855460612395357 -0.038072413290770386 0.00042773821204016948 -0.0084569422749461096 -0.037823646595580629 -0.010085168657645855 -0.017846437576490893 0.02567847636826185 0.034942665930835878 -0.033137189028680757 0.0018299260536721541 -0.049082401069836024 -0.033888421493871633 0.042105975971896463 -0.0056989320366729766 -0.0048019653981258327 0.016112684021746829 -0.0039949928199149538 0.042968930288363752
leaf_weight=865.63721711188555 1080.1686075478792 489.68242035061121 285.16726794838905 1767.1378138363361 1117.9077234640718 207.79919403791428 87.422624751925468 471.61996179819107 491.27738706022501 1190.6095755621791 325.16188648343086 1739.9073313847184 673.58897140622139 161.44938610494137 675.25857090950012 1639.729557864368 1244.123841047287 182.65882930159569 1721.7128184214234 681.54174811393023 262.69371175765991 319.08388093113899 378.05413511395454 200.24563145637512 134.88007996976376 550.88794331252575 1946.3642581030726 905.72625508904457 811.18006418645382 540.52533221244812
leaf_count=2942 2692 1081 740 8136 1906 731 213 1217 2813 7802 1543 8410 4562 695 2739 10669 5996 856 4529 1468 1419 1265 2505 1095 319 2261 8914 2984 3433 1064
internal_value=-3.30614e-06 -0.00783551 0.0150927 -0.0159347 0.0212351 0.0042941 0.00148209 -0.00880819 -0.0189742 -0.0228825 0.0136365 -0.015959 -0.0183754 -0.00732652 0.0117041 -0.0185754 -0.025857 0.0161569 0.0215038 0.0162609 0.0107693 -0.0214182 -0.0351681 -0.00879726 -0.00518413 0.00714493 -0.00996089 0.0347863 0.00257764 0.02615
internal_weight=23149.2 15244.7 7904.52 9144.88 6209.88 6099.8 5610.12 3297.7 8279.24 6512.1 796.782 2500.92 2413.5 1694.64 3645.72 5321.5 2883.85 2312.42 1904.37 2970.46 2288.92 858.587 539.504 408.045 1208.75 836.055 2437.64 2564.16 946.06 1446.25
internal_count=96999 71509 25490 47272 18024 24237 23156 15945 44330 36194 2760 13185 12972 7466 12070 28392 16665 7211 5385 9331 7863 4465 3200 1826 5171 3001 11727 5954 3752 4048
cat_boundaries=0 1 2 3 4 5 8 9
cat_threshold=47322445 12587081 64 2900492 638978 134353941 2214592519 640 17309730
is_linear=0
shrinkage=0.05


Tree=15
num_leaves=31
num_cat=9
split_feature=0 17 17 18 6 6 6 17 0 1 9 3 17 19 1 13 13 6 6 17 6 9 13 9 6 13 6 6 0 9
split_gain=997.329 550.855 484.601 445.184 329.893 279.132 213.977 211.743 208.22 165.185 153.816 142.799 171.809 135.284 134.158 133.645 123.737 123.69 201.261 188.169 152.681 133.605 131.206 120.587 115.786 109.39 107.473 266.088 140.582 104.335
threshold=0 9.5000000000000018 27.500000000000004 0.089450000000000016 4.5000000000000009 10.500000000000002 3.5000000000000004 40.500000000000007 1 2 14.085000000000003 7.0250375699127918 14.500000000000002 3.6297000000000001 3 4 5 3.5000000000000004 10.500000000000002 18.500000000000004 1.5000000000000002 11.835000000000003 6 14.085000000000003 5.5000000000000009 7 4.5000000000000009 8.5000000000000018 8 13.375000000000002
decision_type=9 2 2 2 2 2 2 2 9 9 2 2 2 2 9 9 9 2 2 2 2 2 9 2 2 9 2 2 9 2
left_child=1 -1 4 9 10 11 16 8 -4 17 -2 12 -6 -8 -15 -11 -5 20 19 22 -3 -22 -19 -7 -14 -16 -10 28 -28 -20
right_child=2 3 7 6 5 23 13 -9 26 15 -12 -13 24 14 25 -17 -18 18 29 -21 21 -23 -24 -25 -26 -27 27 -29 -30 -31
leaf_value=0.026692355635983819 -0.048633099514244535 -0.025874768658005233 -0.021238907640761511 0.024031426010597972 0.034399764850241814 -0.090181333548389989 0.016298716828218734 -0.036650334454556892 0.019161814826643312 -0.039512560332876284 0.038840299693479366 0.024169310128738724 0.012001097178185717 0.035451382103683461 0.0059533200735783602 -0.012856228390582022 -0.0062931416984598962 0.0093963086327132888 -0.022414676089367726 -0.034809588894641162 -0.026549654360502217 0.012687312128891398 -0.021685591840126885 0.036283998918286195 -0.021580833007627975 -0.023689564298877384 0.0166695756923077 0.020933495622259213 -0.033534948251265038 0.0094439291311202433
leaf_weight=1026.9566605687141 51.414090260863304 541.83037996292114 696.591014765203 1231.2097986340523 224.01412974298 19.227735191583633 479.8967949077487 370.03693660348654 1375.9699606597424 1347.3972578570247 2231.6400695666671 517.51953460276127 346.05372713506222 122.77285432815552 403.34317564219236 770.14938051253557 461.70794214308262 510.96030582487583 374.99538587033749 1919.3137989491224 267.14073343575001 1154.9019051790237 986.21137328445911 958.0851307362318 993.79665230214596 1363.9351658076048 181.07937021553516 740.61502286791801 558.31794365495443 816.65391226112843
leaf_count=2593 288 3079 3420 3426 578 132 1765 2145 4084 8584 4611 1509 1235 372 1727 4147 1834 2201 1902 12565 1507 4052 5496 2021 4984 7564 628 2198 3191 3161
internal_value=-2.98557e-06 -0.00852994 0.0126751 -0.0113731 0.0224882 0.0117532 0.00228928 -0.000655879 0.00309331 -0.017761 0.0368704 0.001403 -0.0061309 -0.0074088 -0.0134283 -0.0299237 0.0158658 -0.0137757 -0.0182746 -0.0244458 -0.00328923 0.00531637 -0.0111599 0.0337959 -0.0129074 -0.0169288 0.00907069 -0.000249754 -0.0214679 -0.000581529
internal_weight=23043.7 13779.4 9264.36 12752.4 5341.75 3058.7 4062.87 3922.61 3552.57 8689.55 2283.05 2081.38 1563.86 2369.95 1890.05 2117.55 1692.92 6572.01 4608.13 3416.49 1963.87 1422.04 1497.17 977.313 1339.85 1767.28 2855.98 1480.01 739.397 1191.65
internal_count=96999 65975 31024 63382 15358 10459 16688 15666 13521 46694 4899 8306 6797 11428 9663 12731 5260 33963 25325 20262 8638 5559 7697 2153 6219 9291 10101 6017 3819 5063
cat_boundaries=0 1 2 3 4 7 10 13 16 17
cat_threshold=38933581 75565440 2130198 524352 2351970307 2417647750 137 134379265 2415927302 585 3980533937 92930052 128 2024317969 51667348 2 49154
is_linear=0
shrinkage=0.05


Tree=16
num_leaves=31
num_cat=7
split_feature=0 17 18 17 17 18 17 2 6 6 3 18 17 6 13 1 17 17 13 6 6 17 13 6 9 13 6 6 6 1
split_gain=920.8 627.013 502.627 370.797 323.348 253.244 242.061 166.45 165.171 174.397 150.251 145.405 126.678 120.179 117.104 116.309 114.738 110.773 109.126 104.186 150.83 103.369 102.683 91.2834 110.41 99.6513 90.8745 100.113 90.1038 89.1292
threshold=0 22.500000000000004 0.051850000000000007 7.5000000000000009 28.500000000000004 0.089450000000000016 36.500000000000007 1.0000000180025095e-35 3.5000000000000004 8.5000000000000018 7.439302844238493 0.20030000000000003 41.500000000000007 5.5000000000000009 1 2 14.500000000000002 29.500000000000004 3 4.5000000000000009 8.5000000000000018 19.500000000000004 4 5.5000000000000009 9.6850000000000005 5 3.5000000000000004 10.500000000000002 5.5000000000000009 6
decision_type=9 2 2 2 2 2 2 2 2 2 2 2 2 2 9 9 2 2 9 2 2 2 9 2 2 9 2 2 2 9
left_child=1 3 6 -1 8 15 10 28 -4 13 17 18 -6 -10 -9 23 -15 19 -3 -2 21 -21 -18 24 -5 -25 -20 -28 -7 -22
right_child=2 11 4 5 12 7 -8 14 9 -11 -12 -13 -14 16 -16 -17 22 -19 26 20 29 -23 -24 25 -26 -27 27 -29 -30 -31
leaf_value=0.036880129041924996 0.015607951153815176 -0.015954433334409299 0.040584187200486371 -0.025837309079243861 0.0084123214493477868 0.042202719667986978 -0.038195022058710379 0.016045718962683732 0.023313505472642698 0.038326796785231682 0.021282340081741503 0.0093638883170556568 -0.033887834405371145 0.037187426721884055 -0.010419048209256574 0.022304171539476756 0.012468754530509754 -0.01920133334819496 -0.021838925276548998 0.0082613308360322737 0.018713747746058478 -0.029064343634326313 -0.030792771703107957 0.0098475783584020121 0.0017781973001062623 -0.022648674823021596 -0.049533707360643303 -0.022041850913091621 0.002090022715187339 -0.012817577750285242
leaf_weight=590.03211287409067 947.32437964528799 1363.2436146140099 1648.0875205695629 477.22626020759344 2067.7387018799782 466.15062670409679 413.47492097318172 708.89049301296473 752.2081087231636 813.56259204447269 809.89484232664108 282.6579437032342 193.56121560186148 128.91914460808039 988.75170160084963 239.89759480953217 213.72162985056639 782.31827345490456 951.46735958009958 253.94704104959965 693.73052450269461 688.06833287328482 360.48258928954601 262.41908454149961 1498.3348252475262 2231.6357602849603 1116.6642047464848 470.74832731485367 200.08911524713039 322.12436881661415
leaf_count=1180 2970 7485 3127 2656 7661 1000 2427 2454 2360 1803 2461 1094 1136 320 4408 872 803 3878 4887 941 2247 3872 1955 1084 6317 12481 8401 2441 846 1432
internal_value=-4.11488e-06 -0.00969196 0.0103463 -0.00120038 0.0198461 -0.00437689 -0.00158422 0.0089768 0.0285372 0.0197865 0.00178165 -0.0252654 0.00479154 0.00942199 0.000665083 -0.0110796 -0.00543928 -0.00250133 -0.0277739 0.0019957 -0.00459066 -0.0190021 -0.0150097 -0.0128925 -0.00489274 -0.0192808 -0.0339238 -0.041381 0.0301558 0.00877331
internal_weight=22937.4 11848.2 11089.2 7663.43 6178.28 7073.4 4910.88 2363.88 3916.98 2268.89 4497.41 4184.78 2261.3 1455.33 1697.64 4709.51 703.123 3687.51 3902.12 2905.19 1957.87 942.015 574.204 4469.62 1975.56 2494.05 2538.88 1587.41 666.24 1015.85
internal_count=96999 57606 39393 33298 19165 32118 20228 8708 10368 7241 17801 24308 8797 5438 6862 23410 3078 15340 23214 11462 8492 4813 2758 22538 8973 13565 15729 10842 1846 3679
cat_boundaries=0 1 4 5 8 11 14 15
cat_threshold=34735117 604153107 1099180304 584 2642056 4066487949 3412082946 98 1226847248 1342201856 32 588384640 84082728 132 2097152
is_linear=0
shrinkage=0.05


Tree=17
num_leaves=31
num_cat=8
split_feature=0 18 18 17 6 6 17 17 17 18 0 17 6 9 1 17 3 11 19 13 13 6 6 1 13 17 2 6 13 6
split_gain=845.896 474.862 337.851 222.332 263.832 255.689 202.709 192.677 183.69 182.464 142.327 179.659 139.909 137.304 126.603 118.256 115.113 113.262 110.877 103.653 102.589 102.209 105.818 87.6451 83.0253 79.8189 135.014 108.18 79.769 79.3877
threshold=0 0.052650000000000009 0.053350000000000009 7.5000000000000009 3.5000000000000004 7.5000000000000009 27.500000000000004 10.500000000000002 36.500000000000007 0.23090000000000002 1 26.500000000000004 1.5000000000000002 11.735000000000001 2 41.500000000000007 7.439302844238493 9.3925368992501728 3.5456500000000006 3 4 5.5000000000000009 9.5000000000000018 5 6 22.500000000000004 1.0000000180025095e-35 5.5000000000000009 7 5.5000000000000009
decision_type=9 2 2 2 2 2 2 2 2 2 9 2 2 2 9 2 2 2 2 9 9 2 2 9 9 2 2 2 9 2
left_child=2 7 8 -3 12 9 23 -2 16 20 11 21 18 -14 -15 -8 28 -7 -5 -11 -6 -9 -23 -4 -12 26 27 -22 -1 -25
right_child=1 3 6 4 5 17 15 10 -10 19 24 -13 13 14 -16 -17 -18 -19 -20 -21 25 22 -24 29 -26 -27 -28 -29 -30 -31
leaf_value=-0.024873370122206574 0.014770747206894613 0.038297265061751462 0.0029562166102519486 0.04109321950771621 0.0042854220738845076 -0.003667755373391294 0.014666464648314302 -0.0073808022631641256 -0.036885326230325477 0.040164206636905994 0.0082353485357124414 -0.038608830273342325 -0.01786842033188615 0.025416056935769721 -0.0082737388025941484 -0.03593459603724572 0.025420151672139936 0.019583207551889536 -0.018346543963683432 -0.015409792488073072 0.024519654558768342 -0.032469595335085658 -0.010740477080133645 0.044975981568434319 -0.015444731740841725 -0.035984939895012551 -0.027777286595650791 -0.028791259160992518 0.0042121495115287301 0.024756292646646107
leaf_weight=257.33940742909908 477.35813549160957 391.33102221041918 221.29010307788849 91.710449755191803 351.87936191260815 1275.6503001600504 1479.2070579007268 1666.964251562953 273.85638007521629 197.27732291817665 696.5879485681653 1241.1798575222492 259.59583078324795 1901.7148633748293 326.6451383382082 125.23919307440519 601.17950680106878 888.64729084819555 542.86517713218927 136.74061022698879 278.47038047015667 1374.2999183014035 945.95204686373472 1269.0231828168035 770.22075014561415 956.6619653403759 928.57570868730545 144.56041779369116 1984.9414538517594 786.20236873626709
leaf_count=1228 1517 753 767 237 1597 5691 4883 7995 1583 514 2861 8234 1271 5032 1304 758 1707 3097 2739 651 880 8986 4715 2281 3792 6426 5208 842 7285 2165
internal_value=-3.94784e-06 -0.00639812 0.0144616 0.00146972 -0.000270617 -0.00721423 0.0243283 -0.01592 0.0022244 -0.0166785 -0.0181082 -0.0219546 0.0112003 0.0165455 0.0205546 0.0107167 0.00599109 0.00587895 -0.00975616 0.0181544 -0.0210522 -0.0168254 -0.0236108 0.0339215 -0.00421944 -0.0248258 -0.017111 0.00630196 0.000781954 0.0370609
internal_weight=22843.2 15844.9 6998.28 8672.33 8280.99 5158.46 3880.96 7172.56 3117.32 2994.17 6695.2 5228.4 3122.53 2487.96 2228.36 1604.45 2843.46 2164.3 634.576 334.018 2660.15 3987.22 2320.25 2276.52 1466.81 2308.27 1351.61 423.031 2242.28 2055.23
internal_count=96999 74342 22657 36242 35489 24906 10854 38100 11803 16118 36583 29930 10583 7607 6336 5641 10220 8788 2976 1165 14953 21696 13701 5213 6653 13356 6930 1722 8513 4446
cat_boundaries=0 1 2 3 6 9 10 13 16
cat_threshold=84239026 34211141 2129984 5632 16384 649 975831056 1157896456 2 32912 3277871493 1350714120 512 1613758465 1078984709 768
is_linear=0
shrinkage=0.05


Tree=18
num_leaves=31
num_cat=10
split_feature=0 17 6 6 17 17 0 17 3 6 19 6 6 6 17 13 9 17 13 13 0 2 0 17 13 18 0 2 13 17
split_gain=771.735 553.155 430.398 510.287 294.028 249.198 307.493 212.751 210.763 222.654 163.646 163.205 185.044 139.421 128.089 127.999 120.324 113.229 135.573 113.085 111.561 110.603 110.288 105.77 103.155 92.1155 87.9586 85.7748 85.1473 84.5912
threshold=0 21.500000000000004 3.5000000000000004 10.500000000000002 7.5000000000000009 23.500000000000004 1 28.500000000000004 4.5141886747103612 5.5000000000000009 3.9688500000000002 3.5000000000000004 10.500000000000002 10.500000000000002 25.500000000000004 2 14.085000000000003 12.500000000000002 3 4 5 1.0000000180025095e-35 6 33.500000000000007 7 0.018950000000000005 8 1.0000000180025095e-35 9 10.500000000000002
decision_type=9 2 2 2 2 2 9 2 2 2 2 2 2 2 2 9 2 2 9 9 9 2 9 2 9 2 9 2 9 2
left_child=1 4 7 5 -1 20 -7 16 10 21 28 14 19 17 -3 -14 -2 -11 -19 -13 -4 -10 -9 -8 -16 -24 27 -5 -6 -12
right_child=2 11 3 26 8 6 23 22 9 13 29 12 15 -15 24 -17 -18 18 -20 -21 -22 -23 25 -25 -26 -27 -28 -29 -30 -31
leaf_value=0.034372579032161614 -0.049256210459571598 0.0035441786172369406 0.0010842512395420436 0.034071186258101134 0.022921592410551039 0.0061146383165214284 -0.01988156435085826 -0.014828954472036091 0.031136083270607406 0.0085397084034436153 0.00088534707563505993 -0.00083732653788654889 0.010597374194639873 0.015500009701377075 -0.0055939436291759653 -0.027279456563112533 0.033887815717100651 -0.0023817739353711519 -0.039447894017450795 -0.040581575484608619 0.028872940478817846 0.0068411189809441291 -0.0092063223486538118 -0.046556823069683916 -0.039112908627529412 0.023979168798422865 0.0094617795092969397 -0.046450391003923362 -0.013872581905956262 -0.026805571146970231
leaf_weight=576.04328247904778 44.34900863468647 888.51171778142452 1388.0202365741134 1223.3983224853873 367.16341602057219 1162.7531800419092 1601.413286447525 378.64903513342142 749.98015444725752 347.69962519407272 337.08381187915802 208.0510670170188 413.27983934432268 466.27870142459869 463.68182194977999 467.27008517831564 2311.4981161355972 427.74742867797613 602.18545627593994 1935.2221442982554 480.26647035777569 1248.0158714354038 273.84618037939072 483.89635755866766 471.29347385466099 884.58676725625992 735.72077315300703 33.992069691419601 262.18278636783361 1516.9337230697274
leaf_count=1180 257 3479 5647 2775 1257 4320 8890 1618 2019 1370 1338 1160 1598 1655 2225 2573 4989 2153 3999 14086 1244 4767 1172 3398 2814 2497 2404 182 1274 8659
internal_value=-3.25278e-06 -0.00891115 0.00950828 0.00219911 0.000173788 -0.00616163 -0.0145306 0.0228811 -0.0029407 0.00439724 -0.0142929 -0.0218641 -0.0289887 -0.00813242 -0.0100497 -0.00969169 0.0323226 -0.0161311 -0.0244599 -0.0369168 0.00838803 0.0159606 0.00841027 -0.0259471 -0.022968 0.0159962 0.0236613 0.0316427 0.00773709 -0.021771
internal_weight=22751 11748.6 11002.4 7109.46 6901.31 5116.35 3248.06 3892.93 6325.27 3841.91 2483.36 4847.31 3023.82 1843.91 1823.49 880.55 2355.85 1377.63 1029.93 2143.27 1868.29 1998 1537.08 2085.31 934.975 1158.43 1993.11 1257.39 629.346 1854.02
internal_count=96999 57606 39393 28860 29671 23499 16608 10533 28491 15963 12528 27935 19417 9177 8518 4171 5246 7522 6152 15246 6891 6786 5287 12288 5039 3669 5361 2957 2531 9997
cat_boundaries=0 1 2 5 8 11 12 13 16 17 20
cat_threshold=34735117 17359378 3764413961 3242344704 1 1681929600 1334978705 128 302514180 3473228072 66 30159200 17353168 3225552392 2151686159 640 21303840 19021329 25182208 520
is_linear=0
shrinkage=0.05


Tree=19
num_leaves=31
num_cat=11
split_feature=18 0 0 17 17 17 17 6 6 6 6 17 19 6 13 17 13 3 17 13 3 13 1 17 13 0 6 13 13 17
split_gain=716.155 429.682 427.685 292.12 209.572 180.366 165.494 219.836 157.516 143.895 199.675 137.494 134.332 121.034 119.233 117.601 110.556 104.046 109.959 99.6749 99.1342 98.7695 97.6748 93.4074 93.0733 89.685 89.6646 90.5331 83.8551 82.9581
threshold=0.073450000000000015 0 1 21.500000000000004 32.500000000000007 28.500000000000004 9.5000000000000018 3.5000000000000004 9.5000000000000018 3.5000000000000004 10.500000000000002 6.5000000000000009 4.0735500000000009 11.500000000000002 2 33.500000000000007 3 6.9012655866903412 18.500000000000004 4 5.1647593344635547 5 6 17.500000000000004 7 8 3.5000000000000004 9 10 30.500000000000004
decision_type=2 9 9 2 2 2 2 2 2 2 2 2 2 2 9 2 9 2 2 9 2 9 9 2 9 9 2 9 9 2
left_child=2 6 3 11 9 -3 -2 15 12 -4 17 -1 14 -10 29 20 -5 18 -11 -14 28 -20 24 -16 -13 -6 -7 -28 -8 -9
right_child=1 5 4 16 25 26 7 8 13 10 -12 22 19 -15 23 -17 -18 -19 21 -21 -22 -23 -24 -25 -26 -27 27 -29 -30 -31
leaf_value=0.03039179823109003 0.031477062802685946 0.034667277856298112 0.02115426923452092 0.0024917795335370331 -0.026690134759789926 0.027332522366180487 0.015263428188287454 0.028123431241332188 0.02536555259112094 0.012802973903787826 0.021365860392029701 -0.019298706967573329 0.010384198086326561 -0.01350030444791833 0.0069195756358677073 -0.038614218252092006 -0.028323204742224491 0.0088185742739455512 -0.0023674972340531012 -0.033846442127086186 0.021421015193393619 -0.031731392193050732 0.021676226085739072 -0.025520074632407554 -0.0030689913830156306 0.00035104598722830374 0.027069234874251436 -0.013586419710104398 -0.023422659014059384 -0.03817360549455287
leaf_weight=244.37208492308855 468.91060199588537 2042.2227280065417 1394.1621898636222 326.34591257572174 717.62080324441195 423.6541827917099 283.56878766417503 347.32359247654676 530.88470620661974 314.65683215856552 942.51328790932894 1607.007941737771 148.7598140463233 321.69509452581406 350.23813203722239 106.83939612656832 3236.0562070533633 788.9445715919137 481.73235877603292 897.22066120803356 1593.8709726706147 732.61020538955927 245.99260486662388 605.61508812010288 1977.224320396781 539.06434120982885 180.85860708355904 475.33347381651402 258.42769982665777 54.603953078389168
leaf_count=533 1080 4611 3806 1608 3993 1084 957 1233 1563 1091 2504 8688 655 1540 1454 557 20184 2933 2241 5585 4406 4181 903 3586 9309 2225 570 2287 1278 354
internal_value=-5.81312e-06 0.0108512 -0.00729017 -0.0150948 0.00281361 0.0258456 0.0029588 0.000532393 -0.00776416 0.00771014 0.00196147 -0.00597092 -0.0143134 0.0107007 -0.00393903 0.0125787 -0.0255728 -0.00592867 -0.0135381 -0.0277802 0.0151395 -0.0203635 -0.00829089 -0.0134926 -0.0103791 -0.0153002 0.00940133 -0.0021755 -0.00333291 0.0186526
internal_weight=22638.3 9090.03 13548.3 7637 5911.3 3122.07 5967.96 5499.05 3256.34 4654.62 3260.46 4074.6 2403.76 852.58 1357.78 2242.71 3562.4 2317.94 1529 1045.98 2135.87 1214.34 3830.22 955.853 3584.23 1256.69 1079.85 656.192 541.996 401.928
internal_count=96999 32800 64199 41225 22974 8552 24248 23168 15970 16756 12950 19433 12867 3103 6627 7198 21792 10446 7513 6240 6641 6422 18900 5040 17997 6218 3941 2857 2235 1587
cat_boundaries=0 1 2 5 8 11 14 15 18 19 22 25
cat_threshold=47371337 35261764 545272848 117440640 8 2457862148 2321612840 34 2013822976 1843473 34 75686156 3318104584 64 2183304 3324534794 2420204288 587 80023696 1210066439 335560709 1 4341249 83894272 577
is_linear=0
shrinkage=0.05


Tree=20
num_leaves=31
num_cat=9
split_feature=18 0 0 17 17 17 17 6 6 19 13 6 6 17 2 17 13 1 19 17 6 13 19 13 17 1 17 19 9 13
split_gain=662.933 463.145 293.945 258.551 192.208 180.356 178.291 230.584 212.232 136.064 123.698 123.026 202.317 119.43 141.828 109.793 106.149 93.3947 91.5494 89.0399 86.5761 97.0703 86.4656 84.3041 81.3878 78.3064 77.2962 74.5706 74.0534 74.0052
threshold=0.052650000000000009 0 1 24.500000000000004 28.500000000000004 36.500000000000007 9.5000000000000018 3.5000000000000004 8.5000000000000018 4.0735500000000009 2 4.5000000000000009 8.5000000000000018 33.500000000000007 1.0000000180025095e-35 10.500000000000002 3 4 3.5456500000000006 41.500000000000007 5.5000000000000009 5 4.0136500000000011 6 7.5000000000000009 7 23.500000000000004 3.6672000000000007 23.215000000000003 8
decision_type=2 9 9 2 2 2 2 2 2 2 9 2 2 2 2 2 9 9 2 2 2 9 2 9 2 9 2 2 2 9
left_child=2 4 3 15 17 11 -3 13 9 10 -9 -4 24 14 25 -1 -10 -2 -12 -6 21 -17 -16 -24 -13 26 -8 -27 -7 -11
right_child=1 6 5 -5 19 28 7 8 16 29 18 12 -14 -15 22 20 -18 -19 -20 -21 -22 -23 23 -25 -26 27 -28 -29 -30 -31
leaf_value=0.013523444147651931 0.032835653473742378 0.026212575203431249 0.016073064411653733 -0.031764161324714164 0.010756584095142383 -0.062877561233974116 0.041347258543709915 0.020501946933626926 0.018367841256692222 0.0010716558038878585 0.013177169291333338 0.071674187416835608 0.010726390087468177 -0.033286937308238687 0.013532793943375733 0.019707355101924607 -0.0097522184515672905 0.0024508601910640552 -0.019249651827313634 -0.033117824532279051 -0.01889142985325468 -0.010189626778251434 -0.04541054587189481 -0.0031217049516582746 -0.020033110816336797 0.03598970848437074 0.016571261077700291 -0.015119356536307072 -0.016145866090357161 -0.030156023739634819
leaf_weight=460.33473214507103 2347.5354448035359 643.5840791836381 1352.123045861721 1913.1082568466663 1331.9338396638632 130.28654985874891 561.61444218456745 356.83200635015965 892.25697861611843 229.18191151320934 275.5408381819725 24.726885512471199 1307.9015875682235 153.57387199997902 556.98894914984703 346.30137008428574 528.38825853914022 297.06882451474667 1036.261807128787 126.63263251632452 2119.0623861849308 1134.5926475301385 145.64171893149614 509.49857490509748 1120.7421851232648 101.41515529900789 716.3158919736743 240.89654821157455 242.67680258303881 1340.0246784612536
leaf_count=1475 5410 1593 4213 12406 4663 934 1125 1357 3092 1105 1093 26 4539 811 1878 1302 2484 1039 5908 773 12318 5519 841 2136 5861 239 2206 1063 1251 8339
internal_value=-7.59489e-06 0.00775335 -0.00948048 -0.0165819 0.0214669 0.000709527 0.000937116 -0.0011896 -0.00814193 -0.0152111 -0.00527141 0.00396326 -0.00271081 0.00965701 0.0119855 -0.00946928 0.00796964 0.029556 -0.0123444 0.00694741 -0.0124094 -0.00313406 -0.000950295 -0.0132636 -0.0180535 0.0216629 0.0272464 2.18587e-05 -0.0324706 -0.0257806
internal_weight=22543 12391.2 10151.9 5973.4 4103.17 4178.46 8288.02 7644.43 4658.49 3237.84 1668.63 3805.49 2453.37 2985.95 2832.37 4060.29 1420.65 2644.6 1311.8 1458.57 3599.96 1480.89 1212.13 655.14 1145.47 1620.24 1277.93 342.312 372.963 1569.21
internal_count=96999 47155 49844 33020 11885 16824 35270 33677 23378 17802 8358 14639 10426 10299 9488 20614 5576 6449 7001 5436 19139 6821 4855 2977 5887 4633 3331 1302 2185 9444
cat_boundaries=0 1 2 4 6 7 10 12 13 16
cat_threshold=84747186 102370757 1619144720 117440896 1751184897 25321476 2637890 2699184128 2164539521 290 536895493 2148147712 2129984 2014872066 262417 34
is_linear=0
shrinkage=0.05


Tree=21
num_leaves=31
num_cat=9
split_feature=18 0 0 17 17 17 17 19 17 2 17 6 17 9 1 6 6 17 13 0 1 6 6 13 17 3 13 17 13 6
split_gain=600.859 421.606 266.814 239.84 176.829 170.296 163.761 163.318 185.313 172.037 126.098 125.911 116.365 123.419 116.338 111.339 183.003 110.658 106.293 101.655 86.039 83.9477 98.6027 89.2074 80.7175 80.0663 76.815 74.2845 73.9308 73.8281
threshold=0.052650000000000009 0 1 26.500000000000004 28.500000000000004 34.500000000000007 36.500000000000007 3.7334500000000004 7.5000000000000009 1.0000000180025095e-35 23.500000000000004 5.5000000000000009 20.500000000000004 9.6850000000000005 2 4.5000000000000009 8.5000000000000018 10.500000000000002 3 4 5 5.5000000000000009 9.5000000000000018 6 41.500000000000007 7.6782249881820563 7 7.5000000000000009 8 3.5000000000000004
decision_type=2 9 9 2 2 2 2 2 2 2 2 2 2 2 9 2 2 2 9 9 9 2 2 9 2 2 9 2 9 2
left_child=2 4 3 17 20 7 15 -3 -9 10 11 14 13 -11 -10 -4 27 28 -14 -12 29 23 -23 -19 -6 -13 -5 -17 -1 -2
right_child=1 5 6 26 24 -7 -8 8 9 12 19 25 18 -15 -16 16 -18 21 -20 -21 -22 22 -24 -25 -26 -27 -28 -29 -30 -31
leaf_value=0.031084668605625084 0.042055742247285671 0.019190379811945216 0.015310121651047299 -0.00089290033487031634 0.010230877984340424 -0.031135493917318204 -0.031043577349503762 0.034318988851031851 0.03501332287188394 -0.022434799335943931 0.0092127671133558041 -0.0076944973118229856 0.0066268051713829698 0.002354562152784056 -0.012404857805384896 0.069247039118390322 0.010202518558450736 0.015757380699603845 -0.039256863519759218 -0.014434840384470765 0.0023333888850780686 -0.027550304002508255 -0.0069318593234658117 -0.010822373923691779 -0.031664335043278369 0.074270606552487115 -0.038625541299658027 -0.019075961244605262 -0.0085882277157991703 0.02402004471582125
leaf_weight=242.82560852169991 983.75319392979145 1235.5782522633672 1348.6189823523164 163.06427748501301 1330.3956826105714 395.19848658144474 370.69695910066366 359.16513369977474 773.14874984323978 747.2661786749959 835.77631989121437 512.59698879718781 166.69630552083254 1530.4203976839781 154.3926041200757 24.324096202850342 1306.3464450538158 403.25369445234537 543.96498464792967 974.31657809764147 296.93022753298283 1409.2250967621803 985.25257381796837 1337.7569111511111 125.84357406944036 31.632834173738956 1188.6720815375447 1118.1934484019876 216.42507158219814 1340.6907675042748
leaf_count=626 1695 4098 4213 896 4663 2404 2185 719 1876 3993 3095 2517 761 6346 693 26 4539 1580 3484 5250 1039 9307 4868 6663 773 34 8231 5861 849 3715
internal_value=-7.22977e-06 0.00739874 -0.00904097 -0.0158261 0.0205299 0.00089061 0.000675304 0.00250099 -0.000609565 -0.00261031 0.00529275 0.0161619 -0.0112896 -0.00577836 0.0273641 0.00377337 -0.00258006 -0.0104062 -0.0289533 -0.00354485 0.0283409 -0.012992 -0.0190665 -0.00463761 0.00661043 -0.00293035 -0.0343661 -0.0171956 0.0128784 0.0315175
internal_weight=22452.4 12337.8 10114.7 5946.48 4077.61 8260.15 4168.18 7864.96 6629.38 6270.21 3281.86 1471.77 2988.35 2277.69 927.541 3797.48 2448.86 4594.74 710.661 1810.09 2621.37 4135.49 2394.48 1741.01 1456.24 544.23 1351.74 1142.52 459.251 2324.44
internal_count=96999 47155 49844 33020 11885 35270 16824 32866 28768 28049 13465 5120 14584 10339 2569 14639 10426 23893 4245 8345 6449 22418 14175 8243 5436 2551 9127 5887 1475 5410
cat_boundaries=0 1 2 3 6 7 8 11 14 17
cat_threshold=84747186 102370757 2129984 677422081 2233483520 65 13684736 2637890 2699184128 2198093953 290 4194316 1222901769 32 18888192 269361153 8
is_linear=0
shrinkage=0.05


Tree=22
num_leaves=31
num_cat=11
split_feature=18 0 0 17 17 17 13 6 6 6 17 0 17 6 6 13 13 3 13 2 17 19 13 6 3 13 13 12 13 9
split_gain=557.889 375.026 273.019 266.566 198.233 139.98 141.351 137.767 226.24 137.06 132.488 124.195 130.134 116.696 143.703 108.608 100.548 98.9056 101.985 91.1832 112.375 86.25 82.7353 81.1003 81.0973 93.0924 78.4277 78.0679 76.7935 75.8847
threshold=0.087950000000000014 0 1 21.500000000000004 36.500000000000007 28.500000000000004 2 3.5000000000000004 10.500000000000002 3.5000000000000004 6.5000000000000009 3 24.500000000000004 8.5000000000000018 5.5000000000000009 4 5 4.4173925074671834 6 1.0000000180025095e-35 10.500000000000002 3.5456500000000006 7 10.500000000000002 6.1711302495706262 8 9 0.32591350000000008 10 14.085000000000003
decision_type=2 9 9 2 2 2 9 2 2 2 2 9 2 2 2 9 9 2 9 2 2 2 9 2 2 9 9 2 9 2
left_child=1 3 5 10 7 6 -2 -3 11 -4 -1 -9 24 14 -11 -16 -5 18 -12 -8 -21 -22 -19 -7 25 -13 -14 -25 -6 -10
right_child=2 4 9 16 28 23 19 8 29 13 17 12 26 -15 15 -17 -18 22 -20 20 21 -23 -24 27 -26 -27 -28 -29 -30 -31
leaf_value=0.028527708761445447 -0.013279280403269976 0.0168027509215007 0.038079073922214497 -0.0054380715726512485 0.0015564303617733007 -0.02454830882866546 0.021281166167309067 0.010837630079612895 -0.082630249336728231 0.020477400689302473 -0.001131610502508683 0.010748115498513407 -0.0064981348983198092 0.034667654419381834 0.012478886564598324 -0.039918691456859959 -0.026633207057382671 -0.019925013726526154 -0.026698669075114104 0.030006648466131776 0.022204130544423425 -0.0073736116576587673 0.0032710825959643324 0.035214688535071183 0.010097550007904693 -0.030554584086776984 -0.035610782486085561 -0.050268013722709087 -0.037537216925789742 0.02023100459261673
leaf_weight=283.50680841505527 652.93863914161921 1946.1084721758962 1085.4904137179255 712.57888978719711 193.16402766853571 575.41579167544842 1489.9587311819196 765.50214365124702 18.196006417274475 580.98665394634008 662.95528381317854 213.95320893079042 378.41806671023369 485.00233015418053 165.77655245363712 229.07712835073471 2988.0237589776516 456.01372730731964 965.52518716454506 354.61559951305389 310.45447700470686 1195.9436357244849 2186.1909521445632 120.30939976125956 683.01496288180351 357.29146990180016 663.31494756788015 34.330314591526985 379.38209538906813 1228.4601458534598
leaf_count=626 3018 5654 2134 3773 894 3251 4830 2603 124 1896 3175 796 2002 1077 617 1334 18998 2466 5578 881 956 5495 9737 338 2700 1870 4227 198 2383 3368
internal_value=-7.22054e-06 -0.00549429 0.0113596 -0.0126557 0.00317898 0.00421713 0.0078974 0.00576154 0.000773928 0.0245255 -0.00457169 -0.00653774 -0.0123243 0.0146223 0.00465952 -0.0186149 -0.0226386 -0.00676897 -0.0164612 0.0120274 0.00468335 -0.00127792 -0.000795324 -0.0159091 -0.00152966 -0.0154319 -0.0254396 0.0162374 -0.0249763 0.0187297
internal_weight=22361.9 15081.6 7280.3 8254.79 6826.81 4733.97 4003.91 6254.26 4308.15 2546.33 4554.19 3061.49 2295.99 1460.84 975.84 394.854 3700.6 4270.69 1628.48 3350.97 1861.01 1506.4 2642.2 730.056 1254.26 571.245 1041.73 154.64 572.546 1246.66
internal_count=96999 70974 26025 44353 26621 18967 15180 23344 17690 7058 21582 14198 11595 4924 3847 1951 22771 20956 8753 12162 7332 6451 12203 3787 5366 2666 6229 536 3277 3492
cat_boundaries=0 1 2 5 6 9 12 15 18 21 24 26
cat_threshold=102370564 47367240 2276493322 101339657 418 16826898 2283803152 1409302529 1 3265429517 2405515304 162 726801412 19075078 293 169869314 2420178948 41 1094894856 344736256 129 1948794884 2504409728 264 536875648 1166017032
is_linear=0
shrinkage=0.05


Tree=23
num_leaves=31
num_cat=12
split_feature=0 18 6 6 17 1 0 6 17 17 2 17 13 13 13 6 6 17 6 0 13 9 17 13 18 13 9 13 1 6
split_gain=508.76 287.781 253.788 375.531 187.918 181.992 164.778 152.633 142.952 134.024 126.965 164.919 125.978 125.536 124.203 95.4342 140.939 148.072 128.979 111.554 110.599 103.116 103.885 94.4705 91.0684 89.2953 88.9623 88.3565 81.774 78.7401
threshold=0 0.089450000000000016 4.5000000000000009 10.500000000000002 21.500000000000004 1 2 1.5000000000000002 28.500000000000004 6.5000000000000009 1.0000000180025095e-35 8.5000000000000018 3 4 5 3.5000000000000004 10.500000000000002 18.500000000000004 1.5000000000000002 6 7 11.835000000000003 30.500000000000004 8 0.074150000000000008 9 13.445000000000002 10 11 10.500000000000002
decision_type=9 2 2 2 2 9 9 2 2 2 2 2 9 9 9 2 2 2 2 9 9 2 2 9 2 9 2 9 9 2
left_child=1 5 7 4 -4 9 25 -2 10 -1 14 -12 -7 -13 -3 18 17 27 -11 20 -19 -20 -23 -21 -9 -6 -18 -17 -5 -10
right_child=2 8 3 28 6 12 -8 24 29 15 11 13 -14 -15 -16 16 26 19 21 23 -22 22 -24 -25 -26 -27 -28 -29 -30 -31
leaf_value=0.027965801792940854 -0.0033146631960430657 0.028599239835881154 0.013812322570234726 -0.031320411217799819 -0.0072483733106813233 -0.0061611062475793125 0.0013794682423669765 0.017092059953978264 -0.023245959472814427 -0.018359767799287538 0.036867847237517765 0.0094123651924862359 -0.030464038856627171 -0.016114463020973333 0.002256752415461034 0.0059756484056182682 -0.017340095974634557 0.011510203044595537 -0.020132883710439649 -0.0063558442765639022 -0.025596658510499512 0.019252406460665169 -0.02213867041513647 -0.039134314934702492 0.035624503079267449 -0.037942050775509245 0.011054548501275427 -0.016073366425921908 0.02693908410309187 0.015488347611165377
leaf_weight=276.19641015678644 516.11678922921419 1119.7500628679991 703.72989144176245 57.044785618782043 363.9641076400876 838.43519701063633 788.95533611625433 1319.1861644983292 606.10137638449669 614.84630350023508 272.25542187690735 865.26919937878847 1550.5096346363425 1064.2572445496917 757.00317538529634 901.02763713151217 386.95938111096621 359.06802225112915 263.63539477437735 291.90150520950556 436.04328800737858 1197.3497439846396 173.5680460780859 1150.810708001256 1332.4455182626843 781.87953241169453 960.70049637556076 900.6502847969532 1259.4851891249418 167.45159011334181
leaf_count=612 1869 3239 2281 279 1819 4498 3125 3894 3457 3418 538 3326 9884 5195 2983 4003 1976 1681 1511 1743 2654 3785 890 8577 2836 4790 3653 4910 2993 580
internal_value=-1.11658e-05 -0.0051912 0.0110012 0.00257013 -0.00831292 -0.00992342 -0.0163604 0.0215625 0.0048453 -0.00624295 0.0085829 0.000438166 -0.0219958 -0.00470205 0.0181382 -0.00748838 -0.0111002 -0.0157714 0.0011617 -0.024361 -0.00890457 0.00850481 0.014012 -0.0325917 0.0264046 -0.0283396 0.00290147 -0.0051026 0.0243814 -0.0148611
internal_weight=22276.6 15153.8 7122.81 3955.06 2638.53 10301.7 1934.8 3167.75 4852.09 7912.76 4078.54 2201.78 2388.94 1929.53 1876.75 7636.56 5387.16 4039.5 2249.4 2237.82 795.111 1634.55 1370.92 1442.71 2651.63 1145.84 1347.66 1801.68 1316.53 773.553
internal_count=96999 73113 23886 15287 12015 53795 9734 8599 19318 39413 15281 9059 14382 8521 6222 38801 29197 23568 9604 14655 4335 6186 4675 10320 6730 6609 5629 8913 3272 4037
cat_boundaries=0 1 2 3 6 9 12 13 16 19 22 25 26
cat_threshold=47355213 2130262 67897504 1942144396 2357203497 800 1145187347 1100229008 585 2282321152 2420125700 9 12616009 2686468353 1098933001 40 2276590612 2199732361 355 1126303772 2488156163 360 3980538545 227168260 132 32770
is_linear=0
shrinkage=0.05


Tree=24
num_leaves=31
num_cat=9
split_feature=18 0 0 17 17 6 6 17 0 17 19 17 2 6 3 13 17 6 6 3 6 6 13 3 6 13 13 13 6 13
split_gain=472.007 337.967 205.469 198.687 167.354 165.394 233.046 144.795 174.647 142.88 134.424 135.777 149.982 112.371 109.393 106.791 93.5077 86.2214 103.256 83.6259 83.1868 95.388 82.5772 81.8432 80.6044 80.5625 74.9594 73.9082 72.2275 71.8744
threshold=0.052650000000000009 0 1 26.500000000000004 25.500000000000004 3.5000000000000004 9.5000000000000018 23.500000000000004 2 36.500000000000007 3.5456500000000006 6.5000000000000009 1.0000000180025095e-35 1.5000000000000002 7.439302844238493 3 11.500000000000002 5.5000000000000009 9.5000000000000018 6.4689045759913961 7.5000000000000009 3.5000000000000004 4 4.4173925074671834 5.5000000000000009 5 6 7 5.5000000000000009 8
decision_type=2 9 9 2 2 2 2 2 9 2 2 2 2 2 2 9 2 2 2 2 2 2 9 2 2 9 9 9 2 9
left_child=2 4 3 16 10 13 7 28 -9 14 -2 -12 15 -3 -4 24 29 22 -19 -6 21 23 -18 -14 -13 -23 -22 -5 -7 -1
right_child=1 5 9 27 19 6 -8 8 -10 -11 11 12 20 -15 -16 -17 17 18 -20 -21 26 25 -24 -25 -26 -27 -28 -29 -30 -31
leaf_value=0.027762741834387525 0.027652452473782691 0.0019301525250591204 -0.0010338786735516914 0.0020393867575936391 -0.023919970752643509 0.033843654650997049 0.028946259760767003 0.010172860471532695 -0.027403684967319399 -0.028855873295028346 0.034338417781067776 0.030245464068715484 -0.022195927367621424 0.033309866242554241 0.019958177421816419 -0.0060611162931966077 0.010916578202195925 -0.027703915828267558 -0.0059968752720669129 -0.00086400362876501056 0.019643424983076724 -0.004129865605311576 -0.011884750535424211 0.008418024580888547 0.001901045770288001 -0.032198173204642612 -0.0089511591735645397 -0.035992417339574069 0.0029362381265035198 -0.0074454572064036051
leaf_weight=270.11774864047766 532.65672143548727 345.64221562445164 3076.0042408704758 151.74709088355303 959.28810624033213 336.64168553799391 1000.4378558024764 543.128727465868 700.17497683316469 382.04301061481237 291.89322449266911 720.22691634297371 322.40298331528902 1634.1080976948142 777.4721731543541 591.92678555846214 620.92839055508375 1286.5379380509257 954.12858761101961 666.57544551789761 445.7810617685318 406.8487583398819 1064.7242158353329 676.21235974133015 384.84365059435368 743.49263455718756 453.78231605142355 1115.876735329628 431.06888031214476 296.75557371973991
leaf_count=786 1484 1233 12642 840 5622 808 2465 2016 4203 2301 576 1955 1711 3443 2376 2654 2601 8876 4762 2943 1507 1997 5454 2381 1753 4617 2145 7966 1642 1240
internal_value=-1.36082e-05 0.00659179 -0.00806665 -0.0142007 -0.000353509 0.0165725 0.00922589 -0.000584583 -0.0111272 0.000309156 0.00376561 0.00123981 -0.000796059 0.0278313 0.00320145 0.0111178 -0.00929323 -0.012034 -0.0184605 -0.0144674 -0.00742805 -0.0127719 -0.00349138 -0.00146569 0.0201917 -0.0225869 0.00533782 -0.0317075 0.0164892 0.00968982
internal_weight=22183.5 12187.1 9996.34 5760.82 7195.93 4991.2 3011.45 2011.01 1243.3 4235.52 5570.07 5037.41 4745.52 1979.75 3853.48 1697 4493.19 3926.32 2240.67 1625.86 3048.52 2148.96 1685.65 998.615 1105.07 1150.34 899.563 1267.62 767.711 566.873
internal_count=96999 47155 49844 32525 31345 15810 11134 8669 6219 17319 22780 21296 20720 4676 15018 6362 23719 21693 13638 8565 14358 10706 8055 4092 3708 6614 3652 8806 2450 2026
cat_boundaries=0 1 2 3 6 9 12 14 17 20
cat_threshold=43176969 101320133 598326 136902405 2505052678 8 2690803720 2198102145 291 941789714 3305525513 1 2705477649 295059460 4194308 1222901769 32 52444672 269352965 8
is_linear=0
shrinkage=0.05


Tree=25
num_leaves=31
num_cat=11
split_feature=18 0 17 0 17 17 3 6 6 13 13 17 13 1 13 1 13 17 9 6 6 13 3 19 0 17 6 7 10 17
split_gain=433.874 288.711 224.346 221.911 178.301 171.378 123.585 121.933 127.802 104.333 102.14 100.979 96.2759 94.2453 93.2937 91.6958 89.0872 80.7587 85.7877 77.2968 155.462 72.8659 81.1256 72.2338 71.8629 73.979 68.7444 66.5882 64.8497 62.47
threshold=0.087950000000000014 0 21.500000000000004 1 24.500000000000004 32.500000000000007 7.4752413219390288 3.5000000000000004 10.500000000000002 2 3 6.5000000000000009 4 5 6 7 8 8.5000000000000018 9.2750000000000004 10.500000000000002 3.5000000000000004 9 6.1711302495706262 4.2986500000000012 10 40.500000000000007 5.5000000000000009 1.5000000000000002 9.2556475761110573 27.500000000000004
decision_type=2 9 2 9 2 2 2 2 2 9 9 2 9 9 9 9 9 2 2 2 2 9 2 2 9 2 2 2 2 2
left_child=1 2 11 4 10 6 13 -5 12 -6 -2 -1 -9 19 -4 -13 -17 -12 -19 20 -3 -22 -23 -15 25 27 29 -7 -18 -14
right_child=3 5 14 7 9 24 -8 8 -10 -11 17 15 26 23 -16 16 28 18 -20 -21 21 22 -24 -25 -26 -27 -28 -29 -30 -31
leaf_value=0.025610636362662038 0.02019048317656312 0.020026228657591117 -0.030786300643108749 0.033074238934803199 0.0042338715997723413 -0.011227488655313542 0.025971998623153716 0.019184204423950885 0.034513690694324771 -0.026244877455701615 0.034115002494755818 0.028159878695581866 0.02371295484028918 0.0038143615165649653 -0.014017804398001339 -0.019062649368531095 -0.0045722808444509334 -0.030403846715503946 0.0028055352930960093 0.023377241663203954 0.0067185435636401523 -0.037838862384730942 -0.0047668619234969411 -0.018817923521862328 0.00070490204923580714 -0.055478845201763639 -0.028133689419276211 -0.071703010971524289 0.02558723264224004 -0.017387722916507246
leaf_weight=274.53324528038502 1240.3410337790847 987.2052893191576 1370.8142642825842 1204.0795515701175 475.54594618082047 615.8623371720314 727.74649318307638 521.37639540433884 457.78386235237122 679.1949133053422 176.38767583668232 182.01217523217201 198.79464496672153 738.7524803802371 2263.7991866990924 1138.3903094902635 2731.0735170170665 222.36227379739285 1550.0893964469433 689.81827141344547 693.52499225735664 269.86881991475821 592.62598752975464 674.38848209381104 579.48582379519939 141.77945078164339 282.22810635715723 49.150062456727028 190.68199823051691 172.82567911595106
leaf_count=626 3977 2645 9329 2562 2076 3079 1897 1828 979 3875 362 603 568 2870 13442 6345 13304 1263 6084 1740 2948 1556 2830 3197 2416 1085 1541 358 704 910
internal_value=-1.42434e-05 -0.00487676 -0.0112048 0.0100829 0.00294413 0.00276587 0.00681336 0.020929 0.012102 -0.0138837 0.00904641 -0.00377745 0.00337202 0.00381248 -0.0204654 -0.00567931 -0.00724779 0.0018407 -0.00136074 0.00850627 0.00450616 -0.00534044 -0.0149416 -0.00693728 -0.0129044 -0.0224103 -0.00938641 -0.0156971 -0.0025951 0.00459868
internal_weight=22092.5 14911.5 8151.3 7181.01 4343.92 6760.21 5373.93 2837.09 1633.01 1154.74 3189.18 4516.69 1175.22 4646.18 3634.61 4242.16 4060.15 1948.84 1772.45 3233.04 2543.23 1556.02 862.495 1413.14 1386.28 806.792 653.848 665.012 2921.76 371.62
internal_count=96999 70974 44353 26025 17637 26621 19683 8388 5826 5951 11686 21582 4847 17786 22771 20956 20353 7709 7347 11719 9979 7334 4386 6067 6938 4522 3019 3437 14008 1478
cat_boundaries=0 1 2 5 8 11 12 15 16 19 22 23
cat_threshold=102370564 43172936 2818582017 2148687879 512 1477062929 1359225092 72 1076909585 3590848513 3 2097436 219156738 270016644 777 294930 3257409547 2420187904 11 1638416648 361652744 224 12914896
is_linear=0
shrinkage=0.05


Tree=26
num_leaves=31
num_cat=13
split_feature=0 17 18 0 6 6 17 1 2 17 17 9 17 3 13 0 13 13 1 6 2 13 13 19 13 0 17 6 6 13
split_gain=398.889 282.174 215.199 213.768 200.085 339.671 153.644 127.937 127.725 124.367 120.325 114.189 131.026 108.267 108.261 98.0365 96.6182 89.6017 88.9228 88.1672 146.097 92.2496 87.7505 86.1581 106.866 82.5218 71.7249 87.5449 94.6611 79.4698
threshold=0 27.500000000000004 0.092250000000000013 1 4.5000000000000009 8.5000000000000018 21.500000000000004 2 1.0000000180025095e-35 6.5000000000000009 8.5000000000000018 15.015000000000002 23.500000000000004 6.4402488720760784 3 4 5 6 7 3.5000000000000004 1.0000000180025095e-35 8 9 3.7146000000000003 10 11 14.500000000000002 8.5000000000000018 5.5000000000000009 12
decision_type=9 2 2 9 2 2 2 9 2 2 2 2 2 2 9 9 9 9 9 2 2 9 9 2 9 9 2 2 2 9
left_child=4 2 9 23 11 6 -6 -7 16 -2 -10 -1 -13 18 -12 17 -4 -8 19 20 -11 -21 -17 24 -3 -14 -23 28 29 -28
right_child=1 3 8 -5 5 7 15 -9 10 13 14 12 25 -15 -16 22 -18 -19 -20 21 -22 26 -24 -25 -26 -27 27 -29 -30 -31
leaf_value=-0.01578165138248698 0.026727733176018339 0.019068913771520504 0.029630500596985694 -0.0025822851526174349 0.012953454110140754 0.021581034602258489 0.018337240984146415 -0.033613223656462847 0.033245722945117642 0.023641496645493788 0.0099592832237849257 0.042925856525871955 0.036277812076118313 0.0046608451383555261 -0.014547860807629199 0.003044673672564118 0.0064102722950740683 -0.026894637729472565 -0.02335326711740085 0.0065466429173929794 -0.0084212096224023803 -0.0036149181589878385 -0.038422723444501324 -0.033812148493451037 -0.031460334607479677 0.011199790334766953 0.0043019035483983043 -0.0083448128679635466 -0.041319781683654064 -0.032195265952225084
leaf_weight=199.29638110846281 293.80412969738245 190.99203854054213 942.20854577422142 1451.9726468324661 429.51622327417135 1647.9812376946211 241.42431651055813 104.54760958999395 246.20658354461193 560.33070906996727 784.57373154908419 649.40076390653849 423.63985910266638 1748.2268771380186 1033.8950133323669 161.23641191422939 882.44251150637865 184.00578284263611 959.64736311882734 641.50578965991735 970.91021121293306 1086.711302742362 719.13284436613321 1493.8910827413201 210.21846295893192 1503.9403745532036 306.80146832019091 1011.6286027655005 650.19399139285088 281.64647354185581
leaf_count=803 657 852 2562 6638 1386 4614 803 529 510 1749 2966 1132 930 7701 5032 757 3239 921 5788 2897 4724 5232 4521 10407 1346 4733 1472 5308 5009 1781
internal_value=-1.33529e-05 -0.00425854 -0.00078406 -0.017144 0.0106487 0.00269311 -0.0129875 0.0182197 0.00895977 -0.00523655 0.000441843 0.0206817 0.0235017 -0.00637937 -0.00399955 -0.0215203 0.0185982 -0.00139468 -0.00936278 -0.00687115 0.00331157 -0.0108076 -0.0308792 -0.0281387 -0.00771527 0.0169577 -0.014121 -0.0192575 -0.0281701 -0.0136406
internal_weight=22011.9 15747.8 12400.7 3347.07 6264.12 3487.84 1735.32 1752.53 3889.33 8511.41 2064.68 2776.28 2576.98 8217.6 1818.47 1305.8 1824.65 425.43 6469.38 5509.73 1531.24 3978.49 880.369 1895.1 401.211 1927.58 3336.98 2250.27 1238.64 588.448
internal_count=96999 75870 56627 19243 21129 13531 8388 5143 14309 42318 8508 7598 6795 41661 7998 7002 5801 1724 33960 28172 6473 21699 5278 12605 2198 5663 18802 13570 8262 3253
cat_boundaries=0 1 2 3 6 7 10 13 14 17 20 23 24 27
cat_threshold=84763186 34737600 2900104 1143090195 1100229008 584 81938 134247680 270340 9 2126592 1098924545 384 2658322 2769518997 1192169528 388 1126826000 336461827 320 3223339529 12599299 513 8226 140534784 2155872385 2
is_linear=0
shrinkage=0.05


Tree=27
num_leaves=31
num_cat=9
split_feature=18 0 6 6 17 0 17 17 19 17 0 17 9 6 13 6 3 13 13 17 6 13 17 6 6 13 19 6 17 13
split_gain=379.441 268.955 156.577 219.231 156.441 154.506 181.871 119.761 116.908 110.708 143.647 108.737 127.224 100.87 100.372 91.4563 87.4014 83.999 81.2887 78.0259 122.165 77.6131 75.0206 75.9096 90.544 73.3966 72.8309 67.7813 89.3311 72.5182
threshold=0.052650000000000009 0 3.5000000000000004 8.5000000000000018 25.500000000000004 1 26.500000000000004 36.500000000000007 3.5456500000000006 24.500000000000004 2 6.5000000000000009 11.475000000000003 1.5000000000000002 3 3.5000000000000004 7.5140063608666638 4 5 17.500000000000004 9.5000000000000018 6 11.500000000000002 5.5000000000000009 8.5000000000000018 7 4.054850000000001 5.5000000000000009 11.500000000000002 8
decision_type=2 9 2 2 2 9 2 2 2 2 9 2 2 2 9 2 2 9 9 2 2 9 2 2 2 9 2 2 2 9
left_child=5 4 13 9 8 6 22 16 -2 27 -11 -10 21 -3 -6 17 -7 -14 26 -20 -21 -13 -1 25 -25 -24 -17 -4 -29 -30
right_child=1 2 3 -5 14 7 -8 -9 11 10 -12 12 15 -15 -16 18 -18 -19 19 20 -22 -23 23 24 -26 -27 -28 28 29 -31
